digraph Tree {
node [shape=box, style="filled, rounded", color="black", fontname="helvetica"] ;
edge [fontname="helvetica"] ;
0 [label="colExt1:ratio_m1_m2_ZAMS <= -0.59\ngini = 0.5\nsamples = 12682\nvalue = [9952, 10048]\nclass = '", fillcolor="#fdfeff"] ;
1 [label="col.1:m1ZAMS/Msun <= 0.27\ngini = 0.08\nsamples = 4212\nvalue = [6299, 276]\nclass = [", fillcolor="#e68742"] ;
0 -> 1 [labeldistance=2.5, labelangle=45, headlabel="True"] ;
2 [label="col.7:sma/Rsun <= 9.46\ngini = 0.01\nsamples = 3535\nvalue = [5513, 18]\nclass = [", fillcolor="#e5813a"] ;
1 -> 2 ;
3 [label="col.3:m1rem/Msun <= 0.49\ngini = 0.01\nsamples = 3533\nvalue = [5513, 14]\nclass = [", fillcolor="#e5813a"] ;
2 -> 3 ;
4 [label="col.1:m1ZAMS/Msun <= 0.08\ngini = 0.0\nsamples = 3453\nvalue = [5398, 2]\nclass = [", fillcolor="#e58139"] ;
3 -> 4 ;
5 [label="gini = 0.0\nsamples = 3329\nvalue = [5211, 0]\nclass = [", fillcolor="#e58139"] ;
4 -> 5 ;
6 [label="col.2:m2ZAMS/Msun <= 0.47\ngini = 0.02\nsamples = 124\nvalue = [187, 2]\nclass = [", fillcolor="#e5823b"] ;
4 -> 6 ;
7 [label="gini = 0.0\nsamples = 2\nvalue = [0, 2]\nclass = '", fillcolor="#399de5"] ;
6 -> 7 ;
8 [label="gini = 0.0\nsamples = 122\nvalue = [187, 0]\nclass = [", fillcolor="#e58139"] ;
6 -> 8 ;
9 [label="col.2:m2ZAMS/Msun <= 0.67\ngini = 0.17\nsamples = 80\nvalue = [115, 12]\nclass = [", fillcolor="#e88e4e"] ;
3 -> 9 ;
10 [label="col.1:m1ZAMS/Msun <= 0.15\ngini = 0.47\nsamples = 10\nvalue = [7, 12]\nclass = '", fillcolor="#acd6f4"] ;
9 -> 10 ;
11 [label="gini = 0.0\nsamples = 2\nvalue = [7, 0]\nclass = [", fillcolor="#e58139"] ;
10 -> 11 ;
12 [label="gini = 0.0\nsamples = 8\nvalue = [0, 12]\nclass = '", fillcolor="#399de5"] ;
10 -> 12 ;
13 [label="gini = 0.0\nsamples = 70\nvalue = [108, 0]\nclass = [", fillcolor="#e58139"] ;
9 -> 13 ;
14 [label="gini = 0.0\nsamples = 2\nvalue = [0, 4]\nclass = '", fillcolor="#399de5"] ;
2 -> 14 ;
15 [label="col.7:sma/Rsun <= -0.0\ngini = 0.37\nsamples = 677\nvalue = [786, 258]\nclass = [", fillcolor="#eeaa7a"] ;
1 -> 15 ;
16 [label="alpha <= -0.19\ngini = 0.02\nsamples = 232\nvalue = [347, 3]\nclass = [", fillcolor="#e5823b"] ;
15 -> 16 ;
17 [label="colExt1:ratio_m1_m2_ZAMS <= -0.6\ngini = 0.01\nsamples = 230\nvalue = [346, 2]\nclass = [", fillcolor="#e5823a"] ;
16 -> 17 ;
18 [label="gini = 0.0\nsamples = 229\nvalue = [346, 0]\nclass = [", fillcolor="#e58139"] ;
17 -> 18 ;
19 [label="gini = 0.0\nsamples = 1\nvalue = [0, 2]\nclass = '", fillcolor="#399de5"] ;
17 -> 19 ;
20 [label="colExt2:ratio_m1_m2_rem <= 0.13\ngini = 0.5\nsamples = 2\nvalue = [1, 1]\nclass = [", fillcolor="#ffffff"] ;
16 -> 20 ;
21 [label="gini = 0.0\nsamples = 1\nvalue = [0, 1]\nclass = '", fillcolor="#399de5"] ;
20 -> 21 ;
22 [label="gini = 0.0\nsamples = 1\nvalue = [1, 0]\nclass = [", fillcolor="#e58139"] ;
20 -> 22 ;
23 [label="col.8:ecc <= -0.11\ngini = 0.46\nsamples = 445\nvalue = [439, 255]\nclass = [", fillcolor="#f4caac"] ;
15 -> 23 ;
24 [label="col.8:ecc <= -0.44\ngini = 0.49\nsamples = 275\nvalue = [194, 244]\nclass = '", fillcolor="#d6ebfa"] ;
23 -> 24 ;
25 [label="colExt1:ratio_m1_m2_ZAMS <= -0.62\ngini = 0.22\nsamples = 44\nvalue = [61, 9]\nclass = [", fillcolor="#e99456"] ;
24 -> 25 ;
26 [label="col.2:m2ZAMS/Msun <= 0.65\ngini = 0.03\nsamples = 40\nvalue = [60, 1]\nclass = [", fillcolor="#e5833c"] ;
25 -> 26 ;
27 [label="col.3:m1rem/Msun <= 0.46\ngini = 0.44\nsamples = 2\nvalue = [2, 1]\nclass = [", fillcolor="#f2c09c"] ;
26 -> 27 ;
28 [label="gini = 0.0\nsamples = 1\nvalue = [2, 0]\nclass = [", fillcolor="#e58139"] ;
27 -> 28 ;
29 [label="gini = 0.0\nsamples = 1\nvalue = [0, 1]\nclass = '", fillcolor="#399de5"] ;
27 -> 29 ;
30 [label="gini = 0.0\nsamples = 38\nvalue = [58, 0]\nclass = [", fillcolor="#e58139"] ;
26 -> 30 ;
31 [label="metallicity <= -0.04\ngini = 0.2\nsamples = 4\nvalue = [1, 8]\nclass = '", fillcolor="#52a9e8"] ;
25 -> 31 ;
32 [label="gini = 0.0\nsamples = 3\nvalue = [0, 8]\nclass = '", fillcolor="#399de5"] ;
31 -> 32 ;
33 [label="gini = 0.0\nsamples = 1\nvalue = [1, 0]\nclass = [", fillcolor="#e58139"] ;
31 -> 33 ;
34 [label="col.4:m2rem/Msun <= 1.01\ngini = 0.46\nsamples = 231\nvalue = [133, 235]\nclass = '", fillcolor="#a9d4f4"] ;
24 -> 34 ;
35 [label="gini = 0.0\nsamples = 18\nvalue = [31, 0]\nclass = [", fillcolor="#e58139"] ;
34 -> 35 ;
36 [label="colExt2:ratio_m1_m2_rem <= -0.35\ngini = 0.42\nsamples = 213\nvalue = [102, 235]\nclass = '", fillcolor="#8fc8f0"] ;
34 -> 36 ;
37 [label="col.3:m1rem/Msun <= 0.61\ngini = 0.03\nsamples = 35\nvalue = [61, 1]\nclass = [", fillcolor="#e5833c"] ;
36 -> 37 ;
38 [label="col.4:m2rem/Msun <= 1.02\ngini = 0.38\nsamples = 3\nvalue = [3, 1]\nclass = [", fillcolor="#eeab7b"] ;
37 -> 38 ;
39 [label="gini = 0.0\nsamples = 1\nvalue = [0, 1]\nclass = '", fillcolor="#399de5"] ;
38 -> 39 ;
40 [label="gini = 0.0\nsamples = 2\nvalue = [3, 0]\nclass = [", fillcolor="#e58139"] ;
38 -> 40 ;
41 [label="gini = 0.0\nsamples = 32\nvalue = [58, 0]\nclass = [", fillcolor="#e58139"] ;
37 -> 41 ;
42 [label="colExt1:ratio_m1_m2_ZAMS <= -0.82\ngini = 0.25\nsamples = 178\nvalue = [41, 234]\nclass = '", fillcolor="#5caeea"] ;
36 -> 42 ;
43 [label="gini = 0.0\nsamples = 27\nvalue = [37, 0]\nclass = [", fillcolor="#e58139"] ;
42 -> 43 ;
44 [label="colExt1:ratio_m1_m2_ZAMS <= -0.77\ngini = 0.03\nsamples = 151\nvalue = [4, 234]\nclass = '", fillcolor="#3c9fe5"] ;
42 -> 44 ;
45 [label="col.4:m2rem/Msun <= 1.34\ngini = 0.49\nsamples = 4\nvalue = [3, 4]\nclass = '", fillcolor="#cee6f8"] ;
44 -> 45 ;
46 [label="gini = 0.0\nsamples = 1\nvalue = [3, 0]\nclass = [", fillcolor="#e58139"] ;
45 -> 46 ;
47 [label="gini = 0.0\nsamples = 3\nvalue = [0, 4]\nclass = '", fillcolor="#399de5"] ;
45 -> 47 ;
48 [label="col.3:m1rem/Msun <= 0.81\ngini = 0.01\nsamples = 147\nvalue = [1, 230]\nclass = '", fillcolor="#3a9de5"] ;
44 -> 48 ;
49 [label="col.3:m1rem/Msun <= 0.8\ngini = 0.06\nsamples = 20\nvalue = [1, 32]\nclass = '", fillcolor="#3fa0e6"] ;
48 -> 49 ;
50 [label="gini = 0.0\nsamples = 19\nvalue = [0, 32]\nclass = '", fillcolor="#399de5"] ;
49 -> 50 ;
51 [label="gini = 0.0\nsamples = 1\nvalue = [1, 0]\nclass = [", fillcolor="#e58139"] ;
49 -> 51 ;
52 [label="gini = 0.0\nsamples = 127\nvalue = [0, 198]\nclass = '", fillcolor="#399de5"] ;
48 -> 52 ;
53 [label="col.8:ecc <= -0.03\ngini = 0.08\nsamples = 170\nvalue = [245, 11]\nclass = [", fillcolor="#e68742"] ;
23 -> 53 ;
54 [label="colExt1:ratio_m1_m2_ZAMS <= -0.67\ngini = 0.32\nsamples = 33\nvalue = [40, 10]\nclass = [", fillcolor="#eca06a"] ;
53 -> 54 ;
55 [label="col.7:sma/Rsun <= 0.21\ngini = 0.05\nsamples = 26\nvalue = [40, 1]\nclass = [", fillcolor="#e6843e"] ;
54 -> 55 ;
56 [label="gini = 0.0\nsamples = 15\nvalue = [23, 0]\nclass = [", fillcolor="#e58139"] ;
55 -> 56 ;
57 [label="col.6:delay_time/Myr <= 0.76\ngini = 0.1\nsamples = 11\nvalue = [17, 1]\nclass = [", fillcolor="#e78845"] ;
55 -> 57 ;
58 [label="gini = 0.0\nsamples = 1\nvalue = [0, 1]\nclass = '", fillcolor="#399de5"] ;
57 -> 58 ;
59 [label="gini = 0.0\nsamples = 10\nvalue = [17, 0]\nclass = [", fillcolor="#e58139"] ;
57 -> 59 ;
60 [label="gini = 0.0\nsamples = 7\nvalue = [0, 9]\nclass = '", fillcolor="#399de5"] ;
54 -> 60 ;
61 [label="col.2:m2ZAMS/Msun <= 2.04\ngini = 0.01\nsamples = 137\nvalue = [205, 1]\nclass = [", fillcolor="#e5823a"] ;
53 -> 61 ;
62 [label="gini = 0.0\nsamples = 1\nvalue = [0, 1]\nclass = '", fillcolor="#399de5"] ;
61 -> 62 ;
63 [label="gini = 0.0\nsamples = 136\nvalue = [205, 0]\nclass = [", fillcolor="#e58139"] ;
61 -> 63 ;
64 [label="col.3:m1rem/Msun <= -0.6\ngini = 0.4\nsamples = 8470\nvalue = [3653, 9772]\nclass = '", fillcolor="#83c2ef"] ;
0 -> 64 [labeldistance=2.5, labelangle=-45, headlabel="False"] ;
65 [label="col.3:m1rem/Msun <= -0.68\ngini = 0.08\nsamples = 1588\nvalue = [2402, 109]\nclass = [", fillcolor="#e68742"] ;
64 -> 65 ;
66 [label="col.4:m2rem/Msun <= -1.33\ngini = 0.02\nsamples = 1464\nvalue = [2291, 23]\nclass = [", fillcolor="#e5823b"] ;
65 -> 66 ;
67 [label="gini = 0.0\nsamples = 803\nvalue = [1274, 0]\nclass = [", fillcolor="#e58139"] ;
66 -> 67 ;
68 [label="colExt1:ratio_m1_m2_ZAMS <= 2.49\ngini = 0.04\nsamples = 661\nvalue = [1017, 23]\nclass = [", fillcolor="#e6843d"] ;
66 -> 68 ;
69 [label="col.7:sma/Rsun <= -0.05\ngini = 0.01\nsamples = 652\nvalue = [1017, 7]\nclass = [", fillcolor="#e5823a"] ;
68 -> 69 ;
70 [label="gini = 0.0\nsamples = 579\nvalue = [916, 0]\nclass = [", fillcolor="#e58139"] ;
69 -> 70 ;
71 [label="colExt2:ratio_m1_m2_rem <= 0.36\ngini = 0.12\nsamples = 73\nvalue = [101, 7]\nclass = [", fillcolor="#e78a47"] ;
69 -> 71 ;
72 [label="gini = 0.0\nsamples = 56\nvalue = [85, 0]\nclass = [", fillcolor="#e58139"] ;
71 -> 72 ;
73 [label="col.3:m1rem/Msun <= -0.74\ngini = 0.42\nsamples = 17\nvalue = [16, 7]\nclass = [", fillcolor="#f0b890"] ;
71 -> 73 ;
74 [label="gini = 0.0\nsamples = 11\nvalue = [15, 0]\nclass = [", fillcolor="#e58139"] ;
73 -> 74 ;
75 [label="col.8:ecc <= -0.37\ngini = 0.22\nsamples = 6\nvalue = [1, 7]\nclass = '", fillcolor="#55abe9"] ;
73 -> 75 ;
76 [label="gini = 0.0\nsamples = 1\nvalue = [1, 0]\nclass = [", fillcolor="#e58139"] ;
75 -> 76 ;
77 [label="gini = 0.0\nsamples = 5\nvalue = [0, 7]\nclass = '", fillcolor="#399de5"] ;
75 -> 77 ;
78 [label="gini = 0.0\nsamples = 9\nvalue = [0, 16]\nclass = '", fillcolor="#399de5"] ;
68 -> 78 ;
79 [label="col.8:ecc <= -0.38\ngini = 0.49\nsamples = 124\nvalue = [111, 86]\nclass = [", fillcolor="#f9e3d2"] ;
65 -> 79 ;
80 [label="col.8:ecc <= -0.44\ngini = 0.15\nsamples = 62\nvalue = [88, 8]\nclass = [", fillcolor="#e78c4b"] ;
79 -> 80 ;
81 [label="gini = 0.0\nsamples = 3\nvalue = [0, 3]\nclass = '", fillcolor="#399de5"] ;
80 -> 81 ;
82 [label="colExt1:ratio_m1_m2_ZAMS <= 1.32\ngini = 0.1\nsamples = 59\nvalue = [88, 5]\nclass = [", fillcolor="#e68844"] ;
80 -> 82 ;
83 [label="metallicity <= -0.68\ngini = 0.04\nsamples = 58\nvalue = [88, 2]\nclass = [", fillcolor="#e6843d"] ;
82 -> 83 ;
84 [label="col.2:m2ZAMS/Msun <= -0.9\ngini = 0.3\nsamples = 8\nvalue = [9, 2]\nclass = [", fillcolor="#eb9d65"] ;
83 -> 84 ;
85 [label="gini = 0.0\nsamples = 2\nvalue = [0, 2]\nclass = '", fillcolor="#399de5"] ;
84 -> 85 ;
86 [label="gini = 0.0\nsamples = 6\nvalue = [9, 0]\nclass = [", fillcolor="#e58139"] ;
84 -> 86 ;
87 [label="gini = 0.0\nsamples = 50\nvalue = [79, 0]\nclass = [", fillcolor="#e58139"] ;
83 -> 87 ;
88 [label="gini = 0.0\nsamples = 1\nvalue = [0, 3]\nclass = '", fillcolor="#399de5"] ;
82 -> 88 ;
89 [label="col.2:m2ZAMS/Msun <= -0.97\ngini = 0.35\nsamples = 62\nvalue = [23, 78]\nclass = '", fillcolor="#73baed"] ;
79 -> 89 ;
90 [label="col.8:ecc <= 0.4\ngini = 0.08\nsamples = 45\nvalue = [3, 69]\nclass = '", fillcolor="#42a1e6"] ;
89 -> 90 ;
91 [label="col.3:m1rem/Msun <= -0.66\ngini = 0.03\nsamples = 41\nvalue = [1, 66]\nclass = '", fillcolor="#3c9ee5"] ;
90 -> 91 ;
92 [label="col.8:ecc <= -0.27\ngini = 0.09\nsamples = 10\nvalue = [1, 20]\nclass = '", fillcolor="#43a2e6"] ;
91 -> 92 ;
93 [label="metallicity <= -0.32\ngini = 0.44\nsamples = 2\nvalue = [1, 2]\nclass = '", fillcolor="#9ccef2"] ;
92 -> 93 ;
94 [label="gini = 0.0\nsamples = 1\nvalue = [0, 2]\nclass = '", fillcolor="#399de5"] ;
93 -> 94 ;
95 [label="gini = 0.0\nsamples = 1\nvalue = [1, 0]\nclass = [", fillcolor="#e58139"] ;
93 -> 95 ;
96 [label="gini = 0.0\nsamples = 8\nvalue = [0, 18]\nclass = '", fillcolor="#399de5"] ;
92 -> 96 ;
97 [label="gini = 0.0\nsamples = 31\nvalue = [0, 46]\nclass = '", fillcolor="#399de5"] ;
91 -> 97 ;
98 [label="colExt1:ratio_m1_m2_ZAMS <= 2.22\ngini = 0.48\nsamples = 4\nvalue = [2, 3]\nclass = '", fillcolor="#bddef6"] ;
90 -> 98 ;
99 [label="gini = 0.0\nsamples = 2\nvalue = [0, 2]\nclass = '", fillcolor="#399de5"] ;
98 -> 99 ;
100 [label="colExt2:ratio_m1_m2_rem <= 1.78\ngini = 0.44\nsamples = 2\nvalue = [2, 1]\nclass = [", fillcolor="#f2c09c"] ;
98 -> 100 ;
101 [label="gini = 0.0\nsamples = 1\nvalue = [2, 0]\nclass = [", fillcolor="#e58139"] ;
100 -> 101 ;
102 [label="gini = 0.0\nsamples = 1\nvalue = [0, 1]\nclass = '", fillcolor="#399de5"] ;
100 -> 102 ;
103 [label="col.1:m1ZAMS/Msun <= -0.41\ngini = 0.43\nsamples = 17\nvalue = [20, 9]\nclass = [", fillcolor="#f1ba92"] ;
89 -> 103 ;
104 [label="gini = 0.0\nsamples = 10\nvalue = [18, 0]\nclass = [", fillcolor="#e58139"] ;
103 -> 104 ;
105 [label="col.4:m2rem/Msun <= -0.88\ngini = 0.3\nsamples = 7\nvalue = [2, 9]\nclass = '", fillcolor="#65b3eb"] ;
103 -> 105 ;
106 [label="gini = 0.0\nsamples = 6\nvalue = [0, 9]\nclass = '", fillcolor="#399de5"] ;
105 -> 106 ;
107 [label="gini = 0.0\nsamples = 1\nvalue = [2, 0]\nclass = [", fillcolor="#e58139"] ;
105 -> 107 ;
108 [label="col.7:sma/Rsun <= -0.11\ngini = 0.2\nsamples = 6882\nvalue = [1251, 9663]\nclass = '", fillcolor="#53aae8"] ;
64 -> 108 ;
109 [label="alpha <= 0.97\ngini = 0.28\nsamples = 417\nvalue = [578, 114]\nclass = [", fillcolor="#ea9a60"] ;
108 -> 109 ;
110 [label="col.1:m1ZAMS/Msun <= 0.72\ngini = 0.23\nsamples = 398\nvalue = [574, 87]\nclass = [", fillcolor="#e99457"] ;
109 -> 110 ;
111 [label="colExt1:ratio_m1_m2_ZAMS <= 1.16\ngini = 0.12\nsamples = 367\nvalue = [573, 38]\nclass = [", fillcolor="#e78946"] ;
110 -> 111 ;
112 [label="col.6:delay_time/Myr <= -0.83\ngini = 0.01\nsamples = 339\nvalue = [565, 2]\nclass = [", fillcolor="#e5813a"] ;
111 -> 112 ;
113 [label="gini = 0.0\nsamples = 293\nvalue = [497, 0]\nclass = [", fillcolor="#e58139"] ;
112 -> 113 ;
114 [label="col.1:m1ZAMS/Msun <= -0.2\ngini = 0.06\nsamples = 46\nvalue = [68, 2]\nclass = [", fillcolor="#e6853f"] ;
112 -> 114 ;
115 [label="col.2:m2ZAMS/Msun <= -0.82\ngini = 0.03\nsamples = 44\nvalue = [66, 1]\nclass = [", fillcolor="#e5833c"] ;
114 -> 115 ;
116 [label="gini = 0.0\nsamples = 1\nvalue = [0, 1]\nclass = '", fillcolor="#399de5"] ;
115 -> 116 ;
117 [label="gini = 0.0\nsamples = 43\nvalue = [66, 0]\nclass = [", fillcolor="#e58139"] ;
115 -> 117 ;
118 [label="alpha <= -0.19\ngini = 0.44\nsamples = 2\nvalue = [2, 1]\nclass = [", fillcolor="#f2c09c"] ;
114 -> 118 ;
119 [label="gini = 0.0\nsamples = 1\nvalue = [2, 0]\nclass = [", fillcolor="#e58139"] ;
118 -> 119 ;
120 [label="gini = 0.0\nsamples = 1\nvalue = [0, 1]\nclass = '", fillcolor="#399de5"] ;
118 -> 120 ;
121 [label="col.4:m2rem/Msun <= -0.88\ngini = 0.3\nsamples = 28\nvalue = [8, 36]\nclass = '", fillcolor="#65b3eb"] ;
111 -> 121 ;
122 [label="gini = 0.0\nsamples = 2\nvalue = [2, 0]\nclass = [", fillcolor="#e58139"] ;
121 -> 122 ;
123 [label="colExt2:ratio_m1_m2_rem <= -0.06\ngini = 0.24\nsamples = 26\nvalue = [6, 36]\nclass = '", fillcolor="#5aade9"] ;
121 -> 123 ;
124 [label="col.7:sma/Rsun <= -0.12\ngini = 0.38\nsamples = 3\nvalue = [6, 2]\nclass = [", fillcolor="#eeab7b"] ;
123 -> 124 ;
125 [label="gini = 0.0\nsamples = 2\nvalue = [6, 0]\nclass = [", fillcolor="#e58139"] ;
124 -> 125 ;
126 [label="gini = 0.0\nsamples = 1\nvalue = [0, 2]\nclass = '", fillcolor="#399de5"] ;
124 -> 126 ;
127 [label="gini = 0.0\nsamples = 23\nvalue = [0, 34]\nclass = '", fillcolor="#399de5"] ;
123 -> 127 ;
128 [label="col.8:ecc <= -0.01\ngini = 0.04\nsamples = 31\nvalue = [1, 49]\nclass = '", fillcolor="#3d9fe6"] ;
110 -> 128 ;
129 [label="gini = 0.0\nsamples = 30\nvalue = [0, 49]\nclass = '", fillcolor="#399de5"] ;
128 -> 129 ;
130 [label="gini = 0.0\nsamples = 1\nvalue = [1, 0]\nclass = [", fillcolor="#e58139"] ;
128 -> 130 ;
131 [label="metallicity <= -0.68\ngini = 0.22\nsamples = 19\nvalue = [4, 27]\nclass = '", fillcolor="#56ace9"] ;
109 -> 131 ;
132 [label="col.3:m1rem/Msun <= -0.42\ngini = 0.44\nsamples = 5\nvalue = [4, 2]\nclass = [", fillcolor="#f2c09c"] ;
131 -> 132 ;
133 [label="colExt1:ratio_m1_m2_ZAMS <= 0.89\ngini = 0.32\nsamples = 4\nvalue = [4, 1]\nclass = [", fillcolor="#eca06a"] ;
132 -> 133 ;
134 [label="gini = 0.0\nsamples = 3\nvalue = [4, 0]\nclass = [", fillcolor="#e58139"] ;
133 -> 134 ;
135 [label="gini = 0.0\nsamples = 1\nvalue = [0, 1]\nclass = '", fillcolor="#399de5"] ;
133 -> 135 ;
136 [label="gini = 0.0\nsamples = 1\nvalue = [0, 1]\nclass = '", fillcolor="#399de5"] ;
132 -> 136 ;
137 [label="gini = 0.0\nsamples = 14\nvalue = [0, 25]\nclass = '", fillcolor="#399de5"] ;
131 -> 137 ;
138 [label="col.3:m1rem/Msun <= 0.04\ngini = 0.12\nsamples = 6465\nvalue = [673, 9549]\nclass = '", fillcolor="#47a4e7"] ;
108 -> 138 ;
139 [label="colExt2:ratio_m1_m2_rem <= -0.16\ngini = 0.25\nsamples = 2152\nvalue = [497, 2911]\nclass = '", fillcolor="#5baee9"] ;
138 -> 139 ;
140 [label="col.3:m1rem/Msun <= -0.19\ngini = 0.22\nsamples = 215\nvalue = [298, 44]\nclass = [", fillcolor="#e99456"] ;
139 -> 140 ;
141 [label="gini = 0.0\nsamples = 127\nvalue = [204, 0]\nclass = [", fillcolor="#e58139"] ;
140 -> 141 ;
142 [label="col.4:m2rem/Msun <= 0.2\ngini = 0.43\nsamples = 88\nvalue = [94, 44]\nclass = [", fillcolor="#f1bc96"] ;
140 -> 142 ;
143 [label="col.2:m2ZAMS/Msun <= -0.15\ngini = 0.5\nsamples = 56\nvalue = [40, 43]\nclass = '", fillcolor="#f1f8fd"] ;
142 -> 143 ;
144 [label="colExt2:ratio_m1_m2_rem <= -0.34\ngini = 0.19\nsamples = 31\nvalue = [5, 43]\nclass = '", fillcolor="#50a8e8"] ;
143 -> 144 ;
145 [label="gini = 0.0\nsamples = 2\nvalue = [3, 0]\nclass = [", fillcolor="#e58139"] ;
144 -> 145 ;
146 [label="metallicity <= 0.14\ngini = 0.08\nsamples = 29\nvalue = [2, 43]\nclass = '", fillcolor="#42a2e6"] ;
144 -> 146 ;
147 [label="gini = 0.0\nsamples = 28\nvalue = [0, 43]\nclass = '", fillcolor="#399de5"] ;
146 -> 147 ;
148 [label="gini = 0.0\nsamples = 1\nvalue = [2, 0]\nclass = [", fillcolor="#e58139"] ;
146 -> 148 ;
149 [label="gini = 0.0\nsamples = 25\nvalue = [35, 0]\nclass = [", fillcolor="#e58139"] ;
143 -> 149 ;
150 [label="col.6:delay_time/Myr <= 1.49\ngini = 0.04\nsamples = 32\nvalue = [54, 1]\nclass = [", fillcolor="#e5833d"] ;
142 -> 150 ;
151 [label="gini = 0.0\nsamples = 30\nvalue = [52, 0]\nclass = [", fillcolor="#e58139"] ;
150 -> 151 ;
152 [label="col.4:m2rem/Msun <= 0.25\ngini = 0.44\nsamples = 2\nvalue = [2, 1]\nclass = [", fillcolor="#f2c09c"] ;
150 -> 152 ;
153 [label="gini = 0.0\nsamples = 1\nvalue = [0, 1]\nclass = '", fillcolor="#399de5"] ;
152 -> 153 ;
154 [label="gini = 0.0\nsamples = 1\nvalue = [2, 0]\nclass = [", fillcolor="#e58139"] ;
152 -> 154 ;
155 [label="col.4:m2rem/Msun <= -1.44\ngini = 0.12\nsamples = 1937\nvalue = [199, 2867]\nclass = '", fillcolor="#47a4e7"] ;
139 -> 155 ;
156 [label="gini = 0.0\nsamples = 6\nvalue = [10, 0]\nclass = [", fillcolor="#e58139"] ;
155 -> 156 ;
157 [label="colExt1:ratio_m1_m2_ZAMS <= -0.03\ngini = 0.12\nsamples = 1931\nvalue = [189, 2867]\nclass = '", fillcolor="#46a3e7"] ;
155 -> 157 ;
158 [label="gini = 0.0\nsamples = 38\nvalue = [67, 0]\nclass = [", fillcolor="#e58139"] ;
157 -> 158 ;
159 [label="colExt1:ratio_m1_m2_ZAMS <= 0.19\ngini = 0.08\nsamples = 1893\nvalue = [122, 2867]\nclass = '", fillcolor="#41a1e6"] ;
157 -> 159 ;
160 [label="col.2:m2ZAMS/Msun <= -0.54\ngini = 0.4\nsamples = 117\nvalue = [50, 130]\nclass = '", fillcolor="#85c3ef"] ;
159 -> 160 ;
161 [label="col.8:ecc <= -0.43\ngini = 0.09\nsamples = 17\nvalue = [19, 1]\nclass = [", fillcolor="#e68843"] ;
160 -> 161 ;
162 [label="gini = 0.0\nsamples = 1\nvalue = [0, 1]\nclass = '", fillcolor="#399de5"] ;
161 -> 162 ;
163 [label="gini = 0.0\nsamples = 16\nvalue = [19, 0]\nclass = [", fillcolor="#e58139"] ;
161 -> 163 ;
164 [label="col.8:ecc <= -0.44\ngini = 0.31\nsamples = 100\nvalue = [31, 129]\nclass = '", fillcolor="#69b5eb"] ;
160 -> 164 ;
165 [label="colExt2:ratio_m1_m2_rem <= 0.03\ngini = 0.13\nsamples = 81\nvalue = [9, 118]\nclass = '", fillcolor="#48a4e7"] ;
164 -> 165 ;
166 [label="col.7:sma/Rsun <= -0.08\ngini = 0.09\nsamples = 78\nvalue = [6, 118]\nclass = '", fillcolor="#43a2e6"] ;
165 -> 166 ;
167 [label="gini = 0.0\nsamples = 2\nvalue = [3, 0]\nclass = [", fillcolor="#e58139"] ;
166 -> 167 ;
168 [label="col.7:sma/Rsun <= 0.08\ngini = 0.05\nsamples = 76\nvalue = [3, 118]\nclass = '", fillcolor="#3e9fe6"] ;
166 -> 168 ;
169 [label="gini = 0.0\nsamples = 61\nvalue = [0, 100]\nclass = '", fillcolor="#399de5"] ;
168 -> 169 ;
170 [label="colExt1:ratio_m1_m2_ZAMS <= 0.08\ngini = 0.24\nsamples = 15\nvalue = [3, 18]\nclass = '", fillcolor="#5aade9"] ;
168 -> 170 ;
171 [label="col.3:m1rem/Msun <= -0.07\ngini = 0.4\nsamples = 9\nvalue = [3, 8]\nclass = '", fillcolor="#83c2ef"] ;
170 -> 171 ;
172 [label="gini = 0.0\nsamples = 2\nvalue = [3, 0]\nclass = [", fillcolor="#e58139"] ;
171 -> 172 ;
173 [label="gini = 0.0\nsamples = 7\nvalue = [0, 8]\nclass = '", fillcolor="#399de5"] ;
171 -> 173 ;
174 [label="gini = 0.0\nsamples = 6\nvalue = [0, 10]\nclass = '", fillcolor="#399de5"] ;
170 -> 174 ;
175 [label="gini = 0.0\nsamples = 3\nvalue = [3, 0]\nclass = [", fillcolor="#e58139"] ;
165 -> 175 ;
176 [label="col.4:m2rem/Msun <= -0.24\ngini = 0.44\nsamples = 19\nvalue = [22, 11]\nclass = [", fillcolor="#f2c09c"] ;
164 -> 176 ;
177 [label="gini = 0.0\nsamples = 12\nvalue = [18, 0]\nclass = [", fillcolor="#e58139"] ;
176 -> 177 ;
178 [label="col.2:m2ZAMS/Msun <= -0.44\ngini = 0.39\nsamples = 7\nvalue = [4, 11]\nclass = '", fillcolor="#81c1ee"] ;
176 -> 178 ;
179 [label="gini = 0.0\nsamples = 6\nvalue = [0, 11]\nclass = '", fillcolor="#399de5"] ;
178 -> 179 ;
180 [label="gini = 0.0\nsamples = 1\nvalue = [4, 0]\nclass = [", fillcolor="#e58139"] ;
178 -> 180 ;
181 [label="col.7:sma/Rsun <= -0.11\ngini = 0.05\nsamples = 1776\nvalue = [72, 2737]\nclass = '", fillcolor="#3ea0e6"] ;
159 -> 181 ;
182 [label="colExt1:ratio_m1_m2_ZAMS <= 0.74\ngini = 0.4\nsamples = 22\nvalue = [8, 21]\nclass = '", fillcolor="#84c2ef"] ;
181 -> 182 ;
183 [label="gini = 0.0\nsamples = 5\nvalue = [6, 0]\nclass = [", fillcolor="#e58139"] ;
182 -> 183 ;
184 [label="col.6:delay_time/Myr <= -0.71\ngini = 0.16\nsamples = 17\nvalue = [2, 21]\nclass = '", fillcolor="#4ca6e7"] ;
182 -> 184 ;
185 [label="gini = 0.0\nsamples = 16\nvalue = [0, 21]\nclass = '", fillcolor="#399de5"] ;
184 -> 185 ;
186 [label="gini = 0.0\nsamples = 1\nvalue = [2, 0]\nclass = [", fillcolor="#e58139"] ;
184 -> 186 ;
187 [label="col.3:m1rem/Msun <= -0.44\ngini = 0.04\nsamples = 1754\nvalue = [64, 2716]\nclass = '", fillcolor="#3e9fe6"] ;
181 -> 187 ;
188 [label="col.2:m2ZAMS/Msun <= -0.73\ngini = 0.13\nsamples = 403\nvalue = [41, 567]\nclass = '", fillcolor="#47a4e7"] ;
187 -> 188 ;
189 [label="col.4:m2rem/Msun <= -0.7\ngini = 0.07\nsamples = 390\nvalue = [21, 566]\nclass = '", fillcolor="#40a1e6"] ;
188 -> 189 ;
190 [label="col.3:m1rem/Msun <= -0.6\ngini = 0.01\nsamples = 221\nvalue = [2, 325]\nclass = '", fillcolor="#3a9ee5"] ;
189 -> 190 ;
191 [label="col.3:m1rem/Msun <= -0.6\ngini = 0.15\nsamples = 8\nvalue = [1, 11]\nclass = '", fillcolor="#4ba6e7"] ;
190 -> 191 ;
192 [label="gini = 0.0\nsamples = 7\nvalue = [0, 11]\nclass = '", fillcolor="#399de5"] ;
191 -> 192 ;
193 [label="gini = 0.0\nsamples = 1\nvalue = [1, 0]\nclass = [", fillcolor="#e58139"] ;
191 -> 193 ;
194 [label="col.3:m1rem/Msun <= -0.56\ngini = 0.01\nsamples = 213\nvalue = [1, 314]\nclass = '", fillcolor="#3a9de5"] ;
190 -> 194 ;
195 [label="col.2:m2ZAMS/Msun <= -0.86\ngini = 0.04\nsamples = 28\nvalue = [1, 47]\nclass = '", fillcolor="#3d9fe6"] ;
194 -> 195 ;
196 [label="gini = 0.0\nsamples = 27\nvalue = [0, 47]\nclass = '", fillcolor="#399de5"] ;
195 -> 196 ;
197 [label="gini = 0.0\nsamples = 1\nvalue = [1, 0]\nclass = [", fillcolor="#e58139"] ;
195 -> 197 ;
198 [label="gini = 0.0\nsamples = 185\nvalue = [0, 267]\nclass = '", fillcolor="#399de5"] ;
194 -> 198 ;
199 [label="col.2:m2ZAMS/Msun <= -0.83\ngini = 0.14\nsamples = 169\nvalue = [19, 241]\nclass = '", fillcolor="#49a5e7"] ;
189 -> 199 ;
200 [label="col.7:sma/Rsun <= -0.07\ngini = 0.04\nsamples = 142\nvalue = [5, 213]\nclass = '", fillcolor="#3e9fe6"] ;
199 -> 200 ;
201 [label="col.3:m1rem/Msun <= -0.53\ngini = 0.19\nsamples = 33\nvalue = [5, 41]\nclass = '", fillcolor="#51a9e8"] ;
200 -> 201 ;
202 [label="alpha <= -0.34\ngini = 0.49\nsamples = 8\nvalue = [5, 4]\nclass = [", fillcolor="#fae6d7"] ;
201 -> 202 ;
203 [label="gini = 0.0\nsamples = 3\nvalue = [0, 4]\nclass = '", fillcolor="#399de5"] ;
202 -> 203 ;
204 [label="gini = 0.0\nsamples = 5\nvalue = [5, 0]\nclass = [", fillcolor="#e58139"] ;
202 -> 204 ;
205 [label="gini = 0.0\nsamples = 25\nvalue = [0, 37]\nclass = '", fillcolor="#399de5"] ;
201 -> 205 ;
206 [label="gini = 0.0\nsamples = 109\nvalue = [0, 172]\nclass = '", fillcolor="#399de5"] ;
200 -> 206 ;
207 [label="col.8:ecc <= -0.42\ngini = 0.44\nsamples = 27\nvalue = [14, 28]\nclass = '", fillcolor="#9ccef2"] ;
199 -> 207 ;
208 [label="col.6:delay_time/Myr <= -0.6\ngini = 0.07\nsamples = 16\nvalue = [1, 25]\nclass = '", fillcolor="#41a1e6"] ;
207 -> 208 ;
209 [label="colExt1:ratio_m1_m2_ZAMS <= 0.66\ngini = 0.32\nsamples = 5\nvalue = [1, 4]\nclass = '", fillcolor="#6ab6ec"] ;
208 -> 209 ;
210 [label="gini = 0.0\nsamples = 1\nvalue = [1, 0]\nclass = [", fillcolor="#e58139"] ;
209 -> 210 ;
211 [label="gini = 0.0\nsamples = 4\nvalue = [0, 4]\nclass = '", fillcolor="#399de5"] ;
209 -> 211 ;
212 [label="gini = 0.0\nsamples = 11\nvalue = [0, 21]\nclass = '", fillcolor="#399de5"] ;
208 -> 212 ;
213 [label="colExt1:ratio_m1_m2_ZAMS <= 0.88\ngini = 0.3\nsamples = 11\nvalue = [13, 3]\nclass = [", fillcolor="#eb9e67"] ;
207 -> 213 ;
214 [label="gini = 0.0\nsamples = 8\nvalue = [12, 0]\nclass = [", fillcolor="#e58139"] ;
213 -> 214 ;
215 [label="col.3:m1rem/Msun <= -0.52\ngini = 0.38\nsamples = 3\nvalue = [1, 3]\nclass = '", fillcolor="#7bbeee"] ;
213 -> 215 ;
216 [label="gini = 0.0\nsamples = 1\nvalue = [1, 0]\nclass = [", fillcolor="#e58139"] ;
215 -> 216 ;
217 [label="gini = 0.0\nsamples = 2\nvalue = [0, 3]\nclass = '", fillcolor="#399de5"] ;
215 -> 217 ;
218 [label="metallicity <= 1.79\ngini = 0.09\nsamples = 13\nvalue = [20, 1]\nclass = [", fillcolor="#e68743"] ;
188 -> 218 ;
219 [label="gini = 0.0\nsamples = 12\nvalue = [20, 0]\nclass = [", fillcolor="#e58139"] ;
218 -> 219 ;
220 [label="gini = 0.0\nsamples = 1\nvalue = [0, 1]\nclass = '", fillcolor="#399de5"] ;
218 -> 220 ;
221 [label="colExt2:ratio_m1_m2_rem <= -0.07\ngini = 0.02\nsamples = 1351\nvalue = [23, 2149]\nclass = '", fillcolor="#3b9ee5"] ;
187 -> 221 ;
222 [label="colExt2:ratio_m1_m2_rem <= -0.07\ngini = 0.17\nsamples = 39\nvalue = [7, 70]\nclass = '", fillcolor="#4da7e8"] ;
221 -> 222 ;
223 [label="col.3:m1rem/Msun <= -0.4\ngini = 0.1\nsamples = 38\nvalue = [4, 70]\nclass = '", fillcolor="#44a3e6"] ;
222 -> 223 ;
224 [label="col.1:m1ZAMS/Msun <= -0.52\ngini = 0.5\nsamples = 2\nvalue = [2, 2]\nclass = [", fillcolor="#ffffff"] ;
223 -> 224 ;
225 [label="gini = 0.0\nsamples = 1\nvalue = [0, 2]\nclass = '", fillcolor="#399de5"] ;
224 -> 225 ;
226 [label="gini = 0.0\nsamples = 1\nvalue = [2, 0]\nclass = [", fillcolor="#e58139"] ;
224 -> 226 ;
227 [label="alpha <= 0.97\ngini = 0.06\nsamples = 36\nvalue = [2, 68]\nclass = '", fillcolor="#3fa0e6"] ;
223 -> 227 ;
228 [label="gini = 0.0\nsamples = 27\nvalue = [0, 48]\nclass = '", fillcolor="#399de5"] ;
227 -> 228 ;
229 [label="metallicity <= -0.23\ngini = 0.17\nsamples = 9\nvalue = [2, 20]\nclass = '", fillcolor="#4da7e8"] ;
227 -> 229 ;
230 [label="gini = 0.0\nsamples = 8\nvalue = [0, 20]\nclass = '", fillcolor="#399de5"] ;
229 -> 230 ;
231 [label="gini = 0.0\nsamples = 1\nvalue = [2, 0]\nclass = [", fillcolor="#e58139"] ;
229 -> 231 ;
232 [label="gini = 0.0\nsamples = 1\nvalue = [3, 0]\nclass = [", fillcolor="#e58139"] ;
222 -> 232 ;
233 [label="colExt2:ratio_m1_m2_rem <= 0.15\ngini = 0.02\nsamples = 1312\nvalue = [16, 2079]\nclass = '", fillcolor="#3b9ee5"] ;
221 -> 233 ;
234 [label="metallicity <= 0.32\ngini = 0.05\nsamples = 408\nvalue = [15, 620]\nclass = '", fillcolor="#3e9fe6"] ;
233 -> 234 ;
235 [label="metallicity <= -0.23\ngini = 0.01\nsamples = 311\nvalue = [3, 471]\nclass = '", fillcolor="#3a9ee5"] ;
234 -> 235 ;
236 [label="gini = 0.0\nsamples = 239\nvalue = [0, 367]\nclass = '", fillcolor="#399de5"] ;
235 -> 236 ;
237 [label="col.3:m1rem/Msun <= -0.39\ngini = 0.05\nsamples = 72\nvalue = [3, 104]\nclass = '", fillcolor="#3fa0e6"] ;
235 -> 237 ;
238 [label="col.7:sma/Rsun <= -0.06\ngini = 0.5\nsamples = 2\nvalue = [1, 1]\nclass = [", fillcolor="#ffffff"] ;
237 -> 238 ;
239 [label="gini = 0.0\nsamples = 1\nvalue = [1, 0]\nclass = [", fillcolor="#e58139"] ;
238 -> 239 ;
240 [label="gini = 0.0\nsamples = 1\nvalue = [0, 1]\nclass = '", fillcolor="#399de5"] ;
238 -> 240 ;
241 [label="colExt2:ratio_m1_m2_rem <= 0.12\ngini = 0.04\nsamples = 70\nvalue = [2, 103]\nclass = '", fillcolor="#3d9fe6"] ;
237 -> 241 ;
242 [label="gini = 0.0\nsamples = 58\nvalue = [0, 87]\nclass = '", fillcolor="#399de5"] ;
241 -> 242 ;
243 [label="colExt1:ratio_m1_m2_ZAMS <= 0.43\ngini = 0.2\nsamples = 12\nvalue = [2, 16]\nclass = '", fillcolor="#52a9e8"] ;
241 -> 243 ;
244 [label="gini = 0.0\nsamples = 1\nvalue = [2, 0]\nclass = [", fillcolor="#e58139"] ;
243 -> 244 ;
245 [label="gini = 0.0\nsamples = 11\nvalue = [0, 16]\nclass = '", fillcolor="#399de5"] ;
243 -> 245 ;
246 [label="colExt1:ratio_m1_m2_ZAMS <= 0.39\ngini = 0.14\nsamples = 97\nvalue = [12, 149]\nclass = '", fillcolor="#49a5e7"] ;
234 -> 246 ;
247 [label="col.8:ecc <= -0.44\ngini = 0.38\nsamples = 27\nvalue = [10, 30]\nclass = '", fillcolor="#7bbeee"] ;
246 -> 247 ;
248 [label="gini = 0.0\nsamples = 19\nvalue = [0, 29]\nclass = '", fillcolor="#399de5"] ;
247 -> 248 ;
249 [label="col.6:delay_time/Myr <= 1.73\ngini = 0.17\nsamples = 8\nvalue = [10, 1]\nclass = [", fillcolor="#e88e4d"] ;
247 -> 249 ;
250 [label="gini = 0.0\nsamples = 7\nvalue = [10, 0]\nclass = [", fillcolor="#e58139"] ;
249 -> 250 ;
251 [label="gini = 0.0\nsamples = 1\nvalue = [0, 1]\nclass = '", fillcolor="#399de5"] ;
249 -> 251 ;
252 [label="col.4:m2rem/Msun <= -0.45\ngini = 0.03\nsamples = 70\nvalue = [2, 119]\nclass = '", fillcolor="#3c9fe5"] ;
246 -> 252 ;
253 [label="col.4:m2rem/Msun <= -0.46\ngini = 0.26\nsamples = 9\nvalue = [2, 11]\nclass = '", fillcolor="#5dafea"] ;
252 -> 253 ;
254 [label="alpha <= 0.97\ngini = 0.15\nsamples = 8\nvalue = [1, 11]\nclass = '", fillcolor="#4ba6e7"] ;
253 -> 254 ;
255 [label="gini = 0.0\nsamples = 6\nvalue = [0, 10]\nclass = '", fillcolor="#399de5"] ;
254 -> 255 ;
256 [label="col.7:sma/Rsun <= 0.04\ngini = 0.5\nsamples = 2\nvalue = [1, 1]\nclass = [", fillcolor="#ffffff"] ;
254 -> 256 ;
257 [label="gini = 0.0\nsamples = 1\nvalue = [1, 0]\nclass = [", fillcolor="#e58139"] ;
256 -> 257 ;
258 [label="gini = 0.0\nsamples = 1\nvalue = [0, 1]\nclass = '", fillcolor="#399de5"] ;
256 -> 258 ;
259 [label="gini = 0.0\nsamples = 1\nvalue = [1, 0]\nclass = [", fillcolor="#e58139"] ;
253 -> 259 ;
260 [label="gini = 0.0\nsamples = 61\nvalue = [0, 108]\nclass = '", fillcolor="#399de5"] ;
252 -> 260 ;
261 [label="col.2:m2ZAMS/Msun <= -0.41\ngini = 0.0\nsamples = 904\nvalue = [1, 1459]\nclass = '", fillcolor="#399de5"] ;
233 -> 261 ;
262 [label="gini = 0.0\nsamples = 880\nvalue = [0, 1417]\nclass = '", fillcolor="#399de5"] ;
261 -> 262 ;
263 [label="col.3:m1rem/Msun <= -0.18\ngini = 0.05\nsamples = 24\nvalue = [1, 42]\nclass = '", fillcolor="#3e9fe6"] ;
261 -> 263 ;
264 [label="gini = 0.0\nsamples = 1\nvalue = [1, 0]\nclass = [", fillcolor="#e58139"] ;
263 -> 264 ;
265 [label="gini = 0.0\nsamples = 23\nvalue = [0, 42]\nclass = '", fillcolor="#399de5"] ;
263 -> 265 ;
266 [label="col.4:m2rem/Msun <= -1.35\ngini = 0.05\nsamples = 4313\nvalue = [176, 6638]\nclass = '", fillcolor="#3ea0e6"] ;
138 -> 266 ;
267 [label="gini = 0.0\nsamples = 4\nvalue = [5, 0]\nclass = [", fillcolor="#e58139"] ;
266 -> 267 ;
268 [label="col.4:m2rem/Msun <= 2.21\ngini = 0.05\nsamples = 4309\nvalue = [171, 6638]\nclass = '", fillcolor="#3ea0e6"] ;
266 -> 268 ;
269 [label="colExt2:ratio_m1_m2_rem <= -0.37\ngini = 0.05\nsamples = 4301\nvalue = [165, 6631]\nclass = '", fillcolor="#3e9fe6"] ;
268 -> 269 ;
270 [label="gini = 0.0\nsamples = 18\nvalue = [30, 0]\nclass = [", fillcolor="#e58139"] ;
269 -> 270 ;
271 [label="colExt2:ratio_m1_m2_rem <= 2.02\ngini = 0.04\nsamples = 4283\nvalue = [135, 6631]\nclass = '", fillcolor="#3d9fe6"] ;
269 -> 271 ;
272 [label="col.2:m2ZAMS/Msun <= 2.99\ngini = 0.03\nsamples = 4236\nvalue = [102, 6592]\nclass = '", fillcolor="#3c9fe5"] ;
271 -> 272 ;
273 [label="col.7:sma/Rsun <= -0.1\ngini = 0.03\nsamples = 4222\nvalue = [91, 6583]\nclass = '", fillcolor="#3c9ee5"] ;
272 -> 273 ;
274 [label="colExt1:ratio_m1_m2_ZAMS <= -0.41\ngini = 0.36\nsamples = 30\nvalue = [10, 32]\nclass = '", fillcolor="#77bced"] ;
273 -> 274 ;
275 [label="gini = 0.0\nsamples = 6\nvalue = [8, 0]\nclass = [", fillcolor="#e58139"] ;
274 -> 275 ;
276 [label="col.7:sma/Rsun <= -0.1\ngini = 0.11\nsamples = 24\nvalue = [2, 32]\nclass = '", fillcolor="#45a3e7"] ;
274 -> 276 ;
277 [label="gini = 0.0\nsamples = 23\nvalue = [0, 32]\nclass = '", fillcolor="#399de5"] ;
276 -> 277 ;
278 [label="gini = 0.0\nsamples = 1\nvalue = [2, 0]\nclass = [", fillcolor="#e58139"] ;
276 -> 278 ;
279 [label="colExt2:ratio_m1_m2_rem <= -0.19\ngini = 0.02\nsamples = 4192\nvalue = [81, 6551]\nclass = '", fillcolor="#3b9ee5"] ;
273 -> 279 ;
280 [label="col.3:m1rem/Msun <= 0.33\ngini = 0.15\nsamples = 319\nvalue = [41, 470]\nclass = '", fillcolor="#4aa6e7"] ;
279 -> 280 ;
281 [label="metallicity <= 0.32\ngini = 0.31\nsamples = 98\nvalue = [31, 133]\nclass = '", fillcolor="#67b4eb"] ;
280 -> 281 ;
282 [label="col.2:m2ZAMS/Msun <= 0.23\ngini = 0.07\nsamples = 85\nvalue = [5, 133]\nclass = '", fillcolor="#40a1e6"] ;
281 -> 282 ;
283 [label="col.2:m2ZAMS/Msun <= 0.19\ngini = 0.01\nsamples = 81\nvalue = [1, 132]\nclass = '", fillcolor="#3b9ee5"] ;
282 -> 283 ;
284 [label="gini = 0.0\nsamples = 77\nvalue = [0, 125]\nclass = '", fillcolor="#399de5"] ;
283 -> 284 ;
285 [label="col.8:ecc <= -0.46\ngini = 0.22\nsamples = 4\nvalue = [1, 7]\nclass = '", fillcolor="#55abe9"] ;
283 -> 285 ;
286 [label="gini = 0.0\nsamples = 3\nvalue = [0, 7]\nclass = '", fillcolor="#399de5"] ;
285 -> 286 ;
287 [label="gini = 0.0\nsamples = 1\nvalue = [1, 0]\nclass = [", fillcolor="#e58139"] ;
285 -> 287 ;
288 [label="col.3:m1rem/Msun <= 0.26\ngini = 0.32\nsamples = 4\nvalue = [4, 1]\nclass = [", fillcolor="#eca06a"] ;
282 -> 288 ;
289 [label="gini = 0.0\nsamples = 3\nvalue = [4, 0]\nclass = [", fillcolor="#e58139"] ;
288 -> 289 ;
290 [label="gini = 0.0\nsamples = 1\nvalue = [0, 1]\nclass = '", fillcolor="#399de5"] ;
288 -> 290 ;
291 [label="gini = 0.0\nsamples = 13\nvalue = [26, 0]\nclass = [", fillcolor="#e58139"] ;
281 -> 291 ;
292 [label="col.7:sma/Rsun <= 0.26\ngini = 0.06\nsamples = 221\nvalue = [10, 337]\nclass = '", fillcolor="#3fa0e6"] ;
280 -> 292 ;
293 [label="colExt1:ratio_m1_m2_ZAMS <= 0.44\ngini = 0.05\nsamples = 220\nvalue = [9, 337]\nclass = '", fillcolor="#3ea0e6"] ;
292 -> 293 ;
294 [label="col.8:ecc <= -0.22\ngini = 0.02\nsamples = 214\nvalue = [4, 331]\nclass = '", fillcolor="#3b9ee5"] ;
293 -> 294 ;
295 [label="metallicity <= -0.23\ngini = 0.02\nsamples = 213\nvalue = [3, 331]\nclass = '", fillcolor="#3b9ee5"] ;
294 -> 295 ;
296 [label="gini = 0.0\nsamples = 173\nvalue = [0, 273]\nclass = '", fillcolor="#399de5"] ;
295 -> 296 ;
297 [label="col.1:m1ZAMS/Msun <= 0.37\ngini = 0.09\nsamples = 40\nvalue = [3, 58]\nclass = '", fillcolor="#43a2e6"] ;
295 -> 297 ;
298 [label="col.2:m2ZAMS/Msun <= 0.54\ngini = 0.3\nsamples = 9\nvalue = [2, 9]\nclass = '", fillcolor="#65b3eb"] ;
297 -> 298 ;
299 [label="gini = 0.0\nsamples = 7\nvalue = [0, 9]\nclass = '", fillcolor="#399de5"] ;
298 -> 299 ;
300 [label="gini = 0.0\nsamples = 2\nvalue = [2, 0]\nclass = [", fillcolor="#e58139"] ;
298 -> 300 ;
301 [label="col.7:sma/Rsun <= 0.14\ngini = 0.04\nsamples = 31\nvalue = [1, 49]\nclass = '", fillcolor="#3d9fe6"] ;
297 -> 301 ;
302 [label="gini = 0.0\nsamples = 24\nvalue = [0, 39]\nclass = '", fillcolor="#399de5"] ;
301 -> 302 ;
303 [label="col.2:m2ZAMS/Msun <= 0.87\ngini = 0.17\nsamples = 7\nvalue = [1, 10]\nclass = '", fillcolor="#4da7e8"] ;
301 -> 303 ;
304 [label="gini = 0.0\nsamples = 6\nvalue = [0, 10]\nclass = '", fillcolor="#399de5"] ;
303 -> 304 ;
305 [label="gini = 0.0\nsamples = 1\nvalue = [1, 0]\nclass = [", fillcolor="#e58139"] ;
303 -> 305 ;
306 [label="gini = 0.0\nsamples = 1\nvalue = [1, 0]\nclass = [", fillcolor="#e58139"] ;
294 -> 306 ;
307 [label="col.1:m1ZAMS/Msun <= 1.02\ngini = 0.5\nsamples = 6\nvalue = [5, 6]\nclass = '", fillcolor="#deeffb"] ;
293 -> 307 ;
308 [label="gini = 0.0\nsamples = 3\nvalue = [0, 6]\nclass = '", fillcolor="#399de5"] ;
307 -> 308 ;
309 [label="gini = 0.0\nsamples = 3\nvalue = [5, 0]\nclass = [", fillcolor="#e58139"] ;
307 -> 309 ;
310 [label="gini = 0.0\nsamples = 1\nvalue = [1, 0]\nclass = [", fillcolor="#e58139"] ;
292 -> 310 ;
311 [label="col.1:m1ZAMS/Msun <= 3.21\ngini = 0.01\nsamples = 3873\nvalue = [40, 6081]\nclass = '", fillcolor="#3a9ee5"] ;
279 -> 311 ;
312 [label="colExt1:ratio_m1_m2_ZAMS <= -0.13\ngini = 0.01\nsamples = 3840\nvalue = [35, 6024]\nclass = '", fillcolor="#3a9ee5"] ;
311 -> 312 ;
313 [label="col.1:m1ZAMS/Msun <= 0.47\ngini = 0.05\nsamples = 766\nvalue = [32, 1173]\nclass = '", fillcolor="#3ea0e6"] ;
312 -> 313 ;
314 [label="colExt2:ratio_m1_m2_rem <= -0.06\ngini = 0.23\nsamples = 120\nvalue = [28, 178]\nclass = '", fillcolor="#58ace9"] ;
313 -> 314 ;
315 [label="col.6:delay_time/Myr <= -0.52\ngini = 0.15\nsamples = 115\nvalue = [16, 178]\nclass = '", fillcolor="#4ba6e7"] ;
314 -> 315 ;
316 [label="colExt1:ratio_m1_m2_ZAMS <= -0.25\ngini = 0.47\nsamples = 8\nvalue = [8, 5]\nclass = [", fillcolor="#f5d0b5"] ;
315 -> 316 ;
317 [label="gini = 0.0\nsamples = 4\nvalue = [6, 0]\nclass = [", fillcolor="#e58139"] ;
316 -> 317 ;
318 [label="col.1:m1ZAMS/Msun <= 0.08\ngini = 0.41\nsamples = 4\nvalue = [2, 5]\nclass = '", fillcolor="#88c4ef"] ;
316 -> 318 ;
319 [label="gini = 0.0\nsamples = 1\nvalue = [2, 0]\nclass = [", fillcolor="#e58139"] ;
318 -> 319 ;
320 [label="gini = 0.0\nsamples = 3\nvalue = [0, 5]\nclass = '", fillcolor="#399de5"] ;
318 -> 320 ;
321 [label="metallicity <= 0.32\ngini = 0.08\nsamples = 107\nvalue = [8, 173]\nclass = '", fillcolor="#42a2e6"] ;
315 -> 321 ;
322 [label="colExt1:ratio_m1_m2_ZAMS <= -0.44\ngini = 0.03\nsamples = 88\nvalue = [2, 149]\nclass = '", fillcolor="#3c9ee5"] ;
321 -> 322 ;
323 [label="gini = 0.0\nsamples = 1\nvalue = [2, 0]\nclass = [", fillcolor="#e58139"] ;
322 -> 323 ;
324 [label="gini = 0.0\nsamples = 87\nvalue = [0, 149]\nclass = '", fillcolor="#399de5"] ;
322 -> 324 ;
325 [label="col.8:ecc <= -0.46\ngini = 0.32\nsamples = 19\nvalue = [6, 24]\nclass = '", fillcolor="#6ab6ec"] ;
321 -> 325 ;
326 [label="col.4:m2rem/Msun <= 0.43\ngini = 0.2\nsamples = 16\nvalue = [3, 23]\nclass = '", fillcolor="#53aae8"] ;
325 -> 326 ;
327 [label="colExt1:ratio_m1_m2_ZAMS <= -0.25\ngini = 0.47\nsamples = 6\nvalue = [3, 5]\nclass = '", fillcolor="#b0d8f5"] ;
326 -> 327 ;
328 [label="gini = 0.0\nsamples = 2\nvalue = [3, 0]\nclass = [", fillcolor="#e58139"] ;
327 -> 328 ;
329 [label="gini = 0.0\nsamples = 4\nvalue = [0, 5]\nclass = '", fillcolor="#399de5"] ;
327 -> 329 ;
330 [label="gini = 0.0\nsamples = 10\nvalue = [0, 18]\nclass = '", fillcolor="#399de5"] ;
326 -> 330 ;
331 [label="colExt1:ratio_m1_m2_ZAMS <= -0.16\ngini = 0.38\nsamples = 3\nvalue = [3, 1]\nclass = [", fillcolor="#eeab7b"] ;
325 -> 331 ;
332 [label="gini = 0.0\nsamples = 2\nvalue = [3, 0]\nclass = [", fillcolor="#e58139"] ;
331 -> 332 ;
333 [label="gini = 0.0\nsamples = 1\nvalue = [0, 1]\nclass = '", fillcolor="#399de5"] ;
331 -> 333 ;
334 [label="gini = 0.0\nsamples = 5\nvalue = [12, 0]\nclass = [", fillcolor="#e58139"] ;
314 -> 334 ;
335 [label="col.2:m2ZAMS/Msun <= 2.57\ngini = 0.01\nsamples = 646\nvalue = [4, 995]\nclass = '", fillcolor="#3a9de5"] ;
313 -> 335 ;
336 [label="gini = 0.0\nsamples = 628\nvalue = [0, 967]\nclass = '", fillcolor="#399de5"] ;
335 -> 336 ;
337 [label="col.6:delay_time/Myr <= -0.8\ngini = 0.22\nsamples = 18\nvalue = [4, 28]\nclass = '", fillcolor="#55abe9"] ;
335 -> 337 ;
338 [label="col.1:m1ZAMS/Msun <= 2.66\ngini = 0.32\nsamples = 2\nvalue = [4, 1]\nclass = [", fillcolor="#eca06a"] ;
337 -> 338 ;
339 [label="gini = 0.0\nsamples = 1\nvalue = [4, 0]\nclass = [", fillcolor="#e58139"] ;
338 -> 339 ;
340 [label="gini = 0.0\nsamples = 1\nvalue = [0, 1]\nclass = '", fillcolor="#399de5"] ;
338 -> 340 ;
341 [label="gini = 0.0\nsamples = 16\nvalue = [0, 27]\nclass = '", fillcolor="#399de5"] ;
337 -> 341 ;
342 [label="col.2:m2ZAMS/Msun <= 1.44\ngini = 0.0\nsamples = 3074\nvalue = [3, 4851]\nclass = '", fillcolor="#399de5"] ;
312 -> 342 ;
343 [label="colExt1:ratio_m1_m2_ZAMS <= -0.02\ngini = 0.0\nsamples = 2927\nvalue = [1, 4627]\nclass = '", fillcolor="#399de5"] ;
342 -> 343 ;
344 [label="alpha <= -0.92\ngini = 0.01\nsamples = 173\nvalue = [1, 259]\nclass = '", fillcolor="#3a9de5"] ;
343 -> 344 ;
345 [label="col.7:sma/Rsun <= -0.04\ngini = 0.03\nsamples = 44\nvalue = [1, 62]\nclass = '", fillcolor="#3c9fe5"] ;
344 -> 345 ;
346 [label="colExt1:ratio_m1_m2_ZAMS <= -0.03\ngini = 0.32\nsamples = 4\nvalue = [1, 4]\nclass = '", fillcolor="#6ab6ec"] ;
345 -> 346 ;
347 [label="gini = 0.0\nsamples = 3\nvalue = [0, 4]\nclass = '", fillcolor="#399de5"] ;
346 -> 347 ;
348 [label="gini = 0.0\nsamples = 1\nvalue = [1, 0]\nclass = [", fillcolor="#e58139"] ;
346 -> 348 ;
349 [label="gini = 0.0\nsamples = 40\nvalue = [0, 58]\nclass = '", fillcolor="#399de5"] ;
345 -> 349 ;
350 [label="gini = 0.0\nsamples = 129\nvalue = [0, 197]\nclass = '", fillcolor="#399de5"] ;
344 -> 350 ;
351 [label="gini = 0.0\nsamples = 2754\nvalue = [0, 4368]\nclass = '", fillcolor="#399de5"] ;
343 -> 351 ;
352 [label="col.8:ecc <= -0.4\ngini = 0.02\nsamples = 147\nvalue = [2, 224]\nclass = '", fillcolor="#3b9ee5"] ;
342 -> 352 ;
353 [label="gini = 0.0\nsamples = 2\nvalue = [2, 0]\nclass = [", fillcolor="#e58139"] ;
352 -> 353 ;
354 [label="gini = 0.0\nsamples = 145\nvalue = [0, 224]\nclass = '", fillcolor="#399de5"] ;
352 -> 354 ;
355 [label="col.8:ecc <= -0.48\ngini = 0.15\nsamples = 33\nvalue = [5, 57]\nclass = '", fillcolor="#4aa6e7"] ;
311 -> 355 ;
356 [label="gini = 0.0\nsamples = 2\nvalue = [4, 0]\nclass = [", fillcolor="#e58139"] ;
355 -> 356 ;
357 [label="col.2:m2ZAMS/Msun <= 2.92\ngini = 0.03\nsamples = 31\nvalue = [1, 57]\nclass = '", fillcolor="#3c9fe5"] ;
355 -> 357 ;
358 [label="gini = 0.0\nsamples = 30\nvalue = [0, 57]\nclass = '", fillcolor="#399de5"] ;
357 -> 358 ;
359 [label="gini = 0.0\nsamples = 1\nvalue = [1, 0]\nclass = [", fillcolor="#e58139"] ;
357 -> 359 ;
360 [label="metallicity <= -0.68\ngini = 0.5\nsamples = 14\nvalue = [11, 9]\nclass = [", fillcolor="#fae8db"] ;
272 -> 360 ;
361 [label="gini = 0.0\nsamples = 2\nvalue = [0, 4]\nclass = '", fillcolor="#399de5"] ;
360 -> 361 ;
362 [label="col.7:sma/Rsun <= 0.02\ngini = 0.43\nsamples = 12\nvalue = [11, 5]\nclass = [", fillcolor="#f1ba93"] ;
360 -> 362 ;
363 [label="gini = 0.0\nsamples = 1\nvalue = [0, 3]\nclass = '", fillcolor="#399de5"] ;
362 -> 363 ;
364 [label="alpha <= -0.19\ngini = 0.26\nsamples = 11\nvalue = [11, 2]\nclass = [", fillcolor="#ea985d"] ;
362 -> 364 ;
365 [label="gini = 0.0\nsamples = 9\nvalue = [11, 0]\nclass = [", fillcolor="#e58139"] ;
364 -> 365 ;
366 [label="gini = 0.0\nsamples = 2\nvalue = [0, 2]\nclass = '", fillcolor="#399de5"] ;
364 -> 366 ;
367 [label="col.6:delay_time/Myr <= 0.64\ngini = 0.5\nsamples = 47\nvalue = [33, 39]\nclass = '", fillcolor="#e1f0fb"] ;
271 -> 367 ;
368 [label="colExt1:ratio_m1_m2_ZAMS <= 0.66\ngini = 0.31\nsamples = 23\nvalue = [7, 30]\nclass = '", fillcolor="#67b4eb"] ;
367 -> 368 ;
369 [label="metallicity <= 1.6\ngini = 0.38\nsamples = 5\nvalue = [6, 2]\nclass = [", fillcolor="#eeab7b"] ;
368 -> 369 ;
370 [label="gini = 0.0\nsamples = 4\nvalue = [6, 0]\nclass = [", fillcolor="#e58139"] ;
369 -> 370 ;
371 [label="gini = 0.0\nsamples = 1\nvalue = [0, 2]\nclass = '", fillcolor="#399de5"] ;
369 -> 371 ;
372 [label="col.1:m1ZAMS/Msun <= 3.14\ngini = 0.07\nsamples = 18\nvalue = [1, 28]\nclass = '", fillcolor="#40a0e6"] ;
368 -> 372 ;
373 [label="gini = 0.0\nsamples = 17\nvalue = [0, 28]\nclass = '", fillcolor="#399de5"] ;
372 -> 373 ;
374 [label="gini = 0.0\nsamples = 1\nvalue = [1, 0]\nclass = [", fillcolor="#e58139"] ;
372 -> 374 ;
375 [label="col.3:m1rem/Msun <= 1.35\ngini = 0.38\nsamples = 24\nvalue = [26, 9]\nclass = [", fillcolor="#eead7e"] ;
367 -> 375 ;
376 [label="col.1:m1ZAMS/Msun <= 0.45\ngini = 0.32\nsamples = 6\nvalue = [2, 8]\nclass = '", fillcolor="#6ab6ec"] ;
375 -> 376 ;
377 [label="gini = 0.0\nsamples = 1\nvalue = [2, 0]\nclass = [", fillcolor="#e58139"] ;
376 -> 377 ;
378 [label="gini = 0.0\nsamples = 5\nvalue = [0, 8]\nclass = '", fillcolor="#399de5"] ;
376 -> 378 ;
379 [label="colExt2:ratio_m1_m2_rem <= 4.44\ngini = 0.08\nsamples = 18\nvalue = [24, 1]\nclass = [", fillcolor="#e68641"] ;
375 -> 379 ;
380 [label="gini = 0.0\nsamples = 16\nvalue = [23, 0]\nclass = [", fillcolor="#e58139"] ;
379 -> 380 ;
381 [label="colExt2:ratio_m1_m2_rem <= 4.96\ngini = 0.5\nsamples = 2\nvalue = [1, 1]\nclass = [", fillcolor="#ffffff"] ;
379 -> 381 ;
382 [label="gini = 0.0\nsamples = 1\nvalue = [0, 1]\nclass = '", fillcolor="#399de5"] ;
381 -> 382 ;
383 [label="gini = 0.0\nsamples = 1\nvalue = [1, 0]\nclass = [", fillcolor="#e58139"] ;
381 -> 383 ;
384 [label="col.6:delay_time/Myr <= -0.46\ngini = 0.5\nsamples = 8\nvalue = [6, 7]\nclass = '", fillcolor="#e3f1fb"] ;
268 -> 384 ;
385 [label="colExt2:ratio_m1_m2_rem <= 0.28\ngini = 0.24\nsamples = 5\nvalue = [6, 1]\nclass = [", fillcolor="#e9965a"] ;
384 -> 385 ;
386 [label="gini = 0.0\nsamples = 4\nvalue = [6, 0]\nclass = [", fillcolor="#e58139"] ;
385 -> 386 ;
387 [label="gini = 0.0\nsamples = 1\nvalue = [0, 1]\nclass = '", fillcolor="#399de5"] ;
385 -> 387 ;
388 [label="gini = 0.0\nsamples = 3\nvalue = [0, 6]\nclass = '", fillcolor="#399de5"] ;
384 -> 388 ;
}