digraph Tree {
node [shape=box, style="filled, rounded", color="black", fontname="helvetica"] ;
edge [fontname="helvetica"] ;
0 [label="col.7:sma/Rsun <= -0.02\ngini = 0.5\nsamples = 12647\nvalue = [10187, 9813]\nclass = [", fillcolor="#fefaf8"] ;
1 [label="col.4:m2rem/Msun <= -0.9\ngini = 0.18\nsamples = 4965\nvalue = [7049, 809]\nclass = [", fillcolor="#e88f50"] ;
0 -> 1 [labeldistance=2.5, labelangle=45, headlabel="True"] ;
2 [label="col.3:m1rem/Msun <= -0.69\ngini = 0.01\nsamples = 2250\nvalue = [3534, 21]\nclass = [", fillcolor="#e5823a"] ;
1 -> 2 ;
3 [label="colExt1:ratio_m1_m2_ZAMS <= -1.62\ngini = 0.0\nsamples = 2178\nvalue = [3437, 3]\nclass = [", fillcolor="#e58139"] ;
2 -> 3 ;
4 [label="col.4:m2rem/Msun <= -1.73\ngini = 0.09\nsamples = 27\nvalue = [38, 2]\nclass = [", fillcolor="#e68843"] ;
3 -> 4 ;
5 [label="gini = 0.0\nsamples = 1\nvalue = [0, 2]\nclass = '", fillcolor="#399de5"] ;
4 -> 5 ;
6 [label="gini = 0.0\nsamples = 26\nvalue = [38, 0]\nclass = [", fillcolor="#e58139"] ;
4 -> 6 ;
7 [label="col.3:m1rem/Msun <= -0.71\ngini = 0.0\nsamples = 2151\nvalue = [3399, 1]\nclass = [", fillcolor="#e58139"] ;
3 -> 7 ;
8 [label="gini = 0.0\nsamples = 2139\nvalue = [3384, 0]\nclass = [", fillcolor="#e58139"] ;
7 -> 8 ;
9 [label="col.2:m2ZAMS/Msun <= -1.13\ngini = 0.12\nsamples = 12\nvalue = [15, 1]\nclass = [", fillcolor="#e78946"] ;
7 -> 9 ;
10 [label="gini = 0.0\nsamples = 1\nvalue = [0, 1]\nclass = '", fillcolor="#399de5"] ;
9 -> 10 ;
11 [label="gini = 0.0\nsamples = 11\nvalue = [15, 0]\nclass = [", fillcolor="#e58139"] ;
9 -> 11 ;
12 [label="colExt2:ratio_m1_m2_rem <= 0.78\ngini = 0.26\nsamples = 72\nvalue = [97, 18]\nclass = [", fillcolor="#ea985e"] ;
2 -> 12 ;
13 [label="col.2:m2ZAMS/Msun <= -0.81\ngini = 0.48\nsamples = 15\nvalue = [11, 16]\nclass = '", fillcolor="#c1e0f7"] ;
12 -> 13 ;
14 [label="col.4:m2rem/Msun <= -0.94\ngini = 0.2\nsamples = 11\nvalue = [2, 16]\nclass = '", fillcolor="#52a9e8"] ;
13 -> 14 ;
15 [label="metallicity <= -0.23\ngini = 0.32\nsamples = 7\nvalue = [2, 8]\nclass = '", fillcolor="#6ab6ec"] ;
14 -> 15 ;
16 [label="gini = 0.0\nsamples = 4\nvalue = [0, 7]\nclass = '", fillcolor="#399de5"] ;
15 -> 16 ;
17 [label="col.1:m1ZAMS/Msun <= -0.56\ngini = 0.44\nsamples = 3\nvalue = [2, 1]\nclass = [", fillcolor="#f2c09c"] ;
15 -> 17 ;
18 [label="gini = 0.0\nsamples = 2\nvalue = [2, 0]\nclass = [", fillcolor="#e58139"] ;
17 -> 18 ;
19 [label="gini = 0.0\nsamples = 1\nvalue = [0, 1]\nclass = '", fillcolor="#399de5"] ;
17 -> 19 ;
20 [label="gini = 0.0\nsamples = 4\nvalue = [0, 8]\nclass = '", fillcolor="#399de5"] ;
14 -> 20 ;
21 [label="gini = 0.0\nsamples = 4\nvalue = [9, 0]\nclass = [", fillcolor="#e58139"] ;
13 -> 21 ;
22 [label="col.2:m2ZAMS/Msun <= -0.9\ngini = 0.04\nsamples = 57\nvalue = [86, 2]\nclass = [", fillcolor="#e6843e"] ;
12 -> 22 ;
23 [label="col.7:sma/Rsun <= -0.02\ngini = 0.5\nsamples = 4\nvalue = [2, 2]\nclass = [", fillcolor="#ffffff"] ;
22 -> 23 ;
24 [label="gini = 0.0\nsamples = 2\nvalue = [2, 0]\nclass = [", fillcolor="#e58139"] ;
23 -> 24 ;
25 [label="gini = 0.0\nsamples = 2\nvalue = [0, 2]\nclass = '", fillcolor="#399de5"] ;
23 -> 25 ;
26 [label="gini = 0.0\nsamples = 53\nvalue = [84, 0]\nclass = [", fillcolor="#e58139"] ;
22 -> 26 ;
27 [label="colExt1:ratio_m1_m2_ZAMS <= 0.57\ngini = 0.3\nsamples = 2715\nvalue = [3515, 788]\nclass = [", fillcolor="#eb9d65"] ;
1 -> 27 ;
28 [label="col.3:m1rem/Msun <= 0.87\ngini = 0.07\nsamples = 2224\nvalue = [3407, 131]\nclass = [", fillcolor="#e68641"] ;
27 -> 28 ;
29 [label="col.7:sma/Rsun <= -0.02\ngini = 0.04\nsamples = 2092\nvalue = [3259, 63]\nclass = [", fillcolor="#e6833d"] ;
28 -> 29 ;
30 [label="colExt1:ratio_m1_m2_ZAMS <= 0.48\ngini = 0.01\nsamples = 1876\nvalue = [2948, 12]\nclass = [", fillcolor="#e5823a"] ;
29 -> 30 ;
31 [label="col.3:m1rem/Msun <= 0.81\ngini = 0.0\nsamples = 1847\nvalue = [2915, 5]\nclass = [", fillcolor="#e58139"] ;
30 -> 31 ;
32 [label="col.8:ecc <= -0.47\ngini = 0.0\nsamples = 1836\nvalue = [2899, 3]\nclass = [", fillcolor="#e58139"] ;
31 -> 32 ;
33 [label="col.2:m2ZAMS/Msun <= 0.33\ngini = 0.09\nsamples = 28\nvalue = [42, 2]\nclass = [", fillcolor="#e68742"] ;
32 -> 33 ;
34 [label="gini = 0.0\nsamples = 2\nvalue = [0, 2]\nclass = '", fillcolor="#399de5"] ;
33 -> 34 ;
35 [label="gini = 0.0\nsamples = 26\nvalue = [42, 0]\nclass = [", fillcolor="#e58139"] ;
33 -> 35 ;
36 [label="colExt1:ratio_m1_m2_ZAMS <= 0.14\ngini = 0.0\nsamples = 1808\nvalue = [2857, 1]\nclass = [", fillcolor="#e58139"] ;
32 -> 36 ;
37 [label="gini = 0.0\nsamples = 1719\nvalue = [2717, 0]\nclass = [", fillcolor="#e58139"] ;
36 -> 37 ;
38 [label="col.4:m2rem/Msun <= 0.73\ngini = 0.01\nsamples = 89\nvalue = [140, 1]\nclass = [", fillcolor="#e5823a"] ;
36 -> 38 ;
39 [label="gini = 0.0\nsamples = 88\nvalue = [140, 0]\nclass = [", fillcolor="#e58139"] ;
38 -> 39 ;
40 [label="gini = 0.0\nsamples = 1\nvalue = [0, 1]\nclass = '", fillcolor="#399de5"] ;
38 -> 40 ;
41 [label="col.2:m2ZAMS/Msun <= 0.7\ngini = 0.2\nsamples = 11\nvalue = [16, 2]\nclass = [", fillcolor="#e89152"] ;
31 -> 41 ;
42 [label="gini = 0.0\nsamples = 1\nvalue = [0, 2]\nclass = '", fillcolor="#399de5"] ;
41 -> 42 ;
43 [label="gini = 0.0\nsamples = 10\nvalue = [16, 0]\nclass = [", fillcolor="#e58139"] ;
41 -> 43 ;
44 [label="col.3:m1rem/Msun <= -0.17\ngini = 0.29\nsamples = 29\nvalue = [33, 7]\nclass = [", fillcolor="#eb9c63"] ;
30 -> 44 ;
45 [label="gini = 0.0\nsamples = 21\nvalue = [32, 0]\nclass = [", fillcolor="#e58139"] ;
44 -> 45 ;
46 [label="colExt2:ratio_m1_m2_rem <= -0.54\ngini = 0.22\nsamples = 8\nvalue = [1, 7]\nclass = '", fillcolor="#55abe9"] ;
44 -> 46 ;
47 [label="gini = 0.0\nsamples = 1\nvalue = [1, 0]\nclass = [", fillcolor="#e58139"] ;
46 -> 47 ;
48 [label="gini = 0.0\nsamples = 7\nvalue = [0, 7]\nclass = '", fillcolor="#399de5"] ;
46 -> 48 ;
49 [label="colExt1:ratio_m1_m2_ZAMS <= 0.09\ngini = 0.24\nsamples = 216\nvalue = [311, 51]\nclass = [", fillcolor="#e99659"] ;
29 -> 49 ;
50 [label="gini = 0.0\nsamples = 177\nvalue = [301, 0]\nclass = [", fillcolor="#e58139"] ;
49 -> 50 ;
51 [label="col.4:m2rem/Msun <= -0.39\ngini = 0.27\nsamples = 39\nvalue = [10, 51]\nclass = '", fillcolor="#60b0ea"] ;
49 -> 51 ;
52 [label="gini = 0.0\nsamples = 6\nvalue = [9, 0]\nclass = [", fillcolor="#e58139"] ;
51 -> 52 ;
53 [label="metallicity <= 0.67\ngini = 0.04\nsamples = 33\nvalue = [1, 51]\nclass = '", fillcolor="#3d9fe6"] ;
51 -> 53 ;
54 [label="gini = 0.0\nsamples = 29\nvalue = [0, 45]\nclass = '", fillcolor="#399de5"] ;
53 -> 54 ;
55 [label="col.6:delay_time/Myr <= -0.79\ngini = 0.24\nsamples = 4\nvalue = [1, 6]\nclass = '", fillcolor="#5aade9"] ;
53 -> 55 ;
56 [label="gini = 0.0\nsamples = 2\nvalue = [0, 5]\nclass = '", fillcolor="#399de5"] ;
55 -> 56 ;
57 [label="alpha <= -0.94\ngini = 0.5\nsamples = 2\nvalue = [1, 1]\nclass = [", fillcolor="#ffffff"] ;
55 -> 57 ;
58 [label="gini = 0.0\nsamples = 1\nvalue = [1, 0]\nclass = [", fillcolor="#e58139"] ;
57 -> 58 ;
59 [label="gini = 0.0\nsamples = 1\nvalue = [0, 1]\nclass = '", fillcolor="#399de5"] ;
57 -> 59 ;
60 [label="colExt1:ratio_m1_m2_ZAMS <= -0.5\ngini = 0.43\nsamples = 132\nvalue = [148, 68]\nclass = [", fillcolor="#f1bb94"] ;
28 -> 60 ;
61 [label="gini = 0.0\nsamples = 94\nvalue = [146, 0]\nclass = [", fillcolor="#e58139"] ;
60 -> 61 ;
62 [label="col.4:m2rem/Msun <= 1.64\ngini = 0.06\nsamples = 38\nvalue = [2, 68]\nclass = '", fillcolor="#3fa0e6"] ;
60 -> 62 ;
63 [label="gini = 0.0\nsamples = 31\nvalue = [0, 58]\nclass = '", fillcolor="#399de5"] ;
62 -> 63 ;
64 [label="col.4:m2rem/Msun <= 1.79\ngini = 0.28\nsamples = 7\nvalue = [2, 10]\nclass = '", fillcolor="#61b1ea"] ;
62 -> 64 ;
65 [label="gini = 0.0\nsamples = 1\nvalue = [2, 0]\nclass = [", fillcolor="#e58139"] ;
64 -> 65 ;
66 [label="gini = 0.0\nsamples = 6\nvalue = [0, 10]\nclass = '", fillcolor="#399de5"] ;
64 -> 66 ;
67 [label="col.3:m1rem/Msun <= -0.61\ngini = 0.24\nsamples = 491\nvalue = [108, 657]\nclass = '", fillcolor="#5aade9"] ;
27 -> 67 ;
68 [label="colExt1:ratio_m1_m2_ZAMS <= 1.32\ngini = 0.24\nsamples = 32\nvalue = [48, 8]\nclass = [", fillcolor="#e9965a"] ;
67 -> 68 ;
69 [label="gini = 0.0\nsamples = 27\nvalue = [47, 0]\nclass = [", fillcolor="#e58139"] ;
68 -> 69 ;
70 [label="col.1:m1ZAMS/Msun <= -0.58\ngini = 0.2\nsamples = 5\nvalue = [1, 8]\nclass = '", fillcolor="#52a9e8"] ;
68 -> 70 ;
71 [label="gini = 0.0\nsamples = 3\nvalue = [0, 7]\nclass = '", fillcolor="#399de5"] ;
70 -> 71 ;
72 [label="col.7:sma/Rsun <= -0.02\ngini = 0.5\nsamples = 2\nvalue = [1, 1]\nclass = [", fillcolor="#ffffff"] ;
70 -> 72 ;
73 [label="gini = 0.0\nsamples = 1\nvalue = [0, 1]\nclass = '", fillcolor="#399de5"] ;
72 -> 73 ;
74 [label="gini = 0.0\nsamples = 1\nvalue = [1, 0]\nclass = [", fillcolor="#e58139"] ;
72 -> 74 ;
75 [label="col.6:delay_time/Myr <= -0.81\ngini = 0.15\nsamples = 459\nvalue = [60, 649]\nclass = '", fillcolor="#4ba6e7"] ;
67 -> 75 ;
76 [label="col.3:m1rem/Msun <= -0.45\ngini = 0.34\nsamples = 130\nvalue = [42, 149]\nclass = '", fillcolor="#71b9ec"] ;
75 -> 76 ;
77 [label="col.8:ecc <= -0.42\ngini = 0.19\nsamples = 18\nvalue = [25, 3]\nclass = [", fillcolor="#e89051"] ;
76 -> 77 ;
78 [label="gini = 0.0\nsamples = 8\nvalue = [15, 0]\nclass = [", fillcolor="#e58139"] ;
77 -> 78 ;
79 [label="colExt1:ratio_m1_m2_ZAMS <= 1.34\ngini = 0.36\nsamples = 10\nvalue = [10, 3]\nclass = [", fillcolor="#eda774"] ;
77 -> 79 ;
80 [label="gini = 0.0\nsamples = 7\nvalue = [10, 0]\nclass = [", fillcolor="#e58139"] ;
79 -> 80 ;
81 [label="gini = 0.0\nsamples = 3\nvalue = [0, 3]\nclass = '", fillcolor="#399de5"] ;
79 -> 81 ;
82 [label="col.7:sma/Rsun <= -0.02\ngini = 0.19\nsamples = 112\nvalue = [17, 146]\nclass = '", fillcolor="#50a8e8"] ;
76 -> 82 ;
83 [label="col.3:m1rem/Msun <= 0.35\ngini = 0.5\nsamples = 10\nvalue = [6, 6]\nclass = [", fillcolor="#ffffff"] ;
82 -> 83 ;
84 [label="gini = 0.0\nsamples = 5\nvalue = [6, 0]\nclass = [", fillcolor="#e58139"] ;
83 -> 84 ;
85 [label="gini = 0.0\nsamples = 5\nvalue = [0, 6]\nclass = '", fillcolor="#399de5"] ;
83 -> 85 ;
86 [label="colExt1:ratio_m1_m2_ZAMS <= 0.75\ngini = 0.14\nsamples = 102\nvalue = [11, 140]\nclass = '", fillcolor="#49a5e7"] ;
82 -> 86 ;
87 [label="col.3:m1rem/Msun <= -0.09\ngini = 0.42\nsamples = 19\nvalue = [10, 24]\nclass = '", fillcolor="#8bc6f0"] ;
86 -> 87 ;
88 [label="gini = 0.0\nsamples = 3\nvalue = [6, 0]\nclass = [", fillcolor="#e58139"] ;
87 -> 88 ;
89 [label="metallicity <= -0.68\ngini = 0.24\nsamples = 16\nvalue = [4, 24]\nclass = '", fillcolor="#5aade9"] ;
87 -> 89 ;
90 [label="colExt1:ratio_m1_m2_ZAMS <= 0.63\ngini = 0.44\nsamples = 4\nvalue = [4, 2]\nclass = [", fillcolor="#f2c09c"] ;
89 -> 90 ;
91 [label="gini = 0.0\nsamples = 2\nvalue = [0, 2]\nclass = '", fillcolor="#399de5"] ;
90 -> 91 ;
92 [label="gini = 0.0\nsamples = 2\nvalue = [4, 0]\nclass = [", fillcolor="#e58139"] ;
90 -> 92 ;
93 [label="gini = 0.0\nsamples = 12\nvalue = [0, 22]\nclass = '", fillcolor="#399de5"] ;
89 -> 93 ;
94 [label="alpha <= -0.94\ngini = 0.02\nsamples = 83\nvalue = [1, 116]\nclass = '", fillcolor="#3b9ee5"] ;
86 -> 94 ;
95 [label="col.1:m1ZAMS/Msun <= 1.9\ngini = 0.07\nsamples = 19\nvalue = [1, 26]\nclass = '", fillcolor="#41a1e6"] ;
94 -> 95 ;
96 [label="gini = 0.0\nsamples = 18\nvalue = [0, 26]\nclass = '", fillcolor="#399de5"] ;
95 -> 96 ;
97 [label="gini = 0.0\nsamples = 1\nvalue = [1, 0]\nclass = [", fillcolor="#e58139"] ;
95 -> 97 ;
98 [label="gini = 0.0\nsamples = 64\nvalue = [0, 90]\nclass = '", fillcolor="#399de5"] ;
94 -> 98 ;
99 [label="colExt1:ratio_m1_m2_ZAMS <= 0.79\ngini = 0.07\nsamples = 329\nvalue = [18, 500]\nclass = '", fillcolor="#40a1e6"] ;
75 -> 99 ;
100 [label="col.8:ecc <= -0.42\ngini = 0.31\nsamples = 48\nvalue = [16, 69]\nclass = '", fillcolor="#67b4eb"] ;
99 -> 100 ;
101 [label="metallicity <= 0.67\ngini = 0.17\nsamples = 44\nvalue = [7, 69]\nclass = '", fillcolor="#4da7e8"] ;
100 -> 101 ;
102 [label="colExt2:ratio_m1_m2_rem <= -0.21\ngini = 0.06\nsamples = 40\nvalue = [2, 68]\nclass = '", fillcolor="#3fa0e6"] ;
101 -> 102 ;
103 [label="gini = 0.0\nsamples = 2\nvalue = [2, 0]\nclass = [", fillcolor="#e58139"] ;
102 -> 103 ;
104 [label="gini = 0.0\nsamples = 38\nvalue = [0, 68]\nclass = '", fillcolor="#399de5"] ;
102 -> 104 ;
105 [label="col.1:m1ZAMS/Msun <= -0.06\ngini = 0.28\nsamples = 4\nvalue = [5, 1]\nclass = [", fillcolor="#ea9a61"] ;
101 -> 105 ;
106 [label="gini = 0.0\nsamples = 3\nvalue = [5, 0]\nclass = [", fillcolor="#e58139"] ;
105 -> 106 ;
107 [label="gini = 0.0\nsamples = 1\nvalue = [0, 1]\nclass = '", fillcolor="#399de5"] ;
105 -> 107 ;
108 [label="gini = 0.0\nsamples = 4\nvalue = [9, 0]\nclass = [", fillcolor="#e58139"] ;
100 -> 108 ;
109 [label="colExt2:ratio_m1_m2_rem <= -0.16\ngini = 0.01\nsamples = 281\nvalue = [2, 431]\nclass = '", fillcolor="#3a9de5"] ;
99 -> 109 ;
110 [label="gini = 0.0\nsamples = 1\nvalue = [1, 0]\nclass = [", fillcolor="#e58139"] ;
109 -> 110 ;
111 [label="colExt1:ratio_m1_m2_ZAMS <= 0.82\ngini = 0.0\nsamples = 280\nvalue = [1, 431]\nclass = '", fillcolor="#399de5"] ;
109 -> 111 ;
112 [label="col.2:m2ZAMS/Msun <= -0.87\ngini = 0.12\nsamples = 9\nvalue = [1, 15]\nclass = '", fillcolor="#46a4e7"] ;
111 -> 112 ;
113 [label="gini = 0.0\nsamples = 1\nvalue = [1, 0]\nclass = [", fillcolor="#e58139"] ;
112 -> 113 ;
114 [label="gini = 0.0\nsamples = 8\nvalue = [0, 15]\nclass = '", fillcolor="#399de5"] ;
112 -> 114 ;
115 [label="gini = 0.0\nsamples = 271\nvalue = [0, 416]\nclass = '", fillcolor="#399de5"] ;
111 -> 115 ;
116 [label="col.8:ecc <= 0.03\ngini = 0.38\nsamples = 7682\nvalue = [3138, 9004]\nclass = '", fillcolor="#7ebfee"] ;
0 -> 116 [labeldistance=2.5, labelangle=-45, headlabel="False"] ;
117 [label="colExt2:ratio_m1_m2_rem <= -0.32\ngini = 0.34\nsamples = 7165\nvalue = [2485, 8791]\nclass = '", fillcolor="#71b9ec"] ;
116 -> 117 ;
118 [label="col.1:m1ZAMS/Msun <= 0.03\ngini = 0.05\nsamples = 1122\nvalue = [1744, 48]\nclass = [", fillcolor="#e6843e"] ;
117 -> 118 ;
119 [label="colExt1:ratio_m1_m2_ZAMS <= -0.5\ngini = 0.01\nsamples = 853\nvalue = [1349, 4]\nclass = [", fillcolor="#e5813a"] ;
118 -> 119 ;
120 [label="gini = 0.0\nsamples = 771\nvalue = [1222, 0]\nclass = [", fillcolor="#e58139"] ;
119 -> 120 ;
121 [label="col.3:m1rem/Msun <= 0.24\ngini = 0.06\nsamples = 82\nvalue = [127, 4]\nclass = [", fillcolor="#e6853f"] ;
119 -> 121 ;
122 [label="col.8:ecc <= -0.47\ngini = 0.02\nsamples = 80\nvalue = [127, 1]\nclass = [", fillcolor="#e5823b"] ;
121 -> 122 ;
123 [label="col.4:m2rem/Msun <= 0.46\ngini = 0.28\nsamples = 4\nvalue = [5, 1]\nclass = [", fillcolor="#ea9a61"] ;
122 -> 123 ;
124 [label="gini = 0.0\nsamples = 1\nvalue = [0, 1]\nclass = '", fillcolor="#399de5"] ;
123 -> 124 ;
125 [label="gini = 0.0\nsamples = 3\nvalue = [5, 0]\nclass = [", fillcolor="#e58139"] ;
123 -> 125 ;
126 [label="gini = 0.0\nsamples = 76\nvalue = [122, 0]\nclass = [", fillcolor="#e58139"] ;
122 -> 126 ;
127 [label="gini = 0.0\nsamples = 2\nvalue = [0, 3]\nclass = '", fillcolor="#399de5"] ;
121 -> 127 ;
128 [label="col.8:ecc <= -0.48\ngini = 0.18\nsamples = 269\nvalue = [395, 44]\nclass = [", fillcolor="#e88f4f"] ;
118 -> 128 ;
129 [label="col.2:m2ZAMS/Msun <= 0.6\ngini = 0.5\nsamples = 19\nvalue = [19, 20]\nclass = '", fillcolor="#f5fafe"] ;
128 -> 129 ;
130 [label="gini = 0.0\nsamples = 9\nvalue = [0, 20]\nclass = '", fillcolor="#399de5"] ;
129 -> 130 ;
131 [label="gini = 0.0\nsamples = 10\nvalue = [19, 0]\nclass = [", fillcolor="#e58139"] ;
129 -> 131 ;
132 [label="colExt1:ratio_m1_m2_ZAMS <= -0.75\ngini = 0.11\nsamples = 250\nvalue = [376, 24]\nclass = [", fillcolor="#e78946"] ;
128 -> 132 ;
133 [label="gini = 0.0\nsamples = 187\nvalue = [300, 0]\nclass = [", fillcolor="#e58139"] ;
132 -> 133 ;
134 [label="alpha <= -0.94\ngini = 0.36\nsamples = 63\nvalue = [76, 24]\nclass = [", fillcolor="#eda978"] ;
132 -> 134 ;
135 [label="col.7:sma/Rsun <= -0.01\ngini = 0.5\nsamples = 15\nvalue = [13, 13]\nclass = [", fillcolor="#ffffff"] ;
134 -> 135 ;
136 [label="gini = 0.0\nsamples = 5\nvalue = [11, 0]\nclass = [", fillcolor="#e58139"] ;
135 -> 136 ;
137 [label="metallicity <= -0.05\ngini = 0.23\nsamples = 10\nvalue = [2, 13]\nclass = '", fillcolor="#57ace9"] ;
135 -> 137 ;
138 [label="gini = 0.0\nsamples = 9\nvalue = [0, 13]\nclass = '", fillcolor="#399de5"] ;
137 -> 138 ;
139 [label="gini = 0.0\nsamples = 1\nvalue = [2, 0]\nclass = [", fillcolor="#e58139"] ;
137 -> 139 ;
140 [label="col.4:m2rem/Msun <= 0.65\ngini = 0.25\nsamples = 48\nvalue = [63, 11]\nclass = [", fillcolor="#ea975c"] ;
134 -> 140 ;
141 [label="gini = 0.0\nsamples = 21\nvalue = [29, 0]\nclass = [", fillcolor="#e58139"] ;
140 -> 141 ;
142 [label="col.6:delay_time/Myr <= 1.98\ngini = 0.37\nsamples = 27\nvalue = [34, 11]\nclass = [", fillcolor="#edaa79"] ;
140 -> 142 ;
143 [label="col.3:m1rem/Msun <= 0.63\ngini = 0.31\nsamples = 25\nvalue = [34, 8]\nclass = [", fillcolor="#eb9f68"] ;
142 -> 143 ;
144 [label="colExt2:ratio_m1_m2_rem <= -0.34\ngini = 0.26\nsamples = 23\nvalue = [34, 6]\nclass = [", fillcolor="#ea975c"] ;
143 -> 144 ;
145 [label="gini = 0.0\nsamples = 18\nvalue = [33, 0]\nclass = [", fillcolor="#e58139"] ;
144 -> 145 ;
146 [label="col.2:m2ZAMS/Msun <= 0.62\ngini = 0.24\nsamples = 5\nvalue = [1, 6]\nclass = '", fillcolor="#5aade9"] ;
144 -> 146 ;
147 [label="gini = 0.0\nsamples = 4\nvalue = [0, 6]\nclass = '", fillcolor="#399de5"] ;
146 -> 147 ;
148 [label="gini = 0.0\nsamples = 1\nvalue = [1, 0]\nclass = [", fillcolor="#e58139"] ;
146 -> 148 ;
149 [label="gini = 0.0\nsamples = 2\nvalue = [0, 2]\nclass = '", fillcolor="#399de5"] ;
143 -> 149 ;
150 [label="gini = 0.0\nsamples = 2\nvalue = [0, 3]\nclass = '", fillcolor="#399de5"] ;
142 -> 150 ;
151 [label="colExt2:ratio_m1_m2_rem <= -0.13\ngini = 0.14\nsamples = 6043\nvalue = [741, 8743]\nclass = '", fillcolor="#4aa5e7"] ;
117 -> 151 ;
152 [label="col.3:m1rem/Msun <= -0.24\ngini = 0.39\nsamples = 833\nvalue = [353, 955]\nclass = '", fillcolor="#82c1ef"] ;
151 -> 152 ;
153 [label="colExt1:ratio_m1_m2_ZAMS <= 0.09\ngini = 0.01\nsamples = 93\nvalue = [141, 1]\nclass = [", fillcolor="#e5823a"] ;
152 -> 153 ;
154 [label="gini = 0.0\nsamples = 81\nvalue = [124, 0]\nclass = [", fillcolor="#e58139"] ;
153 -> 154 ;
155 [label="col.3:m1rem/Msun <= -0.3\ngini = 0.1\nsamples = 12\nvalue = [17, 1]\nclass = [", fillcolor="#e78845"] ;
153 -> 155 ;
156 [label="gini = 0.0\nsamples = 11\nvalue = [17, 0]\nclass = [", fillcolor="#e58139"] ;
155 -> 156 ;
157 [label="gini = 0.0\nsamples = 1\nvalue = [0, 1]\nclass = '", fillcolor="#399de5"] ;
155 -> 157 ;
158 [label="col.4:m2rem/Msun <= 1.73\ngini = 0.3\nsamples = 740\nvalue = [212, 954]\nclass = '", fillcolor="#65b3eb"] ;
152 -> 158 ;
159 [label="metallicity <= 0.31\ngini = 0.25\nsamples = 710\nvalue = [168, 954]\nclass = '", fillcolor="#5caeea"] ;
158 -> 159 ;
160 [label="colExt1:ratio_m1_m2_ZAMS <= -0.79\ngini = 0.14\nsamples = 611\nvalue = [75, 897]\nclass = '", fillcolor="#4aa5e7"] ;
159 -> 160 ;
161 [label="gini = 0.0\nsamples = 23\nvalue = [38, 0]\nclass = [", fillcolor="#e58139"] ;
160 -> 161 ;
162 [label="col.1:m1ZAMS/Msun <= -0.42\ngini = 0.08\nsamples = 588\nvalue = [37, 897]\nclass = '", fillcolor="#41a1e6"] ;
160 -> 162 ;
163 [label="gini = 0.0\nsamples = 1\nvalue = [2, 0]\nclass = [", fillcolor="#e58139"] ;
162 -> 163 ;
164 [label="colExt2:ratio_m1_m2_rem <= -0.26\ngini = 0.07\nsamples = 587\nvalue = [35, 897]\nclass = '", fillcolor="#41a1e6"] ;
162 -> 164 ;
165 [label="col.3:m1rem/Msun <= 0.02\ngini = 0.21\nsamples = 130\nvalue = [24, 179]\nclass = '", fillcolor="#54aae8"] ;
164 -> 165 ;
166 [label="col.6:delay_time/Myr <= -0.63\ngini = 0.43\nsamples = 10\nvalue = [9, 4]\nclass = [", fillcolor="#f1b991"] ;
165 -> 166 ;
167 [label="gini = 0.0\nsamples = 2\nvalue = [4, 0]\nclass = [", fillcolor="#e58139"] ;
166 -> 167 ;
168 [label="alpha <= 0.95\ngini = 0.49\nsamples = 8\nvalue = [5, 4]\nclass = [", fillcolor="#fae6d7"] ;
166 -> 168 ;
169 [label="metallicity <= -0.32\ngini = 0.32\nsamples = 4\nvalue = [1, 4]\nclass = '", fillcolor="#6ab6ec"] ;
168 -> 169 ;
170 [label="gini = 0.0\nsamples = 3\nvalue = [0, 4]\nclass = '", fillcolor="#399de5"] ;
169 -> 170 ;
171 [label="gini = 0.0\nsamples = 1\nvalue = [1, 0]\nclass = [", fillcolor="#e58139"] ;
169 -> 171 ;
172 [label="gini = 0.0\nsamples = 4\nvalue = [4, 0]\nclass = [", fillcolor="#e58139"] ;
168 -> 172 ;
173 [label="metallicity <= -0.23\ngini = 0.15\nsamples = 120\nvalue = [15, 175]\nclass = '", fillcolor="#4aa5e7"] ;
165 -> 173 ;
174 [label="col.8:ecc <= -0.46\ngini = 0.03\nsamples = 111\nvalue = [3, 173]\nclass = '", fillcolor="#3c9fe5"] ;
173 -> 174 ;
175 [label="gini = 0.0\nsamples = 62\nvalue = [0, 94]\nclass = '", fillcolor="#399de5"] ;
174 -> 175 ;
176 [label="col.4:m2rem/Msun <= 0.67\ngini = 0.07\nsamples = 49\nvalue = [3, 79]\nclass = '", fillcolor="#41a1e6"] ;
174 -> 176 ;
177 [label="colExt1:ratio_m1_m2_ZAMS <= -0.44\ngini = 0.24\nsamples = 13\nvalue = [3, 19]\nclass = '", fillcolor="#58ace9"] ;
176 -> 177 ;
178 [label="gini = 0.0\nsamples = 2\nvalue = [3, 0]\nclass = [", fillcolor="#e58139"] ;
177 -> 178 ;
179 [label="gini = 0.0\nsamples = 11\nvalue = [0, 19]\nclass = '", fillcolor="#399de5"] ;
177 -> 179 ;
180 [label="gini = 0.0\nsamples = 36\nvalue = [0, 60]\nclass = '", fillcolor="#399de5"] ;
176 -> 180 ;
181 [label="colExt1:ratio_m1_m2_ZAMS <= -0.51\ngini = 0.24\nsamples = 9\nvalue = [12, 2]\nclass = [", fillcolor="#e9965a"] ;
173 -> 181 ;
182 [label="gini = 0.0\nsamples = 7\nvalue = [11, 0]\nclass = [", fillcolor="#e58139"] ;
181 -> 182 ;
183 [label="colExt1:ratio_m1_m2_ZAMS <= -0.39\ngini = 0.44\nsamples = 2\nvalue = [1, 2]\nclass = '", fillcolor="#9ccef2"] ;
181 -> 183 ;
184 [label="gini = 0.0\nsamples = 1\nvalue = [0, 2]\nclass = '", fillcolor="#399de5"] ;
183 -> 184 ;
185 [label="gini = 0.0\nsamples = 1\nvalue = [1, 0]\nclass = [", fillcolor="#e58139"] ;
183 -> 185 ;
186 [label="col.7:sma/Rsun <= -0.02\ngini = 0.03\nsamples = 457\nvalue = [11, 718]\nclass = '", fillcolor="#3c9fe5"] ;
164 -> 186 ;
187 [label="gini = 0.0\nsamples = 1\nvalue = [1, 0]\nclass = [", fillcolor="#e58139"] ;
186 -> 187 ;
188 [label="col.7:sma/Rsun <= -0.01\ngini = 0.03\nsamples = 456\nvalue = [10, 718]\nclass = '", fillcolor="#3c9ee5"] ;
186 -> 188 ;
189 [label="colExt2:ratio_m1_m2_rem <= -0.21\ngini = 0.12\nsamples = 7\nvalue = [1, 15]\nclass = '", fillcolor="#46a4e7"] ;
188 -> 189 ;
190 [label="gini = 0.0\nsamples = 3\nvalue = [0, 8]\nclass = '", fillcolor="#399de5"] ;
189 -> 190 ;
191 [label="col.7:sma/Rsun <= -0.01\ngini = 0.22\nsamples = 4\nvalue = [1, 7]\nclass = '", fillcolor="#55abe9"] ;
189 -> 191 ;
192 [label="gini = 0.0\nsamples = 3\nvalue = [0, 7]\nclass = '", fillcolor="#399de5"] ;
191 -> 192 ;
193 [label="gini = 0.0\nsamples = 1\nvalue = [1, 0]\nclass = [", fillcolor="#e58139"] ;
191 -> 193 ;
194 [label="colExt1:ratio_m1_m2_ZAMS <= -0.77\ngini = 0.02\nsamples = 449\nvalue = [9, 703]\nclass = '", fillcolor="#3c9ee5"] ;
188 -> 194 ;
195 [label="col.8:ecc <= -0.41\ngini = 0.3\nsamples = 8\nvalue = [2, 9]\nclass = '", fillcolor="#65b3eb"] ;
194 -> 195 ;
196 [label="gini = 0.0\nsamples = 1\nvalue = [2, 0]\nclass = [", fillcolor="#e58139"] ;
195 -> 196 ;
197 [label="gini = 0.0\nsamples = 7\nvalue = [0, 9]\nclass = '", fillcolor="#399de5"] ;
195 -> 197 ;
198 [label="col.2:m2ZAMS/Msun <= -0.17\ngini = 0.02\nsamples = 441\nvalue = [7, 694]\nclass = '", fillcolor="#3b9ee5"] ;
194 -> 198 ;
199 [label="col.2:m2ZAMS/Msun <= -0.17\ngini = 0.05\nsamples = 75\nvalue = [3, 115]\nclass = '", fillcolor="#3ea0e6"] ;
198 -> 199 ;
200 [label="colExt1:ratio_m1_m2_ZAMS <= -0.22\ngini = 0.03\nsamples = 74\nvalue = [2, 115]\nclass = '", fillcolor="#3c9fe5"] ;
199 -> 200 ;
201 [label="gini = 0.0\nsamples = 1\nvalue = [1, 0]\nclass = [", fillcolor="#e58139"] ;
200 -> 201 ;
202 [label="col.3:m1rem/Msun <= -0.2\ngini = 0.02\nsamples = 73\nvalue = [1, 115]\nclass = '", fillcolor="#3b9ee5"] ;
200 -> 202 ;
203 [label="alpha <= 0.95\ngini = 0.12\nsamples = 8\nvalue = [1, 14]\nclass = '", fillcolor="#47a4e7"] ;
202 -> 203 ;
204 [label="gini = 0.0\nsamples = 7\nvalue = [0, 14]\nclass = '", fillcolor="#399de5"] ;
203 -> 204 ;
205 [label="gini = 0.0\nsamples = 1\nvalue = [1, 0]\nclass = [", fillcolor="#e58139"] ;
203 -> 205 ;
206 [label="gini = 0.0\nsamples = 65\nvalue = [0, 101]\nclass = '", fillcolor="#399de5"] ;
202 -> 206 ;
207 [label="gini = 0.0\nsamples = 1\nvalue = [1, 0]\nclass = [", fillcolor="#e58139"] ;
199 -> 207 ;
208 [label="metallicity <= -0.23\ngini = 0.01\nsamples = 366\nvalue = [4, 579]\nclass = '", fillcolor="#3a9ee5"] ;
198 -> 208 ;
209 [label="gini = 0.0\nsamples = 300\nvalue = [0, 486]\nclass = '", fillcolor="#399de5"] ;
208 -> 209 ;
210 [label="colExt1:ratio_m1_m2_ZAMS <= -0.69\ngini = 0.08\nsamples = 66\nvalue = [4, 93]\nclass = '", fillcolor="#42a1e6"] ;
208 -> 210 ;
211 [label="col.1:m1ZAMS/Msun <= 0.7\ngini = 0.42\nsamples = 8\nvalue = [3, 7]\nclass = '", fillcolor="#8ec7f0"] ;
210 -> 211 ;
212 [label="gini = 0.0\nsamples = 2\nvalue = [3, 0]\nclass = [", fillcolor="#e58139"] ;
211 -> 212 ;
213 [label="gini = 0.0\nsamples = 6\nvalue = [0, 7]\nclass = '", fillcolor="#399de5"] ;
211 -> 213 ;
214 [label="col.3:m1rem/Msun <= 0.17\ngini = 0.02\nsamples = 58\nvalue = [1, 86]\nclass = '", fillcolor="#3b9ee5"] ;
210 -> 214 ;
215 [label="colExt1:ratio_m1_m2_ZAMS <= -0.32\ngini = 0.22\nsamples = 5\nvalue = [1, 7]\nclass = '", fillcolor="#55abe9"] ;
214 -> 215 ;
216 [label="gini = 0.0\nsamples = 1\nvalue = [1, 0]\nclass = [", fillcolor="#e58139"] ;
215 -> 216 ;
217 [label="gini = 0.0\nsamples = 4\nvalue = [0, 7]\nclass = '", fillcolor="#399de5"] ;
215 -> 217 ;
218 [label="gini = 0.0\nsamples = 53\nvalue = [0, 79]\nclass = '", fillcolor="#399de5"] ;
214 -> 218 ;
219 [label="col.1:m1ZAMS/Msun <= 0.38\ngini = 0.47\nsamples = 99\nvalue = [93, 57]\nclass = [", fillcolor="#f5ceb2"] ;
159 -> 219 ;
220 [label="col.7:sma/Rsun <= 0.0\ngini = 0.11\nsamples = 53\nvalue = [78, 5]\nclass = [", fillcolor="#e78946"] ;
219 -> 220 ;
221 [label="col.8:ecc <= -0.47\ngini = 0.09\nsamples = 52\nvalue = [78, 4]\nclass = [", fillcolor="#e68743"] ;
220 -> 221 ;
222 [label="col.4:m2rem/Msun <= 0.41\ngini = 0.26\nsamples = 15\nvalue = [22, 4]\nclass = [", fillcolor="#ea985d"] ;
221 -> 222 ;
223 [label="gini = 0.0\nsamples = 1\nvalue = [0, 3]\nclass = '", fillcolor="#399de5"] ;
222 -> 223 ;
224 [label="colExt2:ratio_m1_m2_rem <= -0.15\ngini = 0.08\nsamples = 14\nvalue = [22, 1]\nclass = [", fillcolor="#e68742"] ;
222 -> 224 ;
225 [label="gini = 0.0\nsamples = 13\nvalue = [22, 0]\nclass = [", fillcolor="#e58139"] ;
224 -> 225 ;
226 [label="gini = 0.0\nsamples = 1\nvalue = [0, 1]\nclass = '", fillcolor="#399de5"] ;
224 -> 226 ;
227 [label="gini = 0.0\nsamples = 37\nvalue = [56, 0]\nclass = [", fillcolor="#e58139"] ;
221 -> 227 ;
228 [label="gini = 0.0\nsamples = 1\nvalue = [0, 1]\nclass = '", fillcolor="#399de5"] ;
220 -> 228 ;
229 [label="col.8:ecc <= -0.4\ngini = 0.35\nsamples = 46\nvalue = [15, 52]\nclass = '", fillcolor="#72b9ec"] ;
219 -> 229 ;
230 [label="col.6:delay_time/Myr <= -0.42\ngini = 0.3\nsamples = 44\nvalue = [12, 52]\nclass = '", fillcolor="#67b4eb"] ;
229 -> 230 ;
231 [label="colExt1:ratio_m1_m2_ZAMS <= -0.42\ngini = 0.46\nsamples = 22\nvalue = [10, 18]\nclass = '", fillcolor="#a7d3f3"] ;
230 -> 231 ;
232 [label="gini = 0.0\nsamples = 5\nvalue = [7, 0]\nclass = [", fillcolor="#e58139"] ;
231 -> 232 ;
233 [label="colExt2:ratio_m1_m2_rem <= -0.26\ngini = 0.24\nsamples = 17\nvalue = [3, 18]\nclass = '", fillcolor="#5aade9"] ;
231 -> 233 ;
234 [label="gini = 0.0\nsamples = 1\nvalue = [1, 0]\nclass = [", fillcolor="#e58139"] ;
233 -> 234 ;
235 [label="col.4:m2rem/Msun <= 0.63\ngini = 0.18\nsamples = 16\nvalue = [2, 18]\nclass = '", fillcolor="#4fa8e8"] ;
233 -> 235 ;
236 [label="col.7:sma/Rsun <= -0.01\ngini = 0.44\nsamples = 3\nvalue = [2, 1]\nclass = [", fillcolor="#f2c09c"] ;
235 -> 236 ;
237 [label="gini = 0.0\nsamples = 1\nvalue = [0, 1]\nclass = '", fillcolor="#399de5"] ;
236 -> 237 ;
238 [label="gini = 0.0\nsamples = 2\nvalue = [2, 0]\nclass = [", fillcolor="#e58139"] ;
236 -> 238 ;
239 [label="gini = 0.0\nsamples = 13\nvalue = [0, 17]\nclass = '", fillcolor="#399de5"] ;
235 -> 239 ;
240 [label="col.4:m2rem/Msun <= 0.68\ngini = 0.1\nsamples = 22\nvalue = [2, 34]\nclass = '", fillcolor="#45a3e7"] ;
230 -> 240 ;
241 [label="colExt1:ratio_m1_m2_ZAMS <= -0.41\ngini = 0.26\nsamples = 9\nvalue = [2, 11]\nclass = '", fillcolor="#5dafea"] ;
240 -> 241 ;
242 [label="gini = 0.0\nsamples = 1\nvalue = [2, 0]\nclass = [", fillcolor="#e58139"] ;
241 -> 242 ;
243 [label="gini = 0.0\nsamples = 8\nvalue = [0, 11]\nclass = '", fillcolor="#399de5"] ;
241 -> 243 ;
244 [label="gini = 0.0\nsamples = 13\nvalue = [0, 23]\nclass = '", fillcolor="#399de5"] ;
240 -> 244 ;
245 [label="gini = 0.0\nsamples = 2\nvalue = [3, 0]\nclass = [", fillcolor="#e58139"] ;
229 -> 245 ;
246 [label="gini = 0.0\nsamples = 30\nvalue = [44, 0]\nclass = [", fillcolor="#e58139"] ;
158 -> 246 ;
247 [label="colExt1:ratio_m1_m2_ZAMS <= -0.77\ngini = 0.09\nsamples = 5210\nvalue = [388, 7788]\nclass = '", fillcolor="#43a2e6"] ;
151 -> 247 ;
248 [label="gini = 0.0\nsamples = 109\nvalue = [187, 0]\nclass = [", fillcolor="#e58139"] ;
247 -> 248 ;
249 [label="colExt2:ratio_m1_m2_rem <= 1.4\ngini = 0.05\nsamples = 5101\nvalue = [201, 7788]\nclass = '", fillcolor="#3ea0e6"] ;
247 -> 249 ;
250 [label="col.4:m2rem/Msun <= -0.97\ngini = 0.04\nsamples = 5056\nvalue = [171, 7745]\nclass = '", fillcolor="#3d9fe6"] ;
249 -> 250 ;
251 [label="col.2:m2ZAMS/Msun <= -1.08\ngini = 0.44\nsamples = 16\nvalue = [17, 8]\nclass = [", fillcolor="#f1bc96"] ;
250 -> 251 ;
252 [label="gini = 0.0\nsamples = 5\nvalue = [0, 6]\nclass = '", fillcolor="#399de5"] ;
251 -> 252 ;
253 [label="col.3:m1rem/Msun <= -0.66\ngini = 0.19\nsamples = 11\nvalue = [17, 2]\nclass = [", fillcolor="#e89050"] ;
251 -> 253 ;
254 [label="gini = 0.0\nsamples = 8\nvalue = [16, 0]\nclass = [", fillcolor="#e58139"] ;
253 -> 254 ;
255 [label="alpha <= -0.21\ngini = 0.44\nsamples = 3\nvalue = [1, 2]\nclass = '", fillcolor="#9ccef2"] ;
253 -> 255 ;
256 [label="gini = 0.0\nsamples = 1\nvalue = [1, 0]\nclass = [", fillcolor="#e58139"] ;
255 -> 256 ;
257 [label="gini = 0.0\nsamples = 2\nvalue = [0, 2]\nclass = '", fillcolor="#399de5"] ;
255 -> 257 ;
258 [label="colExt2:ratio_m1_m2_rem <= -0.03\ngini = 0.04\nsamples = 5040\nvalue = [154, 7737]\nclass = '", fillcolor="#3d9fe6"] ;
250 -> 258 ;
259 [label="col.4:m2rem/Msun <= -0.42\ngini = 0.16\nsamples = 579\nvalue = [83, 843]\nclass = '", fillcolor="#4ca7e8"] ;
258 -> 259 ;
260 [label="metallicity <= -0.68\ngini = 0.24\nsamples = 34\nvalue = [44, 7]\nclass = [", fillcolor="#e99558"] ;
259 -> 260 ;
261 [label="col.8:ecc <= -0.31\ngini = 0.22\nsamples = 7\nvalue = [1, 7]\nclass = '", fillcolor="#55abe9"] ;
260 -> 261 ;
262 [label="gini = 0.0\nsamples = 6\nvalue = [0, 7]\nclass = '", fillcolor="#399de5"] ;
261 -> 262 ;
263 [label="gini = 0.0\nsamples = 1\nvalue = [1, 0]\nclass = [", fillcolor="#e58139"] ;
261 -> 263 ;
264 [label="gini = 0.0\nsamples = 27\nvalue = [43, 0]\nclass = [", fillcolor="#e58139"] ;
260 -> 264 ;
265 [label="col.3:m1rem/Msun <= -0.08\ngini = 0.09\nsamples = 545\nvalue = [39, 836]\nclass = '", fillcolor="#42a2e6"] ;
259 -> 265 ;
266 [label="metallicity <= -0.23\ngini = 0.31\nsamples = 82\nvalue = [24, 103]\nclass = '", fillcolor="#67b4eb"] ;
265 -> 266 ;
267 [label="colExt1:ratio_m1_m2_ZAMS <= 0.17\ngini = 0.09\nsamples = 65\nvalue = [5, 98]\nclass = '", fillcolor="#43a2e6"] ;
266 -> 267 ;
268 [label="colExt2:ratio_m1_m2_rem <= -0.11\ngini = 0.39\nsamples = 13\nvalue = [5, 14]\nclass = '", fillcolor="#80c0ee"] ;
267 -> 268 ;
269 [label="col.7:sma/Rsun <= -0.01\ngini = 0.12\nsamples = 10\nvalue = [1, 14]\nclass = '", fillcolor="#47a4e7"] ;
268 -> 269 ;
270 [label="colExt2:ratio_m1_m2_rem <= -0.12\ngini = 0.5\nsamples = 2\nvalue = [1, 1]\nclass = [", fillcolor="#ffffff"] ;
269 -> 270 ;
271 [label="gini = 0.0\nsamples = 1\nvalue = [1, 0]\nclass = [", fillcolor="#e58139"] ;
270 -> 271 ;
272 [label="gini = 0.0\nsamples = 1\nvalue = [0, 1]\nclass = '", fillcolor="#399de5"] ;
270 -> 272 ;
273 [label="gini = 0.0\nsamples = 8\nvalue = [0, 13]\nclass = '", fillcolor="#399de5"] ;
269 -> 273 ;
274 [label="gini = 0.0\nsamples = 3\nvalue = [4, 0]\nclass = [", fillcolor="#e58139"] ;
268 -> 274 ;
275 [label="gini = 0.0\nsamples = 52\nvalue = [0, 84]\nclass = '", fillcolor="#399de5"] ;
267 -> 275 ;
276 [label="col.2:m2ZAMS/Msun <= -0.31\ngini = 0.33\nsamples = 17\nvalue = [19, 5]\nclass = [", fillcolor="#eca26d"] ;
266 -> 276 ;
277 [label="alpha <= -0.21\ngini = 0.47\nsamples = 7\nvalue = [3, 5]\nclass = '", fillcolor="#b0d8f5"] ;
276 -> 277 ;
278 [label="gini = 0.0\nsamples = 4\nvalue = [0, 5]\nclass = '", fillcolor="#399de5"] ;
277 -> 278 ;
279 [label="gini = 0.0\nsamples = 3\nvalue = [3, 0]\nclass = [", fillcolor="#e58139"] ;
277 -> 279 ;
280 [label="gini = 0.0\nsamples = 10\nvalue = [16, 0]\nclass = [", fillcolor="#e58139"] ;
276 -> 280 ;
281 [label="col.2:m2ZAMS/Msun <= 1.83\ngini = 0.04\nsamples = 463\nvalue = [15, 733]\nclass = '", fillcolor="#3d9fe6"] ;
265 -> 281 ;
282 [label="col.4:m2rem/Msun <= 0.51\ngini = 0.02\nsamples = 458\nvalue = [9, 732]\nclass = '", fillcolor="#3b9ee5"] ;
281 -> 282 ;
283 [label="col.2:m2ZAMS/Msun <= 0.44\ngini = 0.07\nsamples = 151\nvalue = [9, 240]\nclass = '", fillcolor="#40a1e6"] ;
282 -> 283 ;
284 [label="colExt1:ratio_m1_m2_ZAMS <= -0.23\ngini = 0.06\nsamples = 150\nvalue = [7, 240]\nclass = '", fillcolor="#3fa0e6"] ;
283 -> 284 ;
285 [label="gini = 0.0\nsamples = 1\nvalue = [2, 0]\nclass = [", fillcolor="#e58139"] ;
284 -> 285 ;
286 [label="metallicity <= 0.31\ngini = 0.04\nsamples = 149\nvalue = [5, 240]\nclass = '", fillcolor="#3d9fe6"] ;
284 -> 286 ;
287 [label="gini = 0.0\nsamples = 106\nvalue = [0, 171]\nclass = '", fillcolor="#399de5"] ;
286 -> 287 ;
288 [label="col.6:delay_time/Myr <= -0.57\ngini = 0.13\nsamples = 43\nvalue = [5, 69]\nclass = '", fillcolor="#47a4e7"] ;
286 -> 288 ;
289 [label="colExt1:ratio_m1_m2_ZAMS <= 0.02\ngini = 0.34\nsamples = 10\nvalue = [3, 11]\nclass = '", fillcolor="#6fb8ec"] ;
288 -> 289 ;
290 [label="gini = 0.0\nsamples = 2\nvalue = [3, 0]\nclass = [", fillcolor="#e58139"] ;
289 -> 290 ;
291 [label="gini = 0.0\nsamples = 8\nvalue = [0, 11]\nclass = '", fillcolor="#399de5"] ;
289 -> 291 ;
292 [label="col.3:m1rem/Msun <= 0.11\ngini = 0.06\nsamples = 33\nvalue = [2, 58]\nclass = '", fillcolor="#40a0e6"] ;
288 -> 292 ;
293 [label="col.6:delay_time/Myr <= 0.41\ngini = 0.3\nsamples = 8\nvalue = [2, 9]\nclass = '", fillcolor="#65b3eb"] ;
292 -> 293 ;
294 [label="gini = 0.0\nsamples = 5\nvalue = [0, 8]\nclass = '", fillcolor="#399de5"] ;
293 -> 294 ;
295 [label="metallicity <= 0.67\ngini = 0.44\nsamples = 3\nvalue = [2, 1]\nclass = [", fillcolor="#f2c09c"] ;
293 -> 295 ;
296 [label="gini = 0.0\nsamples = 1\nvalue = [0, 1]\nclass = '", fillcolor="#399de5"] ;
295 -> 296 ;
297 [label="gini = 0.0\nsamples = 2\nvalue = [2, 0]\nclass = [", fillcolor="#e58139"] ;
295 -> 297 ;
298 [label="gini = 0.0\nsamples = 25\nvalue = [0, 49]\nclass = '", fillcolor="#399de5"] ;
292 -> 298 ;
299 [label="gini = 0.0\nsamples = 1\nvalue = [2, 0]\nclass = [", fillcolor="#e58139"] ;
283 -> 299 ;
300 [label="gini = 0.0\nsamples = 307\nvalue = [0, 492]\nclass = '", fillcolor="#399de5"] ;
282 -> 300 ;
301 [label="col.1:m1ZAMS/Msun <= 1.47\ngini = 0.24\nsamples = 5\nvalue = [6, 1]\nclass = [", fillcolor="#e9965a"] ;
281 -> 301 ;
302 [label="col.4:m2rem/Msun <= 1.88\ngini = 0.5\nsamples = 2\nvalue = [1, 1]\nclass = [", fillcolor="#ffffff"] ;
301 -> 302 ;
303 [label="gini = 0.0\nsamples = 1\nvalue = [1, 0]\nclass = [", fillcolor="#e58139"] ;
302 -> 303 ;
304 [label="gini = 0.0\nsamples = 1\nvalue = [0, 1]\nclass = '", fillcolor="#399de5"] ;
302 -> 304 ;
305 [label="gini = 0.0\nsamples = 3\nvalue = [5, 0]\nclass = [", fillcolor="#e58139"] ;
301 -> 305 ;
306 [label="colExt2:ratio_m1_m2_rem <= 0.05\ngini = 0.02\nsamples = 4461\nvalue = [71, 6894]\nclass = '", fillcolor="#3b9ee5"] ;
258 -> 306 ;
307 [label="col.4:m2rem/Msun <= -0.5\ngini = 0.08\nsamples = 571\nvalue = [35, 834]\nclass = '", fillcolor="#41a1e6"] ;
306 -> 307 ;
308 [label="col.1:m1ZAMS/Msun <= -0.57\ngini = 0.49\nsamples = 34\nvalue = [23, 31]\nclass = '", fillcolor="#cce6f8"] ;
307 -> 308 ;
309 [label="col.4:m2rem/Msun <= -0.65\ngini = 0.25\nsamples = 21\nvalue = [5, 29]\nclass = '", fillcolor="#5baee9"] ;
308 -> 309 ;
310 [label="colExt1:ratio_m1_m2_ZAMS <= 0.77\ngini = 0.32\nsamples = 3\nvalue = [4, 1]\nclass = [", fillcolor="#eca06a"] ;
309 -> 310 ;
311 [label="gini = 0.0\nsamples = 2\nvalue = [4, 0]\nclass = [", fillcolor="#e58139"] ;
310 -> 311 ;
312 [label="gini = 0.0\nsamples = 1\nvalue = [0, 1]\nclass = '", fillcolor="#399de5"] ;
310 -> 312 ;
313 [label="colExt1:ratio_m1_m2_ZAMS <= 0.32\ngini = 0.07\nsamples = 18\nvalue = [1, 28]\nclass = '", fillcolor="#40a0e6"] ;
309 -> 313 ;
314 [label="gini = 0.0\nsamples = 1\nvalue = [1, 0]\nclass = [", fillcolor="#e58139"] ;
313 -> 314 ;
315 [label="gini = 0.0\nsamples = 17\nvalue = [0, 28]\nclass = '", fillcolor="#399de5"] ;
313 -> 315 ;
316 [label="alpha <= -0.94\ngini = 0.18\nsamples = 13\nvalue = [18, 2]\nclass = [", fillcolor="#e88f4f"] ;
308 -> 316 ;
317 [label="gini = 0.0\nsamples = 2\nvalue = [0, 2]\nclass = '", fillcolor="#399de5"] ;
316 -> 317 ;
318 [label="gini = 0.0\nsamples = 11\nvalue = [18, 0]\nclass = [", fillcolor="#e58139"] ;
316 -> 318 ;
319 [label="metallicity <= 1.74\ngini = 0.03\nsamples = 537\nvalue = [12, 803]\nclass = '", fillcolor="#3c9ee5"] ;
307 -> 319 ;
320 [label="colExt1:ratio_m1_m2_ZAMS <= -0.7\ngini = 0.03\nsamples = 536\nvalue = [11, 803]\nclass = '", fillcolor="#3c9ee5"] ;
319 -> 320 ;
321 [label="gini = 0.0\nsamples = 1\nvalue = [1, 0]\nclass = [", fillcolor="#e58139"] ;
320 -> 321 ;
322 [label="col.4:m2rem/Msun <= -0.25\ngini = 0.02\nsamples = 535\nvalue = [10, 803]\nclass = '", fillcolor="#3b9ee5"] ;
320 -> 322 ;
323 [label="colExt1:ratio_m1_m2_ZAMS <= 0.28\ngini = 0.11\nsamples = 56\nvalue = [5, 77]\nclass = '", fillcolor="#46a3e7"] ;
322 -> 323 ;
324 [label="gini = 0.0\nsamples = 3\nvalue = [4, 0]\nclass = [", fillcolor="#e58139"] ;
323 -> 324 ;
325 [label="col.8:ecc <= -0.44\ngini = 0.03\nsamples = 53\nvalue = [1, 77]\nclass = '", fillcolor="#3c9ee5"] ;
323 -> 325 ;
326 [label="gini = 0.0\nsamples = 35\nvalue = [0, 55]\nclass = '", fillcolor="#399de5"] ;
325 -> 326 ;
327 [label="col.1:m1ZAMS/Msun <= -0.45\ngini = 0.08\nsamples = 18\nvalue = [1, 22]\nclass = '", fillcolor="#42a1e6"] ;
325 -> 327 ;
328 [label="gini = 0.0\nsamples = 17\nvalue = [0, 22]\nclass = '", fillcolor="#399de5"] ;
327 -> 328 ;
329 [label="gini = 0.0\nsamples = 1\nvalue = [1, 0]\nclass = [", fillcolor="#e58139"] ;
327 -> 329 ;
330 [label="col.2:m2ZAMS/Msun <= 2.04\ngini = 0.01\nsamples = 479\nvalue = [5, 726]\nclass = '", fillcolor="#3a9ee5"] ;
322 -> 330 ;
331 [label="colExt2:ratio_m1_m2_rem <= 0.0\ngini = 0.01\nsamples = 475\nvalue = [4, 722]\nclass = '", fillcolor="#3a9ee5"] ;
330 -> 331 ;
332 [label="colExt1:ratio_m1_m2_ZAMS <= -0.64\ngini = 0.03\nsamples = 181\nvalue = [4, 267]\nclass = '", fillcolor="#3c9ee5"] ;
331 -> 332 ;
333 [label="col.8:ecc <= -0.41\ngini = 0.28\nsamples = 4\nvalue = [1, 5]\nclass = '", fillcolor="#61b1ea"] ;
332 -> 333 ;
334 [label="gini = 0.0\nsamples = 1\nvalue = [1, 0]\nclass = [", fillcolor="#e58139"] ;
333 -> 334 ;
335 [label="gini = 0.0\nsamples = 3\nvalue = [0, 5]\nclass = '", fillcolor="#399de5"] ;
333 -> 335 ;
336 [label="colExt2:ratio_m1_m2_rem <= 0.0\ngini = 0.02\nsamples = 177\nvalue = [3, 262]\nclass = '", fillcolor="#3b9ee5"] ;
332 -> 336 ;
337 [label="col.8:ecc <= -0.46\ngini = 0.02\nsamples = 176\nvalue = [2, 262]\nclass = '", fillcolor="#3b9ee5"] ;
336 -> 337 ;
338 [label="col.3:m1rem/Msun <= 0.09\ngini = 0.03\nsamples = 73\nvalue = [2, 115]\nclass = '", fillcolor="#3c9fe5"] ;
337 -> 338 ;
339 [label="gini = 0.0\nsamples = 1\nvalue = [1, 0]\nclass = [", fillcolor="#e58139"] ;
338 -> 339 ;
340 [label="metallicity <= 0.67\ngini = 0.02\nsamples = 72\nvalue = [1, 115]\nclass = '", fillcolor="#3b9ee5"] ;
338 -> 340 ;
341 [label="gini = 0.0\nsamples = 56\nvalue = [0, 96]\nclass = '", fillcolor="#399de5"] ;
340 -> 341 ;
342 [label="col.4:m2rem/Msun <= 0.32\ngini = 0.09\nsamples = 16\nvalue = [1, 19]\nclass = '", fillcolor="#43a2e6"] ;
340 -> 342 ;
343 [label="col.4:m2rem/Msun <= 0.27\ngini = 0.32\nsamples = 4\nvalue = [1, 4]\nclass = '", fillcolor="#6ab6ec"] ;
342 -> 343 ;
344 [label="gini = 0.0\nsamples = 3\nvalue = [0, 4]\nclass = '", fillcolor="#399de5"] ;
343 -> 344 ;
345 [label="gini = 0.0\nsamples = 1\nvalue = [1, 0]\nclass = [", fillcolor="#e58139"] ;
343 -> 345 ;
346 [label="gini = 0.0\nsamples = 12\nvalue = [0, 15]\nclass = '", fillcolor="#399de5"] ;
342 -> 346 ;
347 [label="gini = 0.0\nsamples = 103\nvalue = [0, 147]\nclass = '", fillcolor="#399de5"] ;
337 -> 347 ;
348 [label="gini = 0.0\nsamples = 1\nvalue = [1, 0]\nclass = [", fillcolor="#e58139"] ;
336 -> 348 ;
349 [label="gini = 0.0\nsamples = 294\nvalue = [0, 455]\nclass = '", fillcolor="#399de5"] ;
331 -> 349 ;
350 [label="col.1:m1ZAMS/Msun <= 1.72\ngini = 0.32\nsamples = 4\nvalue = [1, 4]\nclass = '", fillcolor="#6ab6ec"] ;
330 -> 350 ;
351 [label="gini = 0.0\nsamples = 1\nvalue = [1, 0]\nclass = [", fillcolor="#e58139"] ;
350 -> 351 ;
352 [label="gini = 0.0\nsamples = 3\nvalue = [0, 4]\nclass = '", fillcolor="#399de5"] ;
350 -> 352 ;
353 [label="gini = 0.0\nsamples = 1\nvalue = [1, 0]\nclass = [", fillcolor="#e58139"] ;
319 -> 353 ;
354 [label="col.8:ecc <= -0.49\ngini = 0.01\nsamples = 3890\nvalue = [36, 6060]\nclass = '", fillcolor="#3a9ee5"] ;
306 -> 354 ;
355 [label="col.3:m1rem/Msun <= 0.71\ngini = 0.44\nsamples = 2\nvalue = [1, 2]\nclass = '", fillcolor="#9ccef2"] ;
354 -> 355 ;
356 [label="gini = 0.0\nsamples = 1\nvalue = [0, 2]\nclass = '", fillcolor="#399de5"] ;
355 -> 356 ;
357 [label="gini = 0.0\nsamples = 1\nvalue = [1, 0]\nclass = [", fillcolor="#e58139"] ;
355 -> 357 ;
358 [label="col.3:m1rem/Msun <= -0.59\ngini = 0.01\nsamples = 3888\nvalue = [35, 6058]\nclass = '", fillcolor="#3a9ee5"] ;
354 -> 358 ;
359 [label="metallicity <= 0.67\ngini = 0.41\nsamples = 22\nvalue = [10, 25]\nclass = '", fillcolor="#88c4ef"] ;
358 -> 359 ;
360 [label="col.2:m2ZAMS/Msun <= -0.97\ngini = 0.14\nsamples = 16\nvalue = [2, 24]\nclass = '", fillcolor="#49a5e7"] ;
359 -> 360 ;
361 [label="gini = 0.0\nsamples = 14\nvalue = [0, 24]\nclass = '", fillcolor="#399de5"] ;
360 -> 361 ;
362 [label="gini = 0.0\nsamples = 2\nvalue = [2, 0]\nclass = [", fillcolor="#e58139"] ;
360 -> 362 ;
363 [label="col.3:m1rem/Msun <= -0.61\ngini = 0.2\nsamples = 6\nvalue = [8, 1]\nclass = [", fillcolor="#e89152"] ;
359 -> 363 ;
364 [label="gini = 0.0\nsamples = 5\nvalue = [8, 0]\nclass = [", fillcolor="#e58139"] ;
363 -> 364 ;
365 [label="gini = 0.0\nsamples = 1\nvalue = [0, 1]\nclass = '", fillcolor="#399de5"] ;
363 -> 365 ;
366 [label="colExt1:ratio_m1_m2_ZAMS <= -0.69\ngini = 0.01\nsamples = 3866\nvalue = [25, 6033]\nclass = '", fillcolor="#3a9de5"] ;
358 -> 366 ;
367 [label="gini = 0.0\nsamples = 1\nvalue = [1, 0]\nclass = [", fillcolor="#e58139"] ;
366 -> 367 ;
368 [label="col.1:m1ZAMS/Msun <= -0.38\ngini = 0.01\nsamples = 3865\nvalue = [24, 6033]\nclass = '", fillcolor="#3a9de5"] ;
366 -> 368 ;
369 [label="col.2:m2ZAMS/Msun <= -0.66\ngini = 0.05\nsamples = 363\nvalue = [16, 567]\nclass = '", fillcolor="#3fa0e6"] ;
368 -> 369 ;
370 [label="col.2:m2ZAMS/Msun <= -0.82\ngini = 0.03\nsamples = 359\nvalue = [10, 567]\nclass = '", fillcolor="#3c9fe5"] ;
369 -> 370 ;
371 [label="gini = 0.0\nsamples = 283\nvalue = [0, 462]\nclass = '", fillcolor="#399de5"] ;
370 -> 371 ;
372 [label="col.8:ecc <= -0.42\ngini = 0.16\nsamples = 76\nvalue = [10, 105]\nclass = '", fillcolor="#4ca6e7"] ;
370 -> 372 ;
373 [label="gini = 0.0\nsamples = 68\nvalue = [0, 104]\nclass = '", fillcolor="#399de5"] ;
372 -> 373 ;
374 [label="alpha <= 0.95\ngini = 0.17\nsamples = 8\nvalue = [10, 1]\nclass = [", fillcolor="#e88e4d"] ;
372 -> 374 ;
375 [label="gini = 0.0\nsamples = 6\nvalue = [9, 0]\nclass = [", fillcolor="#e58139"] ;
374 -> 375 ;
376 [label="col.2:m2ZAMS/Msun <= -0.81\ngini = 0.5\nsamples = 2\nvalue = [1, 1]\nclass = [", fillcolor="#ffffff"] ;
374 -> 376 ;
377 [label="gini = 0.0\nsamples = 1\nvalue = [0, 1]\nclass = '", fillcolor="#399de5"] ;
376 -> 377 ;
378 [label="gini = 0.0\nsamples = 1\nvalue = [1, 0]\nclass = [", fillcolor="#e58139"] ;
376 -> 378 ;
379 [label="gini = 0.0\nsamples = 4\nvalue = [6, 0]\nclass = [", fillcolor="#e58139"] ;
369 -> 379 ;
380 [label="colExt1:ratio_m1_m2_ZAMS <= -0.51\ngini = 0.0\nsamples = 3502\nvalue = [8, 5466]\nclass = '", fillcolor="#399de5"] ;
368 -> 380 ;
381 [label="colExt2:ratio_m1_m2_rem <= 0.16\ngini = 0.12\nsamples = 18\nvalue = [2, 28]\nclass = '", fillcolor="#47a4e7"] ;
380 -> 381 ;
382 [label="col.3:m1rem/Msun <= 1.93\ngini = 0.07\nsamples = 17\nvalue = [1, 28]\nclass = '", fillcolor="#40a0e6"] ;
381 -> 382 ;
383 [label="gini = 0.0\nsamples = 15\nvalue = [0, 25]\nclass = '", fillcolor="#399de5"] ;
382 -> 383 ;
384 [label="col.2:m2ZAMS/Msun <= 2.45\ngini = 0.38\nsamples = 2\nvalue = [1, 3]\nclass = '", fillcolor="#7bbeee"] ;
382 -> 384 ;
385 [label="gini = 0.0\nsamples = 1\nvalue = [0, 3]\nclass = '", fillcolor="#399de5"] ;
384 -> 385 ;
386 [label="gini = 0.0\nsamples = 1\nvalue = [1, 0]\nclass = [", fillcolor="#e58139"] ;
384 -> 386 ;
387 [label="gini = 0.0\nsamples = 1\nvalue = [1, 0]\nclass = [", fillcolor="#e58139"] ;
381 -> 387 ;
388 [label="col.1:m1ZAMS/Msun <= 3.07\ngini = 0.0\nsamples = 3484\nvalue = [6, 5438]\nclass = '", fillcolor="#399de5"] ;
380 -> 388 ;
389 [label="col.1:m1ZAMS/Msun <= -0.36\ngini = 0.0\nsamples = 3444\nvalue = [4, 5382]\nclass = '", fillcolor="#399de5"] ;
388 -> 389 ;
390 [label="col.1:m1ZAMS/Msun <= -0.36\ngini = 0.03\nsamples = 48\nvalue = [1, 76]\nclass = '", fillcolor="#3c9ee5"] ;
389 -> 390 ;
391 [label="gini = 0.0\nsamples = 47\nvalue = [0, 76]\nclass = '", fillcolor="#399de5"] ;
390 -> 391 ;
392 [label="gini = 0.0\nsamples = 1\nvalue = [1, 0]\nclass = [", fillcolor="#e58139"] ;
390 -> 392 ;
393 [label="colExt1:ratio_m1_m2_ZAMS <= 1.91\ngini = 0.0\nsamples = 3396\nvalue = [3, 5306]\nclass = '", fillcolor="#399de5"] ;
389 -> 393 ;
394 [label="col.1:m1ZAMS/Msun <= 2.68\ngini = 0.0\nsamples = 3322\nvalue = [2, 5191]\nclass = '", fillcolor="#399de5"] ;
393 -> 394 ;
395 [label="col.7:sma/Rsun <= -0.01\ngini = 0.0\nsamples = 3242\nvalue = [1, 5073]\nclass = '", fillcolor="#399de5"] ;
394 -> 395 ;
396 [label="col.7:sma/Rsun <= -0.01\ngini = 0.0\nsamples = 497\nvalue = [1, 762]\nclass = '", fillcolor="#399de5"] ;
395 -> 396 ;
397 [label="gini = 0.0\nsamples = 496\nvalue = [0, 762]\nclass = '", fillcolor="#399de5"] ;
396 -> 397 ;
398 [label="gini = 0.0\nsamples = 1\nvalue = [1, 0]\nclass = [", fillcolor="#e58139"] ;
396 -> 398 ;
399 [label="gini = 0.0\nsamples = 2745\nvalue = [0, 4311]\nclass = '", fillcolor="#399de5"] ;
395 -> 399 ;
400 [label="colExt1:ratio_m1_m2_ZAMS <= 1.53\ngini = 0.02\nsamples = 80\nvalue = [1, 118]\nclass = '", fillcolor="#3b9ee5"] ;
394 -> 400 ;
401 [label="gini = 0.0\nsamples = 70\nvalue = [0, 108]\nclass = '", fillcolor="#399de5"] ;
400 -> 401 ;
402 [label="col.7:sma/Rsun <= -0.01\ngini = 0.17\nsamples = 10\nvalue = [1, 10]\nclass = '", fillcolor="#4da7e8"] ;
400 -> 402 ;
403 [label="gini = 0.0\nsamples = 1\nvalue = [1, 0]\nclass = [", fillcolor="#e58139"] ;
402 -> 403 ;
404 [label="gini = 0.0\nsamples = 9\nvalue = [0, 10]\nclass = '", fillcolor="#399de5"] ;
402 -> 404 ;
405 [label="col.6:delay_time/Myr <= 2.38\ngini = 0.02\nsamples = 74\nvalue = [1, 115]\nclass = '", fillcolor="#3b9ee5"] ;
393 -> 405 ;
406 [label="gini = 0.0\nsamples = 63\nvalue = [0, 99]\nclass = '", fillcolor="#399de5"] ;
405 -> 406 ;
407 [label="colExt1:ratio_m1_m2_ZAMS <= 1.94\ngini = 0.11\nsamples = 11\nvalue = [1, 16]\nclass = '", fillcolor="#45a3e7"] ;
405 -> 407 ;
408 [label="gini = 0.0\nsamples = 1\nvalue = [1, 0]\nclass = [", fillcolor="#e58139"] ;
407 -> 408 ;
409 [label="gini = 0.0\nsamples = 10\nvalue = [0, 16]\nclass = '", fillcolor="#399de5"] ;
407 -> 409 ;
410 [label="col.1:m1ZAMS/Msun <= 3.07\ngini = 0.07\nsamples = 40\nvalue = [2, 56]\nclass = '", fillcolor="#40a0e6"] ;
388 -> 410 ;
411 [label="gini = 0.0\nsamples = 1\nvalue = [2, 0]\nclass = [", fillcolor="#e58139"] ;
410 -> 411 ;
412 [label="gini = 0.0\nsamples = 39\nvalue = [0, 56]\nclass = '", fillcolor="#399de5"] ;
410 -> 412 ;
413 [label="col.2:m2ZAMS/Msun <= 0.5\ngini = 0.48\nsamples = 45\nvalue = [30, 43]\nclass = '", fillcolor="#c3e1f7"] ;
249 -> 413 ;
414 [label="gini = 0.0\nsamples = 19\nvalue = [0, 37]\nclass = '", fillcolor="#399de5"] ;
413 -> 414 ;
415 [label="metallicity <= 0.67\ngini = 0.28\nsamples = 26\nvalue = [30, 6]\nclass = [", fillcolor="#ea9a61"] ;
413 -> 415 ;
416 [label="col.7:sma/Rsun <= -0.0\ngini = 0.17\nsamples = 23\nvalue = [30, 3]\nclass = [", fillcolor="#e88e4d"] ;
415 -> 416 ;
417 [label="colExt1:ratio_m1_m2_ZAMS <= 0.79\ngini = 0.48\nsamples = 4\nvalue = [2, 3]\nclass = '", fillcolor="#bddef6"] ;
416 -> 417 ;
418 [label="gini = 0.0\nsamples = 2\nvalue = [2, 0]\nclass = [", fillcolor="#e58139"] ;
417 -> 418 ;
419 [label="gini = 0.0\nsamples = 2\nvalue = [0, 3]\nclass = '", fillcolor="#399de5"] ;
417 -> 419 ;
420 [label="gini = 0.0\nsamples = 19\nvalue = [28, 0]\nclass = [", fillcolor="#e58139"] ;
416 -> 420 ;
421 [label="gini = 0.0\nsamples = 3\nvalue = [0, 3]\nclass = '", fillcolor="#399de5"] ;
415 -> 421 ;
422 [label="colExt2:ratio_m1_m2_rem <= 0.1\ngini = 0.37\nsamples = 517\nvalue = [653, 213]\nclass = [", fillcolor="#edaa7a"] ;
116 -> 422 ;
423 [label="col.7:sma/Rsun <= 0.85\ngini = 0.07\nsamples = 173\nvalue = [287, 11]\nclass = [", fillcolor="#e68641"] ;
422 -> 423 ;
424 [label="col.3:m1rem/Msun <= 1.96\ngini = 0.05\nsamples = 172\nvalue = [287, 7]\nclass = [", fillcolor="#e6843e"] ;
423 -> 424 ;
425 [label="gini = 0.0\nsamples = 136\nvalue = [237, 0]\nclass = [", fillcolor="#e58139"] ;
424 -> 425 ;
426 [label="alpha <= -0.21\ngini = 0.22\nsamples = 36\nvalue = [50, 7]\nclass = [", fillcolor="#e99355"] ;
424 -> 426 ;
427 [label="colExt1:ratio_m1_m2_ZAMS <= -0.67\ngini = 0.11\nsamples = 33\nvalue = [48, 3]\nclass = [", fillcolor="#e78945"] ;
426 -> 427 ;
428 [label="gini = 0.0\nsamples = 31\nvalue = [48, 0]\nclass = [", fillcolor="#e58139"] ;
427 -> 428 ;
429 [label="gini = 0.0\nsamples = 2\nvalue = [0, 3]\nclass = '", fillcolor="#399de5"] ;
427 -> 429 ;
430 [label="colExt2:ratio_m1_m2_rem <= 0.04\ngini = 0.44\nsamples = 3\nvalue = [2, 4]\nclass = '", fillcolor="#9ccef2"] ;
426 -> 430 ;
431 [label="gini = 0.0\nsamples = 1\nvalue = [2, 0]\nclass = [", fillcolor="#e58139"] ;
430 -> 431 ;
432 [label="gini = 0.0\nsamples = 2\nvalue = [0, 4]\nclass = '", fillcolor="#399de5"] ;
430 -> 432 ;
433 [label="gini = 0.0\nsamples = 1\nvalue = [0, 4]\nclass = '", fillcolor="#399de5"] ;
423 -> 433 ;
434 [label="col.1:m1ZAMS/Msun <= -0.63\ngini = 0.46\nsamples = 344\nvalue = [366, 202]\nclass = [", fillcolor="#f3c7a6"] ;
422 -> 434 ;
435 [label="col.3:m1rem/Msun <= -0.16\ngini = 0.09\nsamples = 122\nvalue = [192, 10]\nclass = [", fillcolor="#e68843"] ;
434 -> 435 ;
436 [label="alpha <= -0.94\ngini = 0.01\nsamples = 118\nvalue = [192, 1]\nclass = [", fillcolor="#e5823a"] ;
435 -> 436 ;
437 [label="metallicity <= -0.23\ngini = 0.11\nsamples = 10\nvalue = [16, 1]\nclass = [", fillcolor="#e78945"] ;
436 -> 437 ;
438 [label="colExt1:ratio_m1_m2_ZAMS <= -0.02\ngini = 0.5\nsamples = 2\nvalue = [1, 1]\nclass = [", fillcolor="#ffffff"] ;
437 -> 438 ;
439 [label="gini = 0.0\nsamples = 1\nvalue = [1, 0]\nclass = [", fillcolor="#e58139"] ;
438 -> 439 ;
440 [label="gini = 0.0\nsamples = 1\nvalue = [0, 1]\nclass = '", fillcolor="#399de5"] ;
438 -> 440 ;
441 [label="gini = 0.0\nsamples = 8\nvalue = [15, 0]\nclass = [", fillcolor="#e58139"] ;
437 -> 441 ;
442 [label="gini = 0.0\nsamples = 108\nvalue = [176, 0]\nclass = [", fillcolor="#e58139"] ;
436 -> 442 ;
443 [label="gini = 0.0\nsamples = 4\nvalue = [0, 9]\nclass = '", fillcolor="#399de5"] ;
435 -> 443 ;
444 [label="colExt1:ratio_m1_m2_ZAMS <= -0.55\ngini = 0.5\nsamples = 222\nvalue = [174, 192]\nclass = '", fillcolor="#ecf6fd"] ;
434 -> 444 ;
445 [label="col.3:m1rem/Msun <= 2.38\ngini = 0.08\nsamples = 95\nvalue = [139, 6]\nclass = [", fillcolor="#e68642"] ;
444 -> 445 ;
446 [label="col.7:sma/Rsun <= 4.09\ngini = 0.05\nsamples = 93\nvalue = [138, 4]\nclass = [", fillcolor="#e6853f"] ;
445 -> 446 ;
447 [label="col.2:m2ZAMS/Msun <= 3.59\ngini = 0.04\nsamples = 92\nvalue = [138, 3]\nclass = [", fillcolor="#e6843d"] ;
446 -> 447 ;
448 [label="col.3:m1rem/Msun <= 2.33\ngini = 0.19\nsamples = 23\nvalue = [26, 3]\nclass = [", fillcolor="#e89050"] ;
447 -> 448 ;
449 [label="gini = 0.0\nsamples = 21\nvalue = [26, 0]\nclass = [", fillcolor="#e58139"] ;
448 -> 449 ;
450 [label="gini = 0.0\nsamples = 2\nvalue = [0, 3]\nclass = '", fillcolor="#399de5"] ;
448 -> 450 ;
451 [label="gini = 0.0\nsamples = 69\nvalue = [112, 0]\nclass = [", fillcolor="#e58139"] ;
447 -> 451 ;
452 [label="gini = 0.0\nsamples = 1\nvalue = [0, 1]\nclass = '", fillcolor="#399de5"] ;
446 -> 452 ;
453 [label="colExt2:ratio_m1_m2_rem <= 0.25\ngini = 0.44\nsamples = 2\nvalue = [1, 2]\nclass = '", fillcolor="#9ccef2"] ;
445 -> 453 ;
454 [label="gini = 0.0\nsamples = 1\nvalue = [0, 2]\nclass = '", fillcolor="#399de5"] ;
453 -> 454 ;
455 [label="gini = 0.0\nsamples = 1\nvalue = [1, 0]\nclass = [", fillcolor="#e58139"] ;
453 -> 455 ;
456 [label="col.8:ecc <= 0.69\ngini = 0.27\nsamples = 127\nvalue = [35, 186]\nclass = '", fillcolor="#5eafea"] ;
444 -> 456 ;
457 [label="colExt2:ratio_m1_m2_rem <= 10.63\ngini = 0.19\nsamples = 115\nvalue = [21, 181]\nclass = '", fillcolor="#50a8e8"] ;
456 -> 457 ;
458 [label="col.8:ecc <= 0.47\ngini = 0.13\nsamples = 110\nvalue = [13, 181]\nclass = '", fillcolor="#47a4e7"] ;
457 -> 458 ;
459 [label="col.3:m1rem/Msun <= -0.78\ngini = 0.1\nsamples = 104\nvalue = [9, 170]\nclass = '", fillcolor="#43a2e6"] ;
458 -> 459 ;
460 [label="gini = 0.0\nsamples = 2\nvalue = [2, 0]\nclass = [", fillcolor="#e58139"] ;
459 -> 460 ;
461 [label="colExt1:ratio_m1_m2_ZAMS <= -0.46\ngini = 0.08\nsamples = 102\nvalue = [7, 170]\nclass = '", fillcolor="#41a1e6"] ;
459 -> 461 ;
462 [label="col.8:ecc <= 0.08\ngini = 0.39\nsamples = 12\nvalue = [5, 14]\nclass = '", fillcolor="#80c0ee"] ;
461 -> 462 ;
463 [label="gini = 0.0\nsamples = 3\nvalue = [4, 0]\nclass = [", fillcolor="#e58139"] ;
462 -> 463 ;
464 [label="col.1:m1ZAMS/Msun <= 2.7\ngini = 0.12\nsamples = 9\nvalue = [1, 14]\nclass = '", fillcolor="#47a4e7"] ;
462 -> 464 ;
465 [label="col.3:m1rem/Msun <= 2.25\ngini = 0.32\nsamples = 3\nvalue = [1, 4]\nclass = '", fillcolor="#6ab6ec"] ;
464 -> 465 ;
466 [label="gini = 0.0\nsamples = 2\nvalue = [0, 4]\nclass = '", fillcolor="#399de5"] ;
465 -> 466 ;
467 [label="gini = 0.0\nsamples = 1\nvalue = [1, 0]\nclass = [", fillcolor="#e58139"] ;
465 -> 467 ;
468 [label="gini = 0.0\nsamples = 6\nvalue = [0, 10]\nclass = '", fillcolor="#399de5"] ;
464 -> 468 ;
469 [label="colExt2:ratio_m1_m2_rem <= 1.1\ngini = 0.02\nsamples = 90\nvalue = [2, 156]\nclass = '", fillcolor="#3c9ee5"] ;
461 -> 469 ;
470 [label="colExt1:ratio_m1_m2_ZAMS <= -0.4\ngini = 0.01\nsamples = 81\nvalue = [1, 140]\nclass = '", fillcolor="#3a9ee5"] ;
469 -> 470 ;
471 [label="col.4:m2rem/Msun <= 2.08\ngini = 0.1\nsamples = 10\nvalue = [1, 17]\nclass = '", fillcolor="#45a3e7"] ;
470 -> 471 ;
472 [label="gini = 0.0\nsamples = 1\nvalue = [1, 0]\nclass = [", fillcolor="#e58139"] ;
471 -> 472 ;
473 [label="gini = 0.0\nsamples = 9\nvalue = [0, 17]\nclass = '", fillcolor="#399de5"] ;
471 -> 473 ;
474 [label="gini = 0.0\nsamples = 71\nvalue = [0, 123]\nclass = '", fillcolor="#399de5"] ;
470 -> 474 ;
475 [label="colExt2:ratio_m1_m2_rem <= 1.14\ngini = 0.11\nsamples = 9\nvalue = [1, 16]\nclass = '", fillcolor="#45a3e7"] ;
469 -> 475 ;
476 [label="gini = 0.0\nsamples = 1\nvalue = [1, 0]\nclass = [", fillcolor="#e58139"] ;
475 -> 476 ;
477 [label="gini = 0.0\nsamples = 8\nvalue = [0, 16]\nclass = '", fillcolor="#399de5"] ;
475 -> 477 ;
478 [label="colExt1:ratio_m1_m2_ZAMS <= 1.49\ngini = 0.39\nsamples = 6\nvalue = [4, 11]\nclass = '", fillcolor="#81c1ee"] ;
458 -> 478 ;
479 [label="gini = 0.0\nsamples = 1\nvalue = [4, 0]\nclass = [", fillcolor="#e58139"] ;
478 -> 479 ;
480 [label="gini = 0.0\nsamples = 5\nvalue = [0, 11]\nclass = '", fillcolor="#399de5"] ;
478 -> 480 ;
481 [label="gini = 0.0\nsamples = 5\nvalue = [8, 0]\nclass = [", fillcolor="#e58139"] ;
457 -> 481 ;
482 [label="col.2:m2ZAMS/Msun <= -1.08\ngini = 0.39\nsamples = 12\nvalue = [14, 5]\nclass = [", fillcolor="#eeae80"] ;
456 -> 482 ;
483 [label="gini = 0.0\nsamples = 2\nvalue = [0, 4]\nclass = '", fillcolor="#399de5"] ;
482 -> 483 ;
484 [label="metallicity <= -0.68\ngini = 0.12\nsamples = 10\nvalue = [14, 1]\nclass = [", fillcolor="#e78a47"] ;
482 -> 484 ;
485 [label="gini = 0.0\nsamples = 1\nvalue = [0, 1]\nclass = '", fillcolor="#399de5"] ;
484 -> 485 ;
486 [label="gini = 0.0\nsamples = 9\nvalue = [14, 0]\nclass = [", fillcolor="#e58139"] ;
484 -> 486 ;
}