digraph Tree {
node [shape=box, style="filled, rounded", color="black", fontname="helvetica"] ;
edge [fontname="helvetica"] ;
0 [label="colExt1:ratio_m1_m2_ZAMS <= 1.62\ngini = 0.5\nsamples = 12689\nvalue = [10093, 9907]\nclass = CE", fillcolor="#fffdfb"] ;
1 [label="col.4:m2rem/Msun <= 32.95\ngini = 0.08\nsamples = 4207\nvalue = [6382, 265]\nclass = CE", fillcolor="#e68641"] ;
0 -> 1 [labeldistance=2.5, labelangle=45, headlabel="True"] ;
2 [label="col.1:m1ZAMS/Msun <= 63.24\ngini = 0.01\nsamples = 3489\nvalue = [5439, 30]\nclass = CE", fillcolor="#e5823a"] ;
1 -> 2 ;
3 [label="colExt2:ratio_m1_m2_rem <= 2.04\ngini = 0.0\nsamples = 3325\nvalue = [5192, 8]\nclass = CE", fillcolor="#e58139"] ;
2 -> 3 ;
4 [label="col.3:m1rem/Msun <= 24.36\ngini = 0.0\nsamples = 3276\nvalue = [5126, 2]\nclass = CE", fillcolor="#e58139"] ;
3 -> 4 ;
5 [label="gini = 0.0\nsamples = 3256\nvalue = [5098, 0]\nclass = CE", fillcolor="#e58139"] ;
4 -> 5 ;
6 [label="col.2:m2ZAMS/Msun <= 38.91\ngini = 0.12\nsamples = 20\nvalue = [28, 2]\nclass = CE", fillcolor="#e78a47"] ;
4 -> 6 ;
7 [label="gini = 0.0\nsamples = 1\nvalue = [0, 2]\nclass = SMT", fillcolor="#399de5"] ;
6 -> 7 ;
8 [label="gini = 0.0\nsamples = 19\nvalue = [28, 0]\nclass = CE", fillcolor="#e58139"] ;
6 -> 8 ;
9 [label="colExt2:ratio_m1_m2_rem <= 2.07\ngini = 0.15\nsamples = 49\nvalue = [66, 6]\nclass = CE", fillcolor="#e78c4b"] ;
3 -> 9 ;
10 [label="col.6:delay_time/Myr <= 6349.17\ngini = 0.38\nsamples = 3\nvalue = [1, 3]\nclass = SMT", fillcolor="#7bbeee"] ;
9 -> 10 ;
11 [label="gini = 0.0\nsamples = 1\nvalue = [1, 0]\nclass = CE", fillcolor="#e58139"] ;
10 -> 11 ;
12 [label="gini = 0.0\nsamples = 2\nvalue = [0, 3]\nclass = SMT", fillcolor="#399de5"] ;
10 -> 12 ;
13 [label="col.7:sma/Rsun <= 210.97\ngini = 0.08\nsamples = 46\nvalue = [65, 3]\nclass = CE", fillcolor="#e68742"] ;
9 -> 13 ;
14 [label="gini = 0.0\nsamples = 44\nvalue = [65, 0]\nclass = CE", fillcolor="#e58139"] ;
13 -> 14 ;
15 [label="gini = 0.0\nsamples = 2\nvalue = [0, 3]\nclass = SMT", fillcolor="#399de5"] ;
13 -> 15 ;
16 [label="col.1:m1ZAMS/Msun <= 63.27\ngini = 0.15\nsamples = 164\nvalue = [247, 22]\nclass = CE", fillcolor="#e78c4b"] ;
2 -> 16 ;
17 [label="gini = 0.0\nsamples = 1\nvalue = [0, 2]\nclass = SMT", fillcolor="#399de5"] ;
16 -> 17 ;
18 [label="colExt1:ratio_m1_m2_ZAMS <= 1.55\ngini = 0.14\nsamples = 163\nvalue = [247, 20]\nclass = CE", fillcolor="#e78b49"] ;
16 -> 18 ;
19 [label="gini = 0.0\nsamples = 132\nvalue = [221, 0]\nclass = CE", fillcolor="#e58139"] ;
18 -> 19 ;
20 [label="col.7:sma/Rsun <= 26.3\ngini = 0.49\nsamples = 31\nvalue = [26, 20]\nclass = CE", fillcolor="#f9e2d1"] ;
18 -> 20 ;
21 [label="col.3:m1rem/Msun <= 25.53\ngini = 0.23\nsamples = 17\nvalue = [20, 3]\nclass = CE", fillcolor="#e99457"] ;
20 -> 21 ;
22 [label="gini = 0.0\nsamples = 13\nvalue = [19, 0]\nclass = CE", fillcolor="#e58139"] ;
21 -> 22 ;
23 [label="colExt1:ratio_m1_m2_ZAMS <= 1.57\ngini = 0.38\nsamples = 4\nvalue = [1, 3]\nclass = SMT", fillcolor="#7bbeee"] ;
21 -> 23 ;
24 [label="gini = 0.0\nsamples = 1\nvalue = [1, 0]\nclass = CE", fillcolor="#e58139"] ;
23 -> 24 ;
25 [label="gini = 0.0\nsamples = 3\nvalue = [0, 3]\nclass = SMT", fillcolor="#399de5"] ;
23 -> 25 ;
26 [label="col.4:m2rem/Msun <= 30.13\ngini = 0.39\nsamples = 14\nvalue = [6, 17]\nclass = SMT", fillcolor="#7fc0ee"] ;
20 -> 26 ;
27 [label="gini = 0.0\nsamples = 4\nvalue = [6, 0]\nclass = CE", fillcolor="#e58139"] ;
26 -> 27 ;
28 [label="gini = 0.0\nsamples = 10\nvalue = [0, 17]\nclass = SMT", fillcolor="#399de5"] ;
26 -> 28 ;
29 [label="col.7:sma/Rsun <= 27.25\ngini = 0.32\nsamples = 718\nvalue = [943, 235]\nclass = CE", fillcolor="#eba06a"] ;
1 -> 29 ;
30 [label="col.7:sma/Rsun <= 21.76\ngini = 0.04\nsamples = 358\nvalue = [594, 13]\nclass = CE", fillcolor="#e6843d"] ;
29 -> 30 ;
31 [label="gini = 0.0\nsamples = 274\nvalue = [458, 0]\nclass = CE", fillcolor="#e58139"] ;
30 -> 31 ;
32 [label="col.7:sma/Rsun <= 21.87\ngini = 0.16\nsamples = 84\nvalue = [136, 13]\nclass = CE", fillcolor="#e78d4c"] ;
30 -> 32 ;
33 [label="gini = 0.0\nsamples = 2\nvalue = [0, 2]\nclass = SMT", fillcolor="#399de5"] ;
32 -> 33 ;
34 [label="col.8:ecc <= 0.04\ngini = 0.14\nsamples = 82\nvalue = [136, 11]\nclass = CE", fillcolor="#e78b49"] ;
32 -> 34 ;
35 [label="colExt1:ratio_m1_m2_ZAMS <= 1.52\ngini = 0.36\nsamples = 29\nvalue = [35, 11]\nclass = CE", fillcolor="#eda977"] ;
34 -> 35 ;
36 [label="gini = 0.0\nsamples = 19\nvalue = [35, 0]\nclass = CE", fillcolor="#e58139"] ;
35 -> 36 ;
37 [label="gini = 0.0\nsamples = 10\nvalue = [0, 11]\nclass = SMT", fillcolor="#399de5"] ;
35 -> 37 ;
38 [label="gini = 0.0\nsamples = 53\nvalue = [101, 0]\nclass = CE", fillcolor="#e58139"] ;
34 -> 38 ;
39 [label="col.2:m2ZAMS/Msun <= 64.26\ngini = 0.48\nsamples = 360\nvalue = [349, 222]\nclass = CE", fillcolor="#f6d1b7"] ;
29 -> 39 ;
40 [label="col.3:m1rem/Msun <= 27.35\ngini = 0.48\nsamples = 237\nvalue = [155, 220]\nclass = SMT", fillcolor="#c4e2f7"] ;
39 -> 40 ;
41 [label="gini = 0.0\nsamples = 57\nvalue = [98, 0]\nclass = CE", fillcolor="#e58139"] ;
40 -> 41 ;
42 [label="alpha <= 2.0\ngini = 0.33\nsamples = 180\nvalue = [57, 220]\nclass = SMT", fillcolor="#6cb6ec"] ;
40 -> 42 ;
43 [label="colExt1:ratio_m1_m2_ZAMS <= 1.51\ngini = 0.1\nsamples = 76\nvalue = [6, 110]\nclass = SMT", fillcolor="#44a2e6"] ;
42 -> 43 ;
44 [label="gini = 0.0\nsamples = 4\nvalue = [5, 0]\nclass = CE", fillcolor="#e58139"] ;
43 -> 44 ;
45 [label="col.3:m1rem/Msun <= 28.81\ngini = 0.02\nsamples = 72\nvalue = [1, 110]\nclass = SMT", fillcolor="#3b9ee5"] ;
43 -> 45 ;
46 [label="col.1:m1ZAMS/Msun <= 73.44\ngini = 0.1\nsamples = 11\nvalue = [1, 18]\nclass = SMT", fillcolor="#44a2e6"] ;
45 -> 46 ;
47 [label="gini = 0.0\nsamples = 10\nvalue = [0, 18]\nclass = SMT", fillcolor="#399de5"] ;
46 -> 47 ;
48 [label="gini = 0.0\nsamples = 1\nvalue = [1, 0]\nclass = CE", fillcolor="#e58139"] ;
46 -> 48 ;
49 [label="gini = 0.0\nsamples = 61\nvalue = [0, 92]\nclass = SMT", fillcolor="#399de5"] ;
45 -> 49 ;
50 [label="col.6:delay_time/Myr <= 3295.21\ngini = 0.43\nsamples = 104\nvalue = [51, 110]\nclass = SMT", fillcolor="#95caf1"] ;
42 -> 50 ;
51 [label="colExt2:ratio_m1_m2_rem <= 0.82\ngini = 0.16\nsamples = 38\nvalue = [6, 64]\nclass = SMT", fillcolor="#4ca6e7"] ;
50 -> 51 ;
52 [label="gini = 0.0\nsamples = 4\nvalue = [6, 0]\nclass = CE", fillcolor="#e58139"] ;
51 -> 52 ;
53 [label="gini = 0.0\nsamples = 34\nvalue = [0, 64]\nclass = SMT", fillcolor="#399de5"] ;
51 -> 53 ;
54 [label="colExt2:ratio_m1_m2_rem <= 0.85\ngini = 0.5\nsamples = 66\nvalue = [45, 46]\nclass = SMT", fillcolor="#fbfdfe"] ;
50 -> 54 ;
55 [label="colExt1:ratio_m1_m2_ZAMS <= 1.54\ngini = 0.05\nsamples = 24\nvalue = [35, 1]\nclass = CE", fillcolor="#e6853f"] ;
54 -> 55 ;
56 [label="gini = 0.0\nsamples = 22\nvalue = [33, 0]\nclass = CE", fillcolor="#e58139"] ;
55 -> 56 ;
57 [label="col.4:m2rem/Msun <= 34.02\ngini = 0.44\nsamples = 2\nvalue = [2, 1]\nclass = CE", fillcolor="#f2c09c"] ;
55 -> 57 ;
58 [label="gini = 0.0\nsamples = 1\nvalue = [0, 1]\nclass = SMT", fillcolor="#399de5"] ;
57 -> 58 ;
59 [label="gini = 0.0\nsamples = 1\nvalue = [2, 0]\nclass = CE", fillcolor="#e58139"] ;
57 -> 59 ;
60 [label="colExt1:ratio_m1_m2_ZAMS <= 1.51\ngini = 0.3\nsamples = 42\nvalue = [10, 45]\nclass = SMT", fillcolor="#65b3eb"] ;
54 -> 60 ;
61 [label="gini = 0.0\nsamples = 5\nvalue = [8, 0]\nclass = CE", fillcolor="#e58139"] ;
60 -> 61 ;
62 [label="col.6:delay_time/Myr <= 12721.24\ngini = 0.08\nsamples = 37\nvalue = [2, 45]\nclass = SMT", fillcolor="#42a1e6"] ;
60 -> 62 ;
63 [label="col.3:m1rem/Msun <= 37.3\ngini = 0.04\nsamples = 36\nvalue = [1, 45]\nclass = SMT", fillcolor="#3d9fe6"] ;
62 -> 63 ;
64 [label="gini = 0.0\nsamples = 34\nvalue = [0, 44]\nclass = SMT", fillcolor="#399de5"] ;
63 -> 64 ;
65 [label="colExt1:ratio_m1_m2_ZAMS <= 1.59\ngini = 0.5\nsamples = 2\nvalue = [1, 1]\nclass = CE", fillcolor="#ffffff"] ;
63 -> 65 ;
66 [label="gini = 0.0\nsamples = 1\nvalue = [1, 0]\nclass = CE", fillcolor="#e58139"] ;
65 -> 66 ;
67 [label="gini = 0.0\nsamples = 1\nvalue = [0, 1]\nclass = SMT", fillcolor="#399de5"] ;
65 -> 67 ;
68 [label="gini = 0.0\nsamples = 1\nvalue = [1, 0]\nclass = CE", fillcolor="#e58139"] ;
62 -> 68 ;
69 [label="col.4:m2rem/Msun <= 39.3\ngini = 0.02\nsamples = 123\nvalue = [194, 2]\nclass = CE", fillcolor="#e5823b"] ;
39 -> 69 ;
70 [label="colExt1:ratio_m1_m2_ZAMS <= 1.35\ngini = 0.28\nsamples = 8\nvalue = [10, 2]\nclass = CE", fillcolor="#ea9a61"] ;
69 -> 70 ;
71 [label="gini = 0.0\nsamples = 6\nvalue = [10, 0]\nclass = CE", fillcolor="#e58139"] ;
70 -> 71 ;
72 [label="gini = 0.0\nsamples = 2\nvalue = [0, 2]\nclass = SMT", fillcolor="#399de5"] ;
70 -> 72 ;
73 [label="gini = 0.0\nsamples = 115\nvalue = [184, 0]\nclass = CE", fillcolor="#e58139"] ;
69 -> 73 ;
74 [label="col.7:sma/Rsun <= 13.58\ngini = 0.4\nsamples = 8482\nvalue = [3711, 9642]\nclass = SMT", fillcolor="#85c3ef"] ;
0 -> 74 [labeldistance=2.5, labelangle=-45, headlabel="False"] ;
75 [label="col.4:m2rem/Msun <= 12.59\ngini = 0.22\nsamples = 1903\nvalue = [2636, 371]\nclass = CE", fillcolor="#e99355"] ;
74 -> 75 ;
76 [label="col.8:ecc <= 0.05\ngini = 0.01\nsamples = 1094\nvalue = [1712, 11]\nclass = CE", fillcolor="#e5823a"] ;
75 -> 76 ;
77 [label="col.7:sma/Rsun <= 9.28\ngini = 0.49\nsamples = 11\nvalue = [9, 7]\nclass = CE", fillcolor="#f9e3d3"] ;
76 -> 77 ;
78 [label="gini = 0.0\nsamples = 5\nvalue = [7, 0]\nclass = CE", fillcolor="#e58139"] ;
77 -> 78 ;
79 [label="colExt2:ratio_m1_m2_rem <= 1.03\ngini = 0.35\nsamples = 6\nvalue = [2, 7]\nclass = SMT", fillcolor="#72b9ec"] ;
77 -> 79 ;
80 [label="gini = 0.0\nsamples = 2\nvalue = [2, 0]\nclass = CE", fillcolor="#e58139"] ;
79 -> 80 ;
81 [label="gini = 0.0\nsamples = 4\nvalue = [0, 7]\nclass = SMT", fillcolor="#399de5"] ;
79 -> 81 ;
82 [label="col.6:delay_time/Myr <= 597.22\ngini = 0.0\nsamples = 1083\nvalue = [1703, 4]\nclass = CE", fillcolor="#e58139"] ;
76 -> 82 ;
83 [label="gini = 0.0\nsamples = 580\nvalue = [902, 0]\nclass = CE", fillcolor="#e58139"] ;
82 -> 83 ;
84 [label="col.6:delay_time/Myr <= 597.68\ngini = 0.01\nsamples = 503\nvalue = [801, 4]\nclass = CE", fillcolor="#e5823a"] ;
82 -> 84 ;
85 [label="gini = 0.0\nsamples = 1\nvalue = [0, 1]\nclass = SMT", fillcolor="#399de5"] ;
84 -> 85 ;
86 [label="col.4:m2rem/Msun <= 11.64\ngini = 0.01\nsamples = 502\nvalue = [801, 3]\nclass = CE", fillcolor="#e5813a"] ;
84 -> 86 ;
87 [label="gini = 0.0\nsamples = 489\nvalue = [785, 0]\nclass = CE", fillcolor="#e58139"] ;
86 -> 87 ;
88 [label="col.1:m1ZAMS/Msun <= 42.21\ngini = 0.27\nsamples = 13\nvalue = [16, 3]\nclass = CE", fillcolor="#ea995e"] ;
86 -> 88 ;
89 [label="colExt1:ratio_m1_m2_ZAMS <= 2.82\ngini = 0.11\nsamples = 11\nvalue = [16, 1]\nclass = CE", fillcolor="#e78945"] ;
88 -> 89 ;
90 [label="gini = 0.0\nsamples = 10\nvalue = [16, 0]\nclass = CE", fillcolor="#e58139"] ;
89 -> 90 ;
91 [label="gini = 0.0\nsamples = 1\nvalue = [0, 1]\nclass = SMT", fillcolor="#399de5"] ;
89 -> 91 ;
92 [label="gini = 0.0\nsamples = 2\nvalue = [0, 2]\nclass = SMT", fillcolor="#399de5"] ;
88 -> 92 ;
93 [label="col.1:m1ZAMS/Msun <= 57.73\ngini = 0.4\nsamples = 809\nvalue = [924, 360]\nclass = CE", fillcolor="#efb286"] ;
75 -> 93 ;
94 [label="colExt2:ratio_m1_m2_rem <= 0.99\ngini = 0.3\nsamples = 674\nvalue = [874, 196]\nclass = CE", fillcolor="#eb9d65"] ;
93 -> 94 ;
95 [label="colExt1:ratio_m1_m2_ZAMS <= 2.37\ngini = 0.18\nsamples = 595\nvalue = [855, 96]\nclass = CE", fillcolor="#e88f4f"] ;
94 -> 95 ;
96 [label="col.8:ecc <= 0.01\ngini = 0.02\nsamples = 511\nvalue = [803, 8]\nclass = CE", fillcolor="#e5823b"] ;
95 -> 96 ;
97 [label="colExt1:ratio_m1_m2_ZAMS <= 2.27\ngini = 0.08\nsamples = 134\nvalue = [194, 8]\nclass = CE", fillcolor="#e68641"] ;
96 -> 97 ;
98 [label="gini = 0.0\nsamples = 130\nvalue = [194, 0]\nclass = CE", fillcolor="#e58139"] ;
97 -> 98 ;
99 [label="gini = 0.0\nsamples = 4\nvalue = [0, 8]\nclass = SMT", fillcolor="#399de5"] ;
97 -> 99 ;
100 [label="gini = 0.0\nsamples = 377\nvalue = [609, 0]\nclass = CE", fillcolor="#e58139"] ;
96 -> 100 ;
101 [label="col.2:m2ZAMS/Msun <= 17.97\ngini = 0.47\nsamples = 84\nvalue = [52, 88]\nclass = SMT", fillcolor="#aed7f4"] ;
95 -> 101 ;
102 [label="colExt1:ratio_m1_m2_ZAMS <= 2.54\ngini = 0.46\nsamples = 32\nvalue = [34, 19]\nclass = CE", fillcolor="#f4c7a8"] ;
101 -> 102 ;
103 [label="gini = 0.0\nsamples = 10\nvalue = [19, 0]\nclass = CE", fillcolor="#e58139"] ;
102 -> 103 ;
104 [label="col.7:sma/Rsun <= 8.15\ngini = 0.49\nsamples = 22\nvalue = [15, 19]\nclass = SMT", fillcolor="#d5eafa"] ;
102 -> 104 ;
105 [label="gini = 0.0\nsamples = 6\nvalue = [12, 0]\nclass = CE", fillcolor="#e58139"] ;
104 -> 105 ;
106 [label="col.7:sma/Rsun <= 11.97\ngini = 0.24\nsamples = 16\nvalue = [3, 19]\nclass = SMT", fillcolor="#58ace9"] ;
104 -> 106 ;
107 [label="gini = 0.0\nsamples = 13\nvalue = [0, 17]\nclass = SMT", fillcolor="#399de5"] ;
106 -> 107 ;
108 [label="metallicity <= 0.0\ngini = 0.48\nsamples = 3\nvalue = [3, 2]\nclass = CE", fillcolor="#f6d5bd"] ;
106 -> 108 ;
109 [label="gini = 0.0\nsamples = 2\nvalue = [0, 2]\nclass = SMT", fillcolor="#399de5"] ;
108 -> 109 ;
110 [label="gini = 0.0\nsamples = 1\nvalue = [3, 0]\nclass = CE", fillcolor="#e58139"] ;
108 -> 110 ;
111 [label="colExt2:ratio_m1_m2_rem <= 0.88\ngini = 0.33\nsamples = 52\nvalue = [18, 69]\nclass = SMT", fillcolor="#6db7ec"] ;
101 -> 111 ;
112 [label="gini = 0.0\nsamples = 6\nvalue = [10, 0]\nclass = CE", fillcolor="#e58139"] ;
111 -> 112 ;
113 [label="col.6:delay_time/Myr <= 74.57\ngini = 0.19\nsamples = 46\nvalue = [8, 69]\nclass = SMT", fillcolor="#50a8e8"] ;
111 -> 113 ;
114 [label="gini = 0.0\nsamples = 2\nvalue = [6, 0]\nclass = CE", fillcolor="#e58139"] ;
113 -> 114 ;
115 [label="colExt1:ratio_m1_m2_ZAMS <= 2.79\ngini = 0.05\nsamples = 44\nvalue = [2, 69]\nclass = SMT", fillcolor="#3fa0e6"] ;
113 -> 115 ;
116 [label="col.1:m1ZAMS/Msun <= 55.13\ngini = 0.03\nsamples = 39\nvalue = [1, 61]\nclass = SMT", fillcolor="#3c9fe5"] ;
115 -> 116 ;
117 [label="gini = 0.0\nsamples = 38\nvalue = [0, 61]\nclass = SMT", fillcolor="#399de5"] ;
116 -> 117 ;
118 [label="gini = 0.0\nsamples = 1\nvalue = [1, 0]\nclass = CE", fillcolor="#e58139"] ;
116 -> 118 ;
119 [label="col.8:ecc <= 0.02\ngini = 0.2\nsamples = 5\nvalue = [1, 8]\nclass = SMT", fillcolor="#52a9e8"] ;
115 -> 119 ;
120 [label="gini = 0.0\nsamples = 4\nvalue = [0, 8]\nclass = SMT", fillcolor="#399de5"] ;
119 -> 120 ;
121 [label="gini = 0.0\nsamples = 1\nvalue = [1, 0]\nclass = CE", fillcolor="#e58139"] ;
119 -> 121 ;
122 [label="colExt1:ratio_m1_m2_ZAMS <= 2.62\ngini = 0.27\nsamples = 79\nvalue = [19, 100]\nclass = SMT", fillcolor="#5fb0ea"] ;
94 -> 122 ;
123 [label="gini = 0.0\nsamples = 14\nvalue = [19, 0]\nclass = CE", fillcolor="#e58139"] ;
122 -> 123 ;
124 [label="gini = 0.0\nsamples = 65\nvalue = [0, 100]\nclass = SMT", fillcolor="#399de5"] ;
122 -> 124 ;
125 [label="col.3:m1rem/Msun <= 29.17\ngini = 0.36\nsamples = 135\nvalue = [50, 164]\nclass = SMT", fillcolor="#75bbed"] ;
93 -> 125 ;
126 [label="col.4:m2rem/Msun <= 24.28\ngini = 0.43\nsamples = 96\nvalue = [50, 110]\nclass = SMT", fillcolor="#93caf1"] ;
125 -> 126 ;
127 [label="col.2:m2ZAMS/Msun <= 31.63\ngini = 0.09\nsamples = 51\nvalue = [4, 80]\nclass = SMT", fillcolor="#43a2e6"] ;
126 -> 127 ;
128 [label="colExt2:ratio_m1_m2_rem <= 0.86\ngini = 0.05\nsamples = 50\nvalue = [2, 80]\nclass = SMT", fillcolor="#3e9fe6"] ;
127 -> 128 ;
129 [label="gini = 0.0\nsamples = 2\nvalue = [2, 0]\nclass = CE", fillcolor="#e58139"] ;
128 -> 129 ;
130 [label="gini = 0.0\nsamples = 48\nvalue = [0, 80]\nclass = SMT", fillcolor="#399de5"] ;
128 -> 130 ;
131 [label="gini = 0.0\nsamples = 1\nvalue = [2, 0]\nclass = CE", fillcolor="#e58139"] ;
127 -> 131 ;
132 [label="col.7:sma/Rsun <= 12.64\ngini = 0.48\nsamples = 45\nvalue = [46, 30]\nclass = CE", fillcolor="#f6d3ba"] ;
126 -> 132 ;
133 [label="alpha <= 2.0\ngini = 0.36\nsamples = 33\nvalue = [42, 13]\nclass = CE", fillcolor="#eda876"] ;
132 -> 133 ;
134 [label="col.2:m2ZAMS/Msun <= 27.87\ngini = 0.16\nsamples = 28\nvalue = [42, 4]\nclass = CE", fillcolor="#e78d4c"] ;
133 -> 134 ;
135 [label="alpha <= 0.75\ngini = 0.48\nsamples = 3\nvalue = [3, 2]\nclass = CE", fillcolor="#f6d5bd"] ;
134 -> 135 ;
136 [label="gini = 0.0\nsamples = 2\nvalue = [3, 0]\nclass = CE", fillcolor="#e58139"] ;
135 -> 136 ;
137 [label="gini = 0.0\nsamples = 1\nvalue = [0, 2]\nclass = SMT", fillcolor="#399de5"] ;
135 -> 137 ;
138 [label="col.3:m1rem/Msun <= 25.19\ngini = 0.09\nsamples = 25\nvalue = [39, 2]\nclass = CE", fillcolor="#e68743"] ;
134 -> 138 ;
139 [label="gini = 0.0\nsamples = 19\nvalue = [32, 0]\nclass = CE", fillcolor="#e58139"] ;
138 -> 139 ;
140 [label="col.8:ecc <= 0.01\ngini = 0.35\nsamples = 6\nvalue = [7, 2]\nclass = CE", fillcolor="#eca572"] ;
138 -> 140 ;
141 [label="gini = 0.0\nsamples = 2\nvalue = [0, 2]\nclass = SMT", fillcolor="#399de5"] ;
140 -> 141 ;
142 [label="gini = 0.0\nsamples = 4\nvalue = [7, 0]\nclass = CE", fillcolor="#e58139"] ;
140 -> 142 ;
143 [label="gini = 0.0\nsamples = 5\nvalue = [0, 9]\nclass = SMT", fillcolor="#399de5"] ;
133 -> 143 ;
144 [label="col.1:m1ZAMS/Msun <= 67.59\ngini = 0.31\nsamples = 12\nvalue = [4, 17]\nclass = SMT", fillcolor="#68b4eb"] ;
132 -> 144 ;
145 [label="col.1:m1ZAMS/Msun <= 60.45\ngini = 0.49\nsamples = 3\nvalue = [4, 3]\nclass = CE", fillcolor="#f8e0ce"] ;
144 -> 145 ;
146 [label="gini = 0.0\nsamples = 1\nvalue = [0, 3]\nclass = SMT", fillcolor="#399de5"] ;
145 -> 146 ;
147 [label="gini = 0.0\nsamples = 2\nvalue = [4, 0]\nclass = CE", fillcolor="#e58139"] ;
145 -> 147 ;
148 [label="gini = 0.0\nsamples = 9\nvalue = [0, 14]\nclass = SMT", fillcolor="#399de5"] ;
144 -> 148 ;
149 [label="gini = 0.0\nsamples = 39\nvalue = [0, 54]\nclass = SMT", fillcolor="#399de5"] ;
125 -> 149 ;
150 [label="col.3:m1rem/Msun <= 13.23\ngini = 0.19\nsamples = 6579\nvalue = [1075, 9271]\nclass = SMT", fillcolor="#50a8e8"] ;
74 -> 150 ;
151 [label="alpha <= 0.75\ngini = 0.12\nsamples = 304\nvalue = [449, 31]\nclass = CE", fillcolor="#e78a47"] ;
150 -> 151 ;
152 [label="col.1:m1ZAMS/Msun <= 38.5\ngini = 0.42\nsamples = 15\nvalue = [8, 19]\nclass = SMT", fillcolor="#8cc6f0"] ;
151 -> 152 ;
153 [label="gini = 0.0\nsamples = 5\nvalue = [7, 0]\nclass = CE", fillcolor="#e58139"] ;
152 -> 153 ;
154 [label="col.3:m1rem/Msun <= 11.03\ngini = 0.09\nsamples = 10\nvalue = [1, 19]\nclass = SMT", fillcolor="#43a2e6"] ;
152 -> 154 ;
155 [label="gini = 0.0\nsamples = 1\nvalue = [1, 0]\nclass = CE", fillcolor="#e58139"] ;
154 -> 155 ;
156 [label="gini = 0.0\nsamples = 9\nvalue = [0, 19]\nclass = SMT", fillcolor="#399de5"] ;
154 -> 156 ;
157 [label="colExt1:ratio_m1_m2_ZAMS <= 3.11\ngini = 0.05\nsamples = 289\nvalue = [441, 12]\nclass = CE", fillcolor="#e6843e"] ;
151 -> 157 ;
158 [label="col.3:m1rem/Msun <= 12.83\ngini = 0.01\nsamples = 281\nvalue = [441, 3]\nclass = CE", fillcolor="#e5823a"] ;
157 -> 158 ;
159 [label="gini = 0.0\nsamples = 255\nvalue = [407, 0]\nclass = CE", fillcolor="#e58139"] ;
158 -> 159 ;
160 [label="col.4:m2rem/Msun <= 12.52\ngini = 0.15\nsamples = 26\nvalue = [34, 3]\nclass = CE", fillcolor="#e78c4a"] ;
158 -> 160 ;
161 [label="col.2:m2ZAMS/Msun <= 14.21\ngini = 0.47\nsamples = 6\nvalue = [5, 3]\nclass = CE", fillcolor="#f5cdb0"] ;
160 -> 161 ;
162 [label="gini = 0.0\nsamples = 2\nvalue = [0, 3]\nclass = SMT", fillcolor="#399de5"] ;
161 -> 162 ;
163 [label="gini = 0.0\nsamples = 4\nvalue = [5, 0]\nclass = CE", fillcolor="#e58139"] ;
161 -> 163 ;
164 [label="gini = 0.0\nsamples = 20\nvalue = [29, 0]\nclass = CE", fillcolor="#e58139"] ;
160 -> 164 ;
165 [label="gini = 0.0\nsamples = 8\nvalue = [0, 9]\nclass = SMT", fillcolor="#399de5"] ;
157 -> 165 ;
166 [label="col.4:m2rem/Msun <= 27.04\ngini = 0.12\nsamples = 6275\nvalue = [626, 9240]\nclass = SMT", fillcolor="#46a4e7"] ;
150 -> 166 ;
167 [label="colExt1:ratio_m1_m2_ZAMS <= 1.81\ngini = 0.18\nsamples = 3647\nvalue = [563, 5130]\nclass = SMT", fillcolor="#4fa8e8"] ;
166 -> 167 ;
168 [label="col.4:m2rem/Msun <= 25.9\ngini = 0.23\nsamples = 167\nvalue = [232, 35]\nclass = CE", fillcolor="#e99457"] ;
167 -> 168 ;
169 [label="metallicity <= 0.0\ngini = 0.09\nsamples = 139\nvalue = [210, 10]\nclass = CE", fillcolor="#e68742"] ;
168 -> 169 ;
170 [label="col.8:ecc <= 0.01\ngini = 0.36\nsamples = 21\nvalue = [29, 9]\nclass = CE", fillcolor="#eda876"] ;
169 -> 170 ;
171 [label="gini = 0.0\nsamples = 4\nvalue = [0, 9]\nclass = SMT", fillcolor="#399de5"] ;
170 -> 171 ;
172 [label="gini = 0.0\nsamples = 17\nvalue = [29, 0]\nclass = CE", fillcolor="#e58139"] ;
170 -> 172 ;
173 [label="col.7:sma/Rsun <= 4145.43\ngini = 0.01\nsamples = 118\nvalue = [181, 1]\nclass = CE", fillcolor="#e5823a"] ;
169 -> 173 ;
174 [label="gini = 0.0\nsamples = 117\nvalue = [181, 0]\nclass = CE", fillcolor="#e58139"] ;
173 -> 174 ;
175 [label="gini = 0.0\nsamples = 1\nvalue = [0, 1]\nclass = SMT", fillcolor="#399de5"] ;
173 -> 175 ;
176 [label="col.4:m2rem/Msun <= 26.94\ngini = 0.5\nsamples = 28\nvalue = [22, 25]\nclass = SMT", fillcolor="#e7f3fc"] ;
168 -> 176 ;
177 [label="metallicity <= 0.0\ngini = 0.41\nsamples = 22\nvalue = [10, 25]\nclass = SMT", fillcolor="#88c4ef"] ;
176 -> 177 ;
178 [label="gini = 0.0\nsamples = 14\nvalue = [0, 23]\nclass = SMT", fillcolor="#399de5"] ;
177 -> 178 ;
179 [label="col.1:m1ZAMS/Msun <= 59.07\ngini = 0.28\nsamples = 8\nvalue = [10, 2]\nclass = CE", fillcolor="#ea9a61"] ;
177 -> 179 ;
180 [label="col.6:delay_time/Myr <= 3664.41\ngini = 0.48\nsamples = 3\nvalue = [3, 2]\nclass = CE", fillcolor="#f6d5bd"] ;
179 -> 180 ;
181 [label="gini = 0.0\nsamples = 2\nvalue = [3, 0]\nclass = CE", fillcolor="#e58139"] ;
180 -> 181 ;
182 [label="gini = 0.0\nsamples = 1\nvalue = [0, 2]\nclass = SMT", fillcolor="#399de5"] ;
180 -> 182 ;
183 [label="gini = 0.0\nsamples = 5\nvalue = [7, 0]\nclass = CE", fillcolor="#e58139"] ;
179 -> 183 ;
184 [label="gini = 0.0\nsamples = 6\nvalue = [12, 0]\nclass = CE", fillcolor="#e58139"] ;
176 -> 184 ;
185 [label="col.4:m2rem/Msun <= 7.9\ngini = 0.11\nsamples = 3480\nvalue = [331, 5095]\nclass = SMT", fillcolor="#46a3e7"] ;
167 -> 185 ;
186 [label="gini = 0.0\nsamples = 7\nvalue = [11, 0]\nclass = CE", fillcolor="#e58139"] ;
185 -> 186 ;
187 [label="colExt2:ratio_m1_m2_rem <= 0.84\ngini = 0.11\nsamples = 3473\nvalue = [320, 5095]\nclass = SMT", fillcolor="#45a3e7"] ;
185 -> 187 ;
188 [label="col.8:ecc <= 0.01\ngini = 0.29\nsamples = 37\nvalue = [51, 11]\nclass = CE", fillcolor="#eb9c64"] ;
187 -> 188 ;
189 [label="metallicity <= 0.0\ngini = 0.48\nsamples = 9\nvalue = [7, 11]\nclass = SMT", fillcolor="#b7dbf6"] ;
188 -> 189 ;
190 [label="col.3:m1rem/Msun <= 20.74\ngini = 0.26\nsamples = 7\nvalue = [2, 11]\nclass = SMT", fillcolor="#5dafea"] ;
189 -> 190 ;
191 [label="gini = 0.0\nsamples = 1\nvalue = [2, 0]\nclass = CE", fillcolor="#e58139"] ;
190 -> 191 ;
192 [label="gini = 0.0\nsamples = 6\nvalue = [0, 11]\nclass = SMT", fillcolor="#399de5"] ;
190 -> 192 ;
193 [label="gini = 0.0\nsamples = 2\nvalue = [5, 0]\nclass = CE", fillcolor="#e58139"] ;
189 -> 193 ;
194 [label="gini = 0.0\nsamples = 28\nvalue = [44, 0]\nclass = CE", fillcolor="#e58139"] ;
188 -> 194 ;
195 [label="colExt2:ratio_m1_m2_rem <= 1.62\ngini = 0.1\nsamples = 3436\nvalue = [269, 5084]\nclass = SMT", fillcolor="#43a2e6"] ;
187 -> 195 ;
196 [label="col.3:m1rem/Msun <= 15.37\ngini = 0.09\nsamples = 3411\nvalue = [242, 5070]\nclass = SMT", fillcolor="#42a2e6"] ;
195 -> 196 ;
197 [label="colExt1:ratio_m1_m2_ZAMS <= 2.28\ngini = 0.29\nsamples = 406\nvalue = [116, 532]\nclass = SMT", fillcolor="#64b2eb"] ;
196 -> 197 ;
198 [label="colExt1:ratio_m1_m2_ZAMS <= 2.17\ngini = 0.08\nsamples = 45\nvalue = [71, 3]\nclass = CE", fillcolor="#e68641"] ;
197 -> 198 ;
199 [label="gini = 0.0\nsamples = 35\nvalue = [56, 0]\nclass = CE", fillcolor="#e58139"] ;
198 -> 199 ;
200 [label="col.4:m2rem/Msun <= 15.95\ngini = 0.28\nsamples = 10\nvalue = [15, 3]\nclass = CE", fillcolor="#ea9a61"] ;
198 -> 200 ;
201 [label="gini = 0.0\nsamples = 7\nvalue = [15, 0]\nclass = CE", fillcolor="#e58139"] ;
200 -> 201 ;
202 [label="gini = 0.0\nsamples = 3\nvalue = [0, 3]\nclass = SMT", fillcolor="#399de5"] ;
200 -> 202 ;
203 [label="metallicity <= 0.0\ngini = 0.14\nsamples = 361\nvalue = [45, 529]\nclass = SMT", fillcolor="#4aa5e7"] ;
197 -> 203 ;
204 [label="gini = 0.0\nsamples = 148\nvalue = [0, 238]\nclass = SMT", fillcolor="#399de5"] ;
203 -> 204 ;
205 [label="colExt1:ratio_m1_m2_ZAMS <= 2.55\ngini = 0.23\nsamples = 213\nvalue = [45, 291]\nclass = SMT", fillcolor="#58ace9"] ;
203 -> 205 ;
206 [label="alpha <= 2.0\ngini = 0.22\nsamples = 27\nvalue = [35, 5]\nclass = CE", fillcolor="#e99355"] ;
205 -> 206 ;
207 [label="colExt1:ratio_m1_m2_ZAMS <= 2.37\ngini = 0.47\nsamples = 6\nvalue = [3, 5]\nclass = SMT", fillcolor="#b0d8f5"] ;
206 -> 207 ;
208 [label="gini = 0.0\nsamples = 1\nvalue = [3, 0]\nclass = CE", fillcolor="#e58139"] ;
207 -> 208 ;
209 [label="gini = 0.0\nsamples = 5\nvalue = [0, 5]\nclass = SMT", fillcolor="#399de5"] ;
207 -> 209 ;
210 [label="gini = 0.0\nsamples = 21\nvalue = [32, 0]\nclass = CE", fillcolor="#e58139"] ;
206 -> 210 ;
211 [label="col.3:m1rem/Msun <= 13.42\ngini = 0.07\nsamples = 186\nvalue = [10, 286]\nclass = SMT", fillcolor="#40a0e6"] ;
205 -> 211 ;
212 [label="colExt1:ratio_m1_m2_ZAMS <= 2.92\ngini = 0.5\nsamples = 8\nvalue = [7, 6]\nclass = CE", fillcolor="#fbede3"] ;
211 -> 212 ;
213 [label="gini = 0.0\nsamples = 3\nvalue = [6, 0]\nclass = CE", fillcolor="#e58139"] ;
212 -> 213 ;
214 [label="col.1:m1ZAMS/Msun <= 48.02\ngini = 0.24\nsamples = 5\nvalue = [1, 6]\nclass = SMT", fillcolor="#5aade9"] ;
212 -> 214 ;
215 [label="gini = 0.0\nsamples = 4\nvalue = [0, 6]\nclass = SMT", fillcolor="#399de5"] ;
214 -> 215 ;
216 [label="gini = 0.0\nsamples = 1\nvalue = [1, 0]\nclass = CE", fillcolor="#e58139"] ;
214 -> 216 ;
217 [label="colExt2:ratio_m1_m2_rem <= 0.93\ngini = 0.02\nsamples = 178\nvalue = [3, 280]\nclass = SMT", fillcolor="#3b9ee5"] ;
211 -> 217 ;
218 [label="gini = 0.0\nsamples = 2\nvalue = [3, 0]\nclass = CE", fillcolor="#e58139"] ;
217 -> 218 ;
219 [label="gini = 0.0\nsamples = 176\nvalue = [0, 280]\nclass = SMT", fillcolor="#399de5"] ;
217 -> 219 ;
220 [label="colExt2:ratio_m1_m2_rem <= 0.92\ngini = 0.05\nsamples = 3005\nvalue = [126, 4538]\nclass = SMT", fillcolor="#3ea0e6"] ;
196 -> 220 ;
221 [label="col.8:ecc <= 0.01\ngini = 0.21\nsamples = 438\nvalue = [84, 625]\nclass = SMT", fillcolor="#54aae8"] ;
220 -> 221 ;
222 [label="col.2:m2ZAMS/Msun <= 36.31\ngini = 0.12\nsamples = 366\nvalue = [39, 561]\nclass = SMT", fillcolor="#47a4e7"] ;
221 -> 222 ;
223 [label="col.3:m1rem/Msun <= 19.96\ngini = 0.1\nsamples = 360\nvalue = [30, 558]\nclass = SMT", fillcolor="#44a2e6"] ;
222 -> 223 ;
224 [label="col.6:delay_time/Myr <= 10022.97\ngini = 0.23\nsamples = 119\nvalue = [25, 165]\nclass = SMT", fillcolor="#57ace9"] ;
223 -> 224 ;
225 [label="col.1:m1ZAMS/Msun <= 55.56\ngini = 0.18\nsamples = 109\nvalue = [17, 153]\nclass = SMT", fillcolor="#4fa8e8"] ;
224 -> 225 ;
226 [label="colExt1:ratio_m1_m2_ZAMS <= 1.87\ngini = 0.12\nsamples = 104\nvalue = [10, 152]\nclass = SMT", fillcolor="#46a3e7"] ;
225 -> 226 ;
227 [label="metallicity <= 0.0\ngini = 0.32\nsamples = 3\nvalue = [4, 1]\nclass = CE", fillcolor="#eca06a"] ;
226 -> 227 ;
228 [label="gini = 0.0\nsamples = 1\nvalue = [0, 1]\nclass = SMT", fillcolor="#399de5"] ;
227 -> 228 ;
229 [label="gini = 0.0\nsamples = 2\nvalue = [4, 0]\nclass = CE", fillcolor="#e58139"] ;
227 -> 229 ;
230 [label="col.8:ecc <= 0.01\ngini = 0.07\nsamples = 101\nvalue = [6, 151]\nclass = SMT", fillcolor="#41a1e6"] ;
226 -> 230 ;
231 [label="gini = 0.0\nsamples = 78\nvalue = [0, 121]\nclass = SMT", fillcolor="#399de5"] ;
230 -> 231 ;
232 [label="col.3:m1rem/Msun <= 18.28\ngini = 0.28\nsamples = 23\nvalue = [6, 30]\nclass = SMT", fillcolor="#61b1ea"] ;
230 -> 232 ;
233 [label="col.2:m2ZAMS/Msun <= 24.64\ngini = 0.12\nsamples = 21\nvalue = [2, 30]\nclass = SMT", fillcolor="#46a4e7"] ;
232 -> 233 ;
234 [label="gini = 0.0\nsamples = 20\nvalue = [0, 30]\nclass = SMT", fillcolor="#399de5"] ;
233 -> 234 ;
235 [label="gini = 0.0\nsamples = 1\nvalue = [2, 0]\nclass = CE", fillcolor="#e58139"] ;
233 -> 235 ;
236 [label="gini = 0.0\nsamples = 2\nvalue = [4, 0]\nclass = CE", fillcolor="#e58139"] ;
232 -> 236 ;
237 [label="colExt1:ratio_m1_m2_ZAMS <= 1.98\ngini = 0.22\nsamples = 5\nvalue = [7, 1]\nclass = CE", fillcolor="#e99355"] ;
225 -> 237 ;
238 [label="gini = 0.0\nsamples = 4\nvalue = [7, 0]\nclass = CE", fillcolor="#e58139"] ;
237 -> 238 ;
239 [label="gini = 0.0\nsamples = 1\nvalue = [0, 1]\nclass = SMT", fillcolor="#399de5"] ;
237 -> 239 ;
240 [label="col.3:m1rem/Msun <= 19.07\ngini = 0.48\nsamples = 10\nvalue = [8, 12]\nclass = SMT", fillcolor="#bddef6"] ;
224 -> 240 ;
241 [label="gini = 0.0\nsamples = 5\nvalue = [0, 7]\nclass = SMT", fillcolor="#399de5"] ;
240 -> 241 ;
242 [label="metallicity <= 0.0\ngini = 0.47\nsamples = 5\nvalue = [8, 5]\nclass = CE", fillcolor="#f5d0b5"] ;
240 -> 242 ;
243 [label="gini = 0.0\nsamples = 2\nvalue = [0, 5]\nclass = SMT", fillcolor="#399de5"] ;
242 -> 243 ;
244 [label="gini = 0.0\nsamples = 3\nvalue = [8, 0]\nclass = CE", fillcolor="#e58139"] ;
242 -> 244 ;
245 [label="col.6:delay_time/Myr <= 440.59\ngini = 0.02\nsamples = 241\nvalue = [5, 393]\nclass = SMT", fillcolor="#3c9ee5"] ;
223 -> 245 ;
246 [label="col.8:ecc <= 0.01\ngini = 0.26\nsamples = 15\nvalue = [4, 22]\nclass = SMT", fillcolor="#5dafea"] ;
245 -> 246 ;
247 [label="col.8:ecc <= 0.01\ngini = 0.08\nsamples = 13\nvalue = [1, 22]\nclass = SMT", fillcolor="#42a1e6"] ;
246 -> 247 ;
248 [label="gini = 0.0\nsamples = 10\nvalue = [0, 20]\nclass = SMT", fillcolor="#399de5"] ;
247 -> 248 ;
249 [label="col.4:m2rem/Msun <= 25.0\ngini = 0.44\nsamples = 3\nvalue = [1, 2]\nclass = SMT", fillcolor="#9ccef2"] ;
247 -> 249 ;
250 [label="gini = 0.0\nsamples = 2\nvalue = [0, 2]\nclass = SMT", fillcolor="#399de5"] ;
249 -> 250 ;
251 [label="gini = 0.0\nsamples = 1\nvalue = [1, 0]\nclass = CE", fillcolor="#e58139"] ;
249 -> 251 ;
252 [label="gini = 0.0\nsamples = 2\nvalue = [3, 0]\nclass = CE", fillcolor="#e58139"] ;
246 -> 252 ;
253 [label="colExt1:ratio_m1_m2_ZAMS <= 1.86\ngini = 0.01\nsamples = 226\nvalue = [1, 371]\nclass = SMT", fillcolor="#3a9de5"] ;
245 -> 253 ;
254 [label="colExt2:ratio_m1_m2_rem <= 0.89\ngini = 0.05\nsamples = 26\nvalue = [1, 42]\nclass = SMT", fillcolor="#3e9fe6"] ;
253 -> 254 ;
255 [label="gini = 0.0\nsamples = 25\nvalue = [0, 42]\nclass = SMT", fillcolor="#399de5"] ;
254 -> 255 ;
256 [label="gini = 0.0\nsamples = 1\nvalue = [1, 0]\nclass = CE", fillcolor="#e58139"] ;
254 -> 256 ;
257 [label="gini = 0.0\nsamples = 200\nvalue = [0, 329]\nclass = SMT", fillcolor="#399de5"] ;
253 -> 257 ;
258 [label="col.7:sma/Rsun <= 36.25\ngini = 0.38\nsamples = 6\nvalue = [9, 3]\nclass = CE", fillcolor="#eeab7b"] ;
222 -> 258 ;
259 [label="col.8:ecc <= 0.01\ngini = 0.18\nsamples = 4\nvalue = [9, 1]\nclass = CE", fillcolor="#e88f4f"] ;
258 -> 259 ;
260 [label="gini = 0.0\nsamples = 1\nvalue = [0, 1]\nclass = SMT", fillcolor="#399de5"] ;
259 -> 260 ;
261 [label="gini = 0.0\nsamples = 3\nvalue = [9, 0]\nclass = CE", fillcolor="#e58139"] ;
259 -> 261 ;
262 [label="gini = 0.0\nsamples = 2\nvalue = [0, 2]\nclass = SMT", fillcolor="#399de5"] ;
258 -> 262 ;
263 [label="colExt2:ratio_m1_m2_rem <= 0.9\ngini = 0.48\nsamples = 72\nvalue = [45, 64]\nclass = SMT", fillcolor="#c4e2f7"] ;
221 -> 263 ;
264 [label="col.2:m2ZAMS/Msun <= 23.41\ngini = 0.46\nsamples = 38\nvalue = [36, 20]\nclass = CE", fillcolor="#f3c7a7"] ;
263 -> 264 ;
265 [label="metallicity <= 0.0\ngini = 0.47\nsamples = 21\nvalue = [12, 20]\nclass = SMT", fillcolor="#b0d8f5"] ;
264 -> 265 ;
266 [label="colExt1:ratio_m1_m2_ZAMS <= 1.96\ngini = 0.18\nsamples = 12\nvalue = [2, 18]\nclass = SMT", fillcolor="#4fa8e8"] ;
265 -> 266 ;
267 [label="gini = 0.0\nsamples = 1\nvalue = [2, 0]\nclass = CE", fillcolor="#e58139"] ;
266 -> 267 ;
268 [label="gini = 0.0\nsamples = 11\nvalue = [0, 18]\nclass = SMT", fillcolor="#399de5"] ;
266 -> 268 ;
269 [label="col.2:m2ZAMS/Msun <= 23.13\ngini = 0.28\nsamples = 9\nvalue = [10, 2]\nclass = CE", fillcolor="#ea9a61"] ;
265 -> 269 ;
270 [label="gini = 0.0\nsamples = 6\nvalue = [9, 0]\nclass = CE", fillcolor="#e58139"] ;
269 -> 270 ;
271 [label="colExt1:ratio_m1_m2_ZAMS <= 2.01\ngini = 0.44\nsamples = 3\nvalue = [1, 2]\nclass = SMT", fillcolor="#9ccef2"] ;
269 -> 271 ;
272 [label="gini = 0.0\nsamples = 1\nvalue = [1, 0]\nclass = CE", fillcolor="#e58139"] ;
271 -> 272 ;
273 [label="gini = 0.0\nsamples = 2\nvalue = [0, 2]\nclass = SMT", fillcolor="#399de5"] ;
271 -> 273 ;
274 [label="gini = 0.0\nsamples = 17\nvalue = [24, 0]\nclass = CE", fillcolor="#e58139"] ;
264 -> 274 ;
275 [label="colExt1:ratio_m1_m2_ZAMS <= 2.03\ngini = 0.28\nsamples = 34\nvalue = [9, 44]\nclass = SMT", fillcolor="#61b1ea"] ;
263 -> 275 ;
276 [label="gini = 0.0\nsamples = 5\nvalue = [8, 0]\nclass = CE", fillcolor="#e58139"] ;
275 -> 276 ;
277 [label="col.1:m1ZAMS/Msun <= 50.65\ngini = 0.04\nsamples = 29\nvalue = [1, 44]\nclass = SMT", fillcolor="#3d9fe6"] ;
275 -> 277 ;
278 [label="gini = 0.0\nsamples = 28\nvalue = [0, 44]\nclass = SMT", fillcolor="#399de5"] ;
277 -> 278 ;
279 [label="gini = 0.0\nsamples = 1\nvalue = [1, 0]\nclass = CE", fillcolor="#e58139"] ;
277 -> 279 ;
280 [label="col.2:m2ZAMS/Msun <= 49.88\ngini = 0.02\nsamples = 2567\nvalue = [42, 3913]\nclass = SMT", fillcolor="#3b9ee5"] ;
220 -> 280 ;
281 [label="col.3:m1rem/Msun <= 18.0\ngini = 0.02\nsamples = 2563\nvalue = [35, 3913]\nclass = SMT", fillcolor="#3b9ee5"] ;
280 -> 281 ;
282 [label="colExt1:ratio_m1_m2_ZAMS <= 2.21\ngini = 0.05\nsamples = 699\nvalue = [25, 1049]\nclass = SMT", fillcolor="#3e9fe6"] ;
281 -> 282 ;
283 [label="colExt2:ratio_m1_m2_rem <= 0.92\ngini = 0.16\nsamples = 17\nvalue = [21, 2]\nclass = CE", fillcolor="#e78d4c"] ;
282 -> 283 ;
284 [label="gini = 0.0\nsamples = 2\nvalue = [0, 2]\nclass = SMT", fillcolor="#399de5"] ;
283 -> 284 ;
285 [label="gini = 0.0\nsamples = 15\nvalue = [21, 0]\nclass = CE", fillcolor="#e58139"] ;
283 -> 285 ;
286 [label="col.6:delay_time/Myr <= 592.34\ngini = 0.01\nsamples = 682\nvalue = [4, 1047]\nclass = SMT", fillcolor="#3a9de5"] ;
282 -> 286 ;
287 [label="colExt1:ratio_m1_m2_ZAMS <= 2.29\ngini = 0.28\nsamples = 4\nvalue = [1, 5]\nclass = SMT", fillcolor="#61b1ea"] ;
286 -> 287 ;
288 [label="gini = 0.0\nsamples = 1\nvalue = [1, 0]\nclass = CE", fillcolor="#e58139"] ;
287 -> 288 ;
289 [label="gini = 0.0\nsamples = 3\nvalue = [0, 5]\nclass = SMT", fillcolor="#399de5"] ;
287 -> 289 ;
290 [label="col.8:ecc <= 0.02\ngini = 0.01\nsamples = 678\nvalue = [3, 1042]\nclass = SMT", fillcolor="#3a9de5"] ;
286 -> 290 ;
291 [label="gini = 0.0\nsamples = 434\nvalue = [0, 673]\nclass = SMT", fillcolor="#399de5"] ;
290 -> 291 ;
292 [label="colExt1:ratio_m1_m2_ZAMS <= 2.38\ngini = 0.02\nsamples = 244\nvalue = [3, 369]\nclass = SMT", fillcolor="#3b9ee5"] ;
290 -> 292 ;
293 [label="col.7:sma/Rsun <= 24.5\ngini = 0.5\nsamples = 4\nvalue = [3, 3]\nclass = CE", fillcolor="#ffffff"] ;
292 -> 293 ;
294 [label="col.4:m2rem/Msun <= 16.53\ngini = 0.38\nsamples = 3\nvalue = [1, 3]\nclass = SMT", fillcolor="#7bbeee"] ;
293 -> 294 ;
295 [label="gini = 0.0\nsamples = 2\nvalue = [0, 3]\nclass = SMT", fillcolor="#399de5"] ;
294 -> 295 ;
296 [label="gini = 0.0\nsamples = 1\nvalue = [1, 0]\nclass = CE", fillcolor="#e58139"] ;
294 -> 296 ;
297 [label="gini = 0.0\nsamples = 1\nvalue = [2, 0]\nclass = CE", fillcolor="#e58139"] ;
293 -> 297 ;
298 [label="gini = 0.0\nsamples = 240\nvalue = [0, 366]\nclass = SMT", fillcolor="#399de5"] ;
292 -> 298 ;
299 [label="col.2:m2ZAMS/Msun <= 26.72\ngini = 0.01\nsamples = 1864\nvalue = [10, 2864]\nclass = SMT", fillcolor="#3a9de5"] ;
281 -> 299 ;
300 [label="gini = 0.0\nsamples = 1170\nvalue = [0, 1797]\nclass = SMT", fillcolor="#399de5"] ;
299 -> 300 ;
301 [label="col.4:m2rem/Msun <= 22.1\ngini = 0.02\nsamples = 694\nvalue = [10, 1067]\nclass = SMT", fillcolor="#3b9ee5"] ;
299 -> 301 ;
302 [label="colExt1:ratio_m1_m2_ZAMS <= 2.03\ngini = 0.09\nsamples = 143\nvalue = [10, 210]\nclass = SMT", fillcolor="#42a2e6"] ;
301 -> 302 ;
303 [label="gini = 0.0\nsamples = 6\nvalue = [9, 0]\nclass = CE", fillcolor="#e58139"] ;
302 -> 303 ;
304 [label="col.3:m1rem/Msun <= 18.9\ngini = 0.01\nsamples = 137\nvalue = [1, 210]\nclass = SMT", fillcolor="#3a9de5"] ;
302 -> 304 ;
305 [label="gini = 0.0\nsamples = 1\nvalue = [1, 0]\nclass = CE", fillcolor="#e58139"] ;
304 -> 305 ;
306 [label="gini = 0.0\nsamples = 136\nvalue = [0, 210]\nclass = SMT", fillcolor="#399de5"] ;
304 -> 306 ;
307 [label="gini = 0.0\nsamples = 551\nvalue = [0, 857]\nclass = SMT", fillcolor="#399de5"] ;
301 -> 307 ;
308 [label="gini = 0.0\nsamples = 4\nvalue = [7, 0]\nclass = CE", fillcolor="#e58139"] ;
280 -> 308 ;
309 [label="col.2:m2ZAMS/Msun <= 44.9\ngini = 0.45\nsamples = 25\nvalue = [27, 14]\nclass = CE", fillcolor="#f2c2a0"] ;
195 -> 309 ;
310 [label="col.7:sma/Rsun <= 20.93\ngini = 0.22\nsamples = 9\nvalue = [2, 14]\nclass = SMT", fillcolor="#55abe9"] ;
309 -> 310 ;
311 [label="gini = 0.0\nsamples = 1\nvalue = [2, 0]\nclass = CE", fillcolor="#e58139"] ;
310 -> 311 ;
312 [label="gini = 0.0\nsamples = 8\nvalue = [0, 14]\nclass = SMT", fillcolor="#399de5"] ;
310 -> 312 ;
313 [label="gini = 0.0\nsamples = 16\nvalue = [25, 0]\nclass = CE", fillcolor="#e58139"] ;
309 -> 313 ;
314 [label="col.8:ecc <= 0.08\ngini = 0.03\nsamples = 2628\nvalue = [63, 4110]\nclass = SMT", fillcolor="#3c9fe5"] ;
166 -> 314 ;
315 [label="col.8:ecc <= 0.01\ngini = 0.02\nsamples = 2564\nvalue = [46, 4022]\nclass = SMT", fillcolor="#3b9ee5"] ;
314 -> 315 ;
316 [label="gini = 0.0\nsamples = 1\nvalue = [2, 0]\nclass = CE", fillcolor="#e58139"] ;
315 -> 316 ;
317 [label="col.3:m1rem/Msun <= 22.17\ngini = 0.02\nsamples = 2563\nvalue = [44, 4022]\nclass = SMT", fillcolor="#3b9ee5"] ;
315 -> 317 ;
318 [label="gini = 0.0\nsamples = 12\nvalue = [14, 0]\nclass = CE", fillcolor="#e58139"] ;
317 -> 318 ;
319 [label="col.1:m1ZAMS/Msun <= 70.33\ngini = 0.01\nsamples = 2551\nvalue = [30, 4022]\nclass = SMT", fillcolor="#3a9ee5"] ;
317 -> 319 ;
320 [label="col.1:m1ZAMS/Msun <= 70.27\ngini = 0.06\nsamples = 341\nvalue = [15, 506]\nclass = SMT", fillcolor="#3fa0e6"] ;
319 -> 320 ;
321 [label="col.2:m2ZAMS/Msun <= 40.4\ngini = 0.04\nsamples = 340\nvalue = [11, 506]\nclass = SMT", fillcolor="#3d9fe6"] ;
320 -> 321 ;
322 [label="metallicity <= 0.0\ngini = 0.0\nsamples = 317\nvalue = [1, 481]\nclass = SMT", fillcolor="#399de5"] ;
321 -> 322 ;
323 [label="gini = 0.0\nsamples = 308\nvalue = [0, 470]\nclass = SMT", fillcolor="#399de5"] ;
322 -> 323 ;
324 [label="col.7:sma/Rsun <= 17.46\ngini = 0.15\nsamples = 9\nvalue = [1, 11]\nclass = SMT", fillcolor="#4ba6e7"] ;
322 -> 324 ;
325 [label="gini = 0.0\nsamples = 1\nvalue = [1, 0]\nclass = CE", fillcolor="#e58139"] ;
324 -> 325 ;
326 [label="gini = 0.0\nsamples = 8\nvalue = [0, 11]\nclass = SMT", fillcolor="#399de5"] ;
324 -> 326 ;
327 [label="col.1:m1ZAMS/Msun <= 69.14\ngini = 0.41\nsamples = 23\nvalue = [10, 25]\nclass = SMT", fillcolor="#88c4ef"] ;
321 -> 327 ;
328 [label="col.3:m1rem/Msun <= 26.16\ngini = 0.5\nsamples = 15\nvalue = [10, 12]\nclass = SMT", fillcolor="#deeffb"] ;
327 -> 328 ;
329 [label="alpha <= 4.0\ngini = 0.36\nsamples = 9\nvalue = [10, 3]\nclass = CE", fillcolor="#eda774"] ;
328 -> 329 ;
330 [label="gini = 0.0\nsamples = 8\nvalue = [10, 0]\nclass = CE", fillcolor="#e58139"] ;
329 -> 330 ;
331 [label="gini = 0.0\nsamples = 1\nvalue = [0, 3]\nclass = SMT", fillcolor="#399de5"] ;
329 -> 331 ;
332 [label="gini = 0.0\nsamples = 6\nvalue = [0, 9]\nclass = SMT", fillcolor="#399de5"] ;
328 -> 332 ;
333 [label="gini = 0.0\nsamples = 8\nvalue = [0, 13]\nclass = SMT", fillcolor="#399de5"] ;
327 -> 333 ;
334 [label="gini = 0.0\nsamples = 1\nvalue = [4, 0]\nclass = CE", fillcolor="#e58139"] ;
320 -> 334 ;
335 [label="col.3:m1rem/Msun <= 25.28\ngini = 0.01\nsamples = 2210\nvalue = [15, 3516]\nclass = SMT", fillcolor="#3a9de5"] ;
319 -> 335 ;
336 [label="col.4:m2rem/Msun <= 30.58\ngini = 0.32\nsamples = 18\nvalue = [6, 24]\nclass = SMT", fillcolor="#6ab6ec"] ;
335 -> 336 ;
337 [label="gini = 0.0\nsamples = 15\nvalue = [0, 24]\nclass = SMT", fillcolor="#399de5"] ;
336 -> 337 ;
338 [label="gini = 0.0\nsamples = 3\nvalue = [6, 0]\nclass = CE", fillcolor="#e58139"] ;
336 -> 338 ;
339 [label="col.1:m1ZAMS/Msun <= 135.06\ngini = 0.01\nsamples = 2192\nvalue = [9, 3492]\nclass = SMT", fillcolor="#3a9de5"] ;
335 -> 339 ;
340 [label="colExt2:ratio_m1_m2_rem <= 0.84\ngini = 0.0\nsamples = 2093\nvalue = [7, 3319]\nclass = SMT", fillcolor="#399de5"] ;
339 -> 340 ;
341 [label="col.7:sma/Rsun <= 21.54\ngini = 0.49\nsamples = 9\nvalue = [5, 7]\nclass = SMT", fillcolor="#c6e3f8"] ;
340 -> 341 ;
342 [label="gini = 0.0\nsamples = 5\nvalue = [0, 7]\nclass = SMT", fillcolor="#399de5"] ;
341 -> 342 ;
343 [label="gini = 0.0\nsamples = 4\nvalue = [5, 0]\nclass = CE", fillcolor="#e58139"] ;
341 -> 343 ;
344 [label="col.8:ecc <= 0.05\ngini = 0.0\nsamples = 2084\nvalue = [2, 3312]\nclass = SMT", fillcolor="#399de5"] ;
340 -> 344 ;
345 [label="gini = 0.0\nsamples = 1695\nvalue = [0, 2694]\nclass = SMT", fillcolor="#399de5"] ;
344 -> 345 ;
346 [label="alpha <= 4.0\ngini = 0.01\nsamples = 389\nvalue = [2, 618]\nclass = SMT", fillcolor="#3a9de5"] ;
344 -> 346 ;
347 [label="gini = 0.0\nsamples = 314\nvalue = [0, 502]\nclass = SMT", fillcolor="#399de5"] ;
346 -> 347 ;
348 [label="col.1:m1ZAMS/Msun <= 88.89\ngini = 0.03\nsamples = 75\nvalue = [2, 116]\nclass = SMT", fillcolor="#3c9fe5"] ;
346 -> 348 ;
349 [label="gini = 0.0\nsamples = 1\nvalue = [2, 0]\nclass = CE", fillcolor="#e58139"] ;
348 -> 349 ;
350 [label="gini = 0.0\nsamples = 74\nvalue = [0, 116]\nclass = SMT", fillcolor="#399de5"] ;
348 -> 350 ;
351 [label="col.1:m1ZAMS/Msun <= 135.11\ngini = 0.02\nsamples = 99\nvalue = [2, 173]\nclass = SMT", fillcolor="#3b9ee5"] ;
339 -> 351 ;
352 [label="gini = 0.0\nsamples = 1\nvalue = [2, 0]\nclass = CE", fillcolor="#e58139"] ;
351 -> 352 ;
353 [label="gini = 0.0\nsamples = 98\nvalue = [0, 173]\nclass = SMT", fillcolor="#399de5"] ;
351 -> 353 ;
354 [label="col.8:ecc <= 0.09\ngini = 0.27\nsamples = 64\nvalue = [17, 88]\nclass = SMT", fillcolor="#5fb0ea"] ;
314 -> 354 ;
355 [label="metallicity <= 0.0\ngini = 0.5\nsamples = 15\nvalue = [13, 14]\nclass = SMT", fillcolor="#f1f8fd"] ;
354 -> 355 ;
356 [label="gini = 0.0\nsamples = 7\nvalue = [0, 12]\nclass = SMT", fillcolor="#399de5"] ;
355 -> 356 ;
357 [label="col.2:m2ZAMS/Msun <= 77.4\ngini = 0.23\nsamples = 8\nvalue = [13, 2]\nclass = CE", fillcolor="#e99457"] ;
355 -> 357 ;
358 [label="gini = 0.0\nsamples = 1\nvalue = [0, 2]\nclass = SMT", fillcolor="#399de5"] ;
357 -> 358 ;
359 [label="gini = 0.0\nsamples = 7\nvalue = [13, 0]\nclass = CE", fillcolor="#e58139"] ;
357 -> 359 ;
360 [label="col.4:m2rem/Msun <= 44.86\ngini = 0.1\nsamples = 49\nvalue = [4, 74]\nclass = SMT", fillcolor="#44a2e6"] ;
354 -> 360 ;
361 [label="col.1:m1ZAMS/Msun <= 140.76\ngini = 0.05\nsamples = 45\nvalue = [2, 70]\nclass = SMT", fillcolor="#3fa0e6"] ;
360 -> 361 ;
362 [label="gini = 0.0\nsamples = 31\nvalue = [0, 45]\nclass = SMT", fillcolor="#399de5"] ;
361 -> 362 ;
363 [label="colExt2:ratio_m1_m2_rem <= 1.01\ngini = 0.14\nsamples = 14\nvalue = [2, 25]\nclass = SMT", fillcolor="#49a5e7"] ;
361 -> 363 ;
364 [label="gini = 0.0\nsamples = 1\nvalue = [2, 0]\nclass = CE", fillcolor="#e58139"] ;
363 -> 364 ;
365 [label="gini = 0.0\nsamples = 13\nvalue = [0, 25]\nclass = SMT", fillcolor="#399de5"] ;
363 -> 365 ;
366 [label="col.7:sma/Rsun <= 35.53\ngini = 0.44\nsamples = 4\nvalue = [2, 4]\nclass = SMT", fillcolor="#9ccef2"] ;
360 -> 366 ;
367 [label="gini = 0.0\nsamples = 2\nvalue = [2, 0]\nclass = CE", fillcolor="#e58139"] ;
366 -> 367 ;
368 [label="gini = 0.0\nsamples = 2\nvalue = [0, 4]\nclass = SMT", fillcolor="#399de5"] ;
366 -> 368 ;
}