digraph Tree {
node [shape=box, style="filled, rounded", color="black", fontname="helvetica"] ;
edge [fontname="helvetica"] ;
0 [label="col.6:delay_time/Myr <= -0.8\ngini = 0.5\nsamples = 12694\nvalue = [9900, 10100]\nclass = '", fillcolor="#fbfdfe"] ;
1 [label="col.1:m1ZAMS/Msun <= 0.2\ngini = 0.19\nsamples = 2605\nvalue = [3660, 422]\nclass = [", fillcolor="#e89050"] ;
0 -> 1 [labeldistance=2.5, labelangle=45, headlabel="True"] ;
2 [label="col.3:m1rem/Msun <= -0.53\ngini = 0.04\nsamples = 2175\nvalue = [3336, 67]\nclass = [", fillcolor="#e6843d"] ;
1 -> 2 ;
3 [label="col.7:sma/Rsun <= -0.02\ngini = 0.0\nsamples = 1251\nvalue = [1965, 1]\nclass = [", fillcolor="#e58139"] ;
2 -> 3 ;
4 [label="gini = 0.0\nsamples = 1220\nvalue = [1922, 0]\nclass = [", fillcolor="#e58139"] ;
3 -> 4 ;
5 [label="col.2:m2ZAMS/Msun <= -1.02\ngini = 0.04\nsamples = 31\nvalue = [43, 1]\nclass = [", fillcolor="#e6843e"] ;
3 -> 5 ;
6 [label="gini = 0.5\nsamples = 2\nvalue = [1, 1]\nclass = [", fillcolor="#ffffff"] ;
5 -> 6 ;
7 [label="gini = 0.0\nsamples = 29\nvalue = [42, 0]\nclass = [", fillcolor="#e58139"] ;
5 -> 7 ;
8 [label="col.6:delay_time/Myr <= -0.83\ngini = 0.09\nsamples = 924\nvalue = [1371, 66]\nclass = [", fillcolor="#e68743"] ;
2 -> 8 ;
9 [label="colExt1:ratio_m1_m2_ZAMS <= 0.93\ngini = 0.03\nsamples = 768\nvalue = [1178, 16]\nclass = [", fillcolor="#e5833c"] ;
8 -> 9 ;
10 [label="col.7:sma/Rsun <= -0.02\ngini = 0.0\nsamples = 757\nvalue = [1174, 1]\nclass = [", fillcolor="#e58139"] ;
9 -> 10 ;
11 [label="gini = 0.0\nsamples = 755\nvalue = [1173, 0]\nclass = [", fillcolor="#e58139"] ;
10 -> 11 ;
12 [label="gini = 0.5\nsamples = 2\nvalue = [1, 1]\nclass = [", fillcolor="#ffffff"] ;
10 -> 12 ;
13 [label="col.6:delay_time/Myr <= -0.85\ngini = 0.33\nsamples = 11\nvalue = [4, 15]\nclass = '", fillcolor="#6eb7ec"] ;
9 -> 13 ;
14 [label="gini = 0.0\nsamples = 3\nvalue = [4, 0]\nclass = [", fillcolor="#e58139"] ;
13 -> 14 ;
15 [label="gini = 0.0\nsamples = 8\nvalue = [0, 15]\nclass = '", fillcolor="#399de5"] ;
13 -> 15 ;
16 [label="metallicity <= -0.68\ngini = 0.33\nsamples = 156\nvalue = [193, 50]\nclass = [", fillcolor="#eca26c"] ;
8 -> 16 ;
17 [label="colExt1:ratio_m1_m2_ZAMS <= 0.1\ngini = 0.49\nsamples = 35\nvalue = [29, 22]\nclass = [", fillcolor="#f9e1cf"] ;
16 -> 17 ;
18 [label="gini = 0.0\nsamples = 18\nvalue = [23, 0]\nclass = [", fillcolor="#e58139"] ;
17 -> 18 ;
19 [label="alpha <= -0.21\ngini = 0.34\nsamples = 17\nvalue = [6, 22]\nclass = '", fillcolor="#6fb8ec"] ;
17 -> 19 ;
20 [label="gini = 0.0\nsamples = 11\nvalue = [0, 19]\nclass = '", fillcolor="#399de5"] ;
19 -> 20 ;
21 [label="gini = 0.44\nsamples = 6\nvalue = [6, 3]\nclass = [", fillcolor="#f2c09c"] ;
19 -> 21 ;
22 [label="colExt1:ratio_m1_m2_ZAMS <= 0.65\ngini = 0.25\nsamples = 121\nvalue = [164, 28]\nclass = [", fillcolor="#e9975b"] ;
16 -> 22 ;
23 [label="col.3:m1rem/Msun <= 0.11\ngini = 0.01\nsamples = 103\nvalue = [162, 1]\nclass = [", fillcolor="#e5823a"] ;
22 -> 23 ;
24 [label="gini = 0.0\nsamples = 85\nvalue = [137, 0]\nclass = [", fillcolor="#e58139"] ;
23 -> 24 ;
25 [label="gini = 0.07\nsamples = 18\nvalue = [25, 1]\nclass = [", fillcolor="#e68641"] ;
23 -> 25 ;
26 [label="col.3:m1rem/Msun <= -0.45\ngini = 0.13\nsamples = 18\nvalue = [2, 27]\nclass = '", fillcolor="#48a4e7"] ;
22 -> 26 ;
27 [label="gini = 0.5\nsamples = 3\nvalue = [2, 2]\nclass = [", fillcolor="#ffffff"] ;
26 -> 27 ;
28 [label="gini = 0.0\nsamples = 15\nvalue = [0, 25]\nclass = '", fillcolor="#399de5"] ;
26 -> 28 ;
29 [label="alpha <= -0.21\ngini = 0.5\nsamples = 430\nvalue = [324, 355]\nclass = '", fillcolor="#eef6fd"] ;
1 -> 29 ;
30 [label="col.8:ecc <= -0.31\ngini = 0.45\nsamples = 312\nvalue = [319, 170]\nclass = [", fillcolor="#f3c4a3"] ;
29 -> 30 ;
31 [label="col.2:m2ZAMS/Msun <= 0.84\ngini = 0.46\nsamples = 133\nvalue = [75, 133]\nclass = '", fillcolor="#a9d4f4"] ;
30 -> 31 ;
32 [label="col.4:m2rem/Msun <= -0.56\ngini = 0.28\nsamples = 77\nvalue = [21, 102]\nclass = '", fillcolor="#62b1ea"] ;
31 -> 32 ;
33 [label="gini = 0.0\nsamples = 2\nvalue = [4, 0]\nclass = [", fillcolor="#e58139"] ;
32 -> 33 ;
34 [label="colExt2:ratio_m1_m2_rem <= -0.35\ngini = 0.24\nsamples = 75\nvalue = [17, 102]\nclass = '", fillcolor="#5aade9"] ;
32 -> 34 ;
35 [label="gini = 0.0\nsamples = 6\nvalue = [10, 0]\nclass = [", fillcolor="#e58139"] ;
34 -> 35 ;
36 [label="gini = 0.12\nsamples = 69\nvalue = [7, 102]\nclass = '", fillcolor="#47a4e7"] ;
34 -> 36 ;
37 [label="colExt1:ratio_m1_m2_ZAMS <= -0.52\ngini = 0.46\nsamples = 56\nvalue = [54, 31]\nclass = [", fillcolor="#f4c9ab"] ;
31 -> 37 ;
38 [label="gini = 0.0\nsamples = 38\nvalue = [53, 0]\nclass = [", fillcolor="#e58139"] ;
37 -> 38 ;
39 [label="col.4:m2rem/Msun <= 1.14\ngini = 0.06\nsamples = 18\nvalue = [1, 31]\nclass = '", fillcolor="#3fa0e6"] ;
37 -> 39 ;
40 [label="gini = 0.5\nsamples = 2\nvalue = [1, 1]\nclass = [", fillcolor="#ffffff"] ;
39 -> 40 ;
41 [label="gini = 0.0\nsamples = 16\nvalue = [0, 30]\nclass = '", fillcolor="#399de5"] ;
39 -> 41 ;
42 [label="col.1:m1ZAMS/Msun <= 1.84\ngini = 0.23\nsamples = 179\nvalue = [244, 37]\nclass = [", fillcolor="#e99457"] ;
30 -> 42 ;
43 [label="col.2:m2ZAMS/Msun <= 1.28\ngini = 0.05\nsamples = 128\nvalue = [197, 5]\nclass = [", fillcolor="#e6843e"] ;
42 -> 43 ;
44 [label="gini = 0.0\nsamples = 3\nvalue = [0, 4]\nclass = '", fillcolor="#399de5"] ;
43 -> 44 ;
45 [label="colExt1:ratio_m1_m2_ZAMS <= -0.7\ngini = 0.01\nsamples = 125\nvalue = [197, 1]\nclass = [", fillcolor="#e5823a"] ;
43 -> 45 ;
46 [label="gini = 0.0\nsamples = 123\nvalue = [195, 0]\nclass = [", fillcolor="#e58139"] ;
45 -> 46 ;
47 [label="gini = 0.44\nsamples = 2\nvalue = [2, 1]\nclass = [", fillcolor="#f2c09c"] ;
45 -> 47 ;
48 [label="colExt2:ratio_m1_m2_rem <= 0.24\ngini = 0.48\nsamples = 51\nvalue = [47, 32]\nclass = [", fillcolor="#f7d7c0"] ;
42 -> 48 ;
49 [label="col.8:ecc <= 0.03\ngini = 0.35\nsamples = 38\nvalue = [47, 14]\nclass = [", fillcolor="#eda774"] ;
48 -> 49 ;
50 [label="gini = 0.0\nsamples = 9\nvalue = [0, 14]\nclass = '", fillcolor="#399de5"] ;
49 -> 50 ;
51 [label="gini = 0.0\nsamples = 29\nvalue = [47, 0]\nclass = [", fillcolor="#e58139"] ;
49 -> 51 ;
52 [label="gini = 0.0\nsamples = 13\nvalue = [0, 18]\nclass = '", fillcolor="#399de5"] ;
48 -> 52 ;
53 [label="col.1:m1ZAMS/Msun <= 0.28\ngini = 0.05\nsamples = 118\nvalue = [5, 185]\nclass = '", fillcolor="#3ea0e6"] ;
29 -> 53 ;
54 [label="metallicity <= -0.68\ngini = 0.49\nsamples = 4\nvalue = [4, 5]\nclass = '", fillcolor="#d7ebfa"] ;
53 -> 54 ;
55 [label="gini = 0.32\nsamples = 2\nvalue = [4, 1]\nclass = [", fillcolor="#eca06a"] ;
54 -> 55 ;
56 [label="gini = 0.0\nsamples = 2\nvalue = [0, 4]\nclass = '", fillcolor="#399de5"] ;
54 -> 56 ;
57 [label="col.8:ecc <= 0.1\ngini = 0.01\nsamples = 114\nvalue = [1, 180]\nclass = '", fillcolor="#3a9ee5"] ;
53 -> 57 ;
58 [label="gini = 0.0\nsamples = 112\nvalue = [0, 179]\nclass = '", fillcolor="#399de5"] ;
57 -> 58 ;
59 [label="gini = 0.5\nsamples = 2\nvalue = [1, 1]\nclass = [", fillcolor="#ffffff"] ;
57 -> 59 ;
60 [label="colExt2:ratio_m1_m2_rem <= -0.32\ngini = 0.48\nsamples = 10089\nvalue = [6240, 9678]\nclass = '", fillcolor="#b9dcf6"] ;
0 -> 60 [labeldistance=2.5, labelangle=-45, headlabel="False"] ;
61 [label="colExt2:ratio_m1_m2_rem <= -0.35\ngini = 0.04\nsamples = 2259\nvalue = [3503, 66]\nclass = [", fillcolor="#e5833d"] ;
60 -> 61 ;
62 [label="metallicity <= 1.74\ngini = 0.0\nsamples = 2135\nvalue = [3363, 8]\nclass = [", fillcolor="#e58139"] ;
61 -> 62 ;
63 [label="colExt2:ratio_m1_m2_rem <= -0.37\ngini = 0.0\nsamples = 2116\nvalue = [3337, 6]\nclass = [", fillcolor="#e58139"] ;
62 -> 63 ;
64 [label="gini = 0.0\nsamples = 2070\nvalue = [3271, 0]\nclass = [", fillcolor="#e58139"] ;
63 -> 64 ;
65 [label="col.1:m1ZAMS/Msun <= 0.14\ngini = 0.15\nsamples = 46\nvalue = [66, 6]\nclass = [", fillcolor="#e78c4b"] ;
63 -> 65 ;
66 [label="gini = 0.0\nsamples = 34\nvalue = [52, 0]\nclass = [", fillcolor="#e58139"] ;
65 -> 66 ;
67 [label="colExt1:ratio_m1_m2_ZAMS <= -0.72\ngini = 0.42\nsamples = 12\nvalue = [14, 6]\nclass = [", fillcolor="#f0b78e"] ;
65 -> 67 ;
68 [label="gini = 0.0\nsamples = 7\nvalue = [12, 0]\nclass = [", fillcolor="#e58139"] ;
67 -> 68 ;
69 [label="gini = 0.38\nsamples = 5\nvalue = [2, 6]\nclass = '", fillcolor="#7bbeee"] ;
67 -> 69 ;
70 [label="col.1:m1ZAMS/Msun <= -1.23\ngini = 0.13\nsamples = 19\nvalue = [26, 2]\nclass = [", fillcolor="#e78b48"] ;
62 -> 70 ;
71 [label="gini = 0.5\nsamples = 2\nvalue = [2, 2]\nclass = [", fillcolor="#ffffff"] ;
70 -> 71 ;
72 [label="gini = 0.0\nsamples = 17\nvalue = [24, 0]\nclass = [", fillcolor="#e58139"] ;
70 -> 72 ;
73 [label="col.1:m1ZAMS/Msun <= -0.02\ngini = 0.41\nsamples = 124\nvalue = [140, 58]\nclass = [", fillcolor="#f0b58b"] ;
61 -> 73 ;
74 [label="col.4:m2rem/Msun <= 0.41\ngini = 0.02\nsamples = 69\nvalue = [99, 1]\nclass = [", fillcolor="#e5823b"] ;
73 -> 74 ;
75 [label="gini = 0.0\nsamples = 66\nvalue = [96, 0]\nclass = [", fillcolor="#e58139"] ;
74 -> 75 ;
76 [label="gini = 0.38\nsamples = 3\nvalue = [3, 1]\nclass = [", fillcolor="#eeab7b"] ;
74 -> 76 ;
77 [label="col.2:m2ZAMS/Msun <= 0.85\ngini = 0.49\nsamples = 55\nvalue = [41, 57]\nclass = '", fillcolor="#c7e3f8"] ;
73 -> 77 ;
78 [label="col.4:m2rem/Msun <= 0.7\ngini = 0.4\nsamples = 44\nvalue = [22, 57]\nclass = '", fillcolor="#85c3ef"] ;
77 -> 78 ;
79 [label="col.3:m1rem/Msun <= 0.27\ngini = 0.45\nsamples = 14\nvalue = [15, 8]\nclass = [", fillcolor="#f3c4a3"] ;
78 -> 79 ;
80 [label="gini = 0.0\nsamples = 5\nvalue = [8, 0]\nclass = [", fillcolor="#e58139"] ;
79 -> 80 ;
81 [label="gini = 0.5\nsamples = 9\nvalue = [7, 8]\nclass = '", fillcolor="#e6f3fc"] ;
79 -> 81 ;
82 [label="colExt1:ratio_m1_m2_ZAMS <= -0.36\ngini = 0.22\nsamples = 30\nvalue = [7, 49]\nclass = '", fillcolor="#55abe9"] ;
78 -> 82 ;
83 [label="gini = 0.17\nsamples = 27\nvalue = [5, 48]\nclass = '", fillcolor="#4ea7e8"] ;
82 -> 83 ;
84 [label="gini = 0.44\nsamples = 3\nvalue = [2, 1]\nclass = [", fillcolor="#f2c09c"] ;
82 -> 84 ;
85 [label="gini = 0.0\nsamples = 11\nvalue = [19, 0]\nclass = [", fillcolor="#e58139"] ;
77 -> 85 ;
86 [label="col.8:ecc <= 0.02\ngini = 0.35\nsamples = 7830\nvalue = [2737, 9612]\nclass = '", fillcolor="#71b9ec"] ;
60 -> 86 ;
87 [label="colExt1:ratio_m1_m2_ZAMS <= -0.78\ngini = 0.19\nsamples = 6687\nvalue = [1112, 9422]\nclass = '", fillcolor="#50a9e8"] ;
86 -> 87 ;
88 [label="gini = 0.0\nsamples = 222\nvalue = [361, 0]\nclass = [", fillcolor="#e58139"] ;
87 -> 88 ;
89 [label="col.3:m1rem/Msun <= -0.64\ngini = 0.14\nsamples = 6465\nvalue = [751, 9422]\nclass = '", fillcolor="#49a5e7"] ;
87 -> 89 ;
90 [label="colExt1:ratio_m1_m2_ZAMS <= 1.38\ngini = 0.23\nsamples = 129\nvalue = [175, 26]\nclass = [", fillcolor="#e99456"] ;
89 -> 90 ;
91 [label="col.8:ecc <= -0.46\ngini = 0.03\nsamples = 109\nvalue = [170, 3]\nclass = [", fillcolor="#e5833c"] ;
90 -> 91 ;
92 [label="gini = 0.5\nsamples = 2\nvalue = [2, 2]\nclass = [", fillcolor="#ffffff"] ;
91 -> 92 ;
93 [label="gini = 0.01\nsamples = 107\nvalue = [168, 1]\nclass = [", fillcolor="#e5823a"] ;
91 -> 93 ;
94 [label="metallicity <= -0.23\ngini = 0.29\nsamples = 20\nvalue = [5, 23]\nclass = '", fillcolor="#64b2eb"] ;
90 -> 94 ;
95 [label="gini = 0.0\nsamples = 14\nvalue = [0, 22]\nclass = '", fillcolor="#399de5"] ;
94 -> 95 ;
96 [label="gini = 0.28\nsamples = 6\nvalue = [5, 1]\nclass = [", fillcolor="#ea9a61"] ;
94 -> 96 ;
97 [label="col.1:m1ZAMS/Msun <= -0.33\ngini = 0.11\nsamples = 6336\nvalue = [576, 9396]\nclass = '", fillcolor="#45a3e7"] ;
89 -> 97 ;
98 [label="metallicity <= -0.23\ngini = 0.32\nsamples = 1016\nvalue = [316, 1286]\nclass = '", fillcolor="#6ab5eb"] ;
97 -> 98 ;
99 [label="gini = 0.19\nsamples = 597\nvalue = [99, 817]\nclass = '", fillcolor="#51a9e8"] ;
98 -> 99 ;
100 [label="gini = 0.43\nsamples = 419\nvalue = [217, 469]\nclass = '", fillcolor="#95caf1"] ;
98 -> 100 ;
101 [label="metallicity <= -0.23\ngini = 0.06\nsamples = 5320\nvalue = [260, 8110]\nclass = '", fillcolor="#3fa0e6"] ;
97 -> 101 ;
102 [label="gini = 0.01\nsamples = 2524\nvalue = [29, 3940]\nclass = '", fillcolor="#3a9ee5"] ;
101 -> 102 ;
103 [label="gini = 0.1\nsamples = 2796\nvalue = [231, 4170]\nclass = '", fillcolor="#44a2e6"] ;
101 -> 103 ;
104 [label="col.7:sma/Rsun <= -0.01\ngini = 0.19\nsamples = 1143\nvalue = [1625, 190]\nclass = [", fillcolor="#e89050"] ;
86 -> 104 ;
105 [label="col.4:m2rem/Msun <= -0.97\ngini = 0.03\nsamples = 818\nvalue = [1266, 18]\nclass = [", fillcolor="#e5833c"] ;
104 -> 105 ;
106 [label="col.1:m1ZAMS/Msun <= -0.47\ngini = 0.02\nsamples = 806\nvalue = [1256, 11]\nclass = [", fillcolor="#e5823b"] ;
105 -> 106 ;
107 [label="colExt2:ratio_m1_m2_rem <= 5.33\ngini = 0.0\nsamples = 793\nvalue = [1238, 3]\nclass = [", fillcolor="#e58139"] ;
106 -> 107 ;
108 [label="gini = 0.0\nsamples = 773\nvalue = [1208, 0]\nclass = [", fillcolor="#e58139"] ;
107 -> 108 ;
109 [label="gini = 0.17\nsamples = 20\nvalue = [30, 3]\nclass = [", fillcolor="#e88e4d"] ;
107 -> 109 ;
110 [label="col.7:sma/Rsun <= -0.02\ngini = 0.43\nsamples = 13\nvalue = [18, 8]\nclass = [", fillcolor="#f1b991"] ;
106 -> 110 ;
111 [label="gini = 0.0\nsamples = 8\nvalue = [16, 0]\nclass = [", fillcolor="#e58139"] ;
110 -> 111 ;
112 [label="gini = 0.32\nsamples = 5\nvalue = [2, 8]\nclass = '", fillcolor="#6ab6ec"] ;
110 -> 112 ;
113 [label="colExt2:ratio_m1_m2_rem <= 0.55\ngini = 0.48\nsamples = 12\nvalue = [10, 7]\nclass = [", fillcolor="#f7d9c4"] ;
105 -> 113 ;
114 [label="gini = 0.0\nsamples = 7\nvalue = [10, 0]\nclass = [", fillcolor="#e58139"] ;
113 -> 114 ;
115 [label="gini = 0.0\nsamples = 5\nvalue = [0, 7]\nclass = '", fillcolor="#399de5"] ;
113 -> 115 ;
116 [label="colExt1:ratio_m1_m2_ZAMS <= -0.56\ngini = 0.44\nsamples = 325\nvalue = [359, 172]\nclass = [", fillcolor="#f1bd98"] ;
104 -> 116 ;
117 [label="col.7:sma/Rsun <= 0.26\ngini = 0.02\nsamples = 172\nvalue = [273, 3]\nclass = [", fillcolor="#e5823b"] ;
116 -> 117 ;
118 [label="colExt1:ratio_m1_m2_ZAMS <= -0.66\ngini = 0.01\nsamples = 170\nvalue = [272, 1]\nclass = [", fillcolor="#e5813a"] ;
117 -> 118 ;
119 [label="gini = 0.0\nsamples = 165\nvalue = [265, 0]\nclass = [", fillcolor="#e58139"] ;
118 -> 119 ;
120 [label="gini = 0.22\nsamples = 5\nvalue = [7, 1]\nclass = [", fillcolor="#e99355"] ;
118 -> 120 ;
121 [label="gini = 0.44\nsamples = 2\nvalue = [1, 2]\nclass = '", fillcolor="#9ccef2"] ;
117 -> 121 ;
122 [label="col.3:m1rem/Msun <= -0.75\ngini = 0.45\nsamples = 153\nvalue = [86, 169]\nclass = '", fillcolor="#9ecff2"] ;
116 -> 122 ;
123 [label="gini = 0.0\nsamples = 37\nvalue = [56, 0]\nclass = [", fillcolor="#e58139"] ;
122 -> 123 ;
124 [label="col.4:m2rem/Msun <= -1.33\ngini = 0.26\nsamples = 116\nvalue = [30, 169]\nclass = '", fillcolor="#5caeea"] ;
122 -> 124 ;
125 [label="gini = 0.0\nsamples = 8\nvalue = [14, 0]\nclass = [", fillcolor="#e58139"] ;
124 -> 125 ;
126 [label="gini = 0.16\nsamples = 108\nvalue = [16, 169]\nclass = '", fillcolor="#4ca6e7"] ;
124 -> 126 ;
}